{"tier":2,"obs_dim":3,"act_dim":2,"layers":[{"W":[[0.1421196013689041,0.10134050250053406,0.018260199576616287],[0.03243327885866165,0.06419190764427185,0.4256434142589569],[0.04273431748151779,-0.42029401659965515,0.25693753361701965],[-0.17154796421527863,0.5390514135360718,-0.13959269225597382],[-0.13726410269737244,0.2018260508775711,0.14420948922634125],[-0.10039041191339493,-0.015495311468839645,0.044634126126766205],[0.2220764458179474,0.22043338418006897,0.05056275054812431],[0.30143192410469055,0.19159498810768127,-0.17008242011070251],[-0.05661245062947273,-0.06313241273164749,0.03788946568965912],[-0.20158103108406067,-0.1488039642572403,-0.09349791705608368],[0.38997796177864075,-0.21055452525615692,-0.39814749360084534],[-0.013211808167397976,-0.07328947633504868,-0.26493409276008606],[0.23832592368125916,0.28458094596862793,0.14619223773479462],[0.10635651648044586,-0.2997269630432129,-0.06835416704416275],[-0.0700000673532486,0.005186415743082762,0.22881855070590973],[-0.05728771537542343,0.2574958801269531,-0.11724216490983963],[-0.06573480367660522,0.11021549254655838,0.0646095722913742],[-0.06993161886930466,0.33066704869270325,-0.4509683847427368],[-0.21585384011268616,-0.08946341276168823,-0.0732417106628418],[-0.12837056815624237,-0.24044911563396454,0.17244121432304382],[0.02911168709397316,-0.09340976178646088,0.06846233457326889],[-0.05508076772093773,-0.12418579310178757,-0.2089618444442749],[0.010873298160731792,-0.029704751446843147,0.3263140022754669],[0.2859656810760498,0.23878636956214905,-0.35367852449417114],[-0.01541043445467949,-0.1369776576757431,0.15517495572566986],[0.43347764015197754,0.25644201040267944,0.5284436941146851],[-0.1048884466290474,0.01895139180123806,-0.038033295422792435],[-0.03938605263829231,-3.0755705665796995e-05,0.17599554359912872],[0.5206690430641174,-0.04053247347474098,0.004761171992868185],[0.03436878323554993,0.3077186048030853,0.22807729244232178],[-0.15442851185798645,0.11672070622444153,0.06209373101592064],[0.1963358074426651,0.05676596239209175,0.5105136036872864],[0.014521065168082714,-0.15935136377811432,0.14504718780517578],[-0.2907397747039795,-0.20147165656089783,-0.16838474571704865],[0.3690488934516907,-0.16626232862472534,0.11002322286367416],[0.056056275963783264,-0.008291165344417095,0.04854102432727814],[-0.15795457363128662,-0.15647530555725098,-0.42695796489715576],[0.11950863897800446,-0.15073807537555695,-0.2976067066192627],[0.18104133009910583,0.20010855793952942,-0.21293844282627106],[-0.3753560781478882,0.05722253769636154,-0.0812944546341896],[-0.10450663417577744,-0.08568498492240906,0.1882251501083374],[0.3060034215450287,-0.06361255049705505,0.1027708426117897],[-0.27003714442253113,0.18788275122642517,0.18485955893993378],[0.10869273543357849,-0.26169508695602417,0.18960486352443695],[0.10773130506277084,-0.01056729070842266,-0.11620266735553741],[0.12867993116378784,-0.3024192452430725,-0.003979772794991732],[0.0643184557557106,-0.38377368450164795,-0.1821226179599762],[0.34386080503463745,0.10063635557889938,-0.3295944035053253],[-0.14760009944438934,-0.30117523670196533,-0.08309394866228104],[0.07080448418855667,-0.06194083392620087,0.3397315740585327],[0.14362961053848267,0.23064680397510529,-0.049271244555711746],[-0.2108737826347351,-0.13986465334892273,0.08240245282649994],[0.13050292432308197,-0.21286512911319733,-0.07525147497653961],[0.3311718702316284,0.24681144952774048,-0.16073402762413025],[0.20627975463867188,-0.17500752210617065,-0.12303093820810318],[-0.16335558891296387,0.3327549993991852,-0.04084613174200058],[-0.01717929169535637,-0.15822948515415192,0.10469678044319153],[-0.1804126352071762,-0.12250269949436188,-0.15066328644752502],[-0.06230856478214264,0.06117546558380127,0.05075820907950401],[0.24453677237033844,0.17482833564281464,0.25226402282714844],[0.026322508230805397,-0.03186724707484245,0.009623495861887932],[0.21004599332809448,-0.48184463381767273,0.10417474806308746],[-0.002274267142638564,-0.13144679367542267,-0.47751516103744507],[0.04191337898373604,-0.04758748039603233,0.15417347848415375]],"b":[0.008795522153377533,0.005252718925476074,-0.015450388193130493,0.008794468827545643,0.000955895462539047,-0.0043870070949196815,0.026735614985227585,0.027421215549111366,-0.010522228665649891,-0.01567808724939823,0.009996647015213966,-0.001669802120886743,0.02900208719074726,-0.018923161551356316,-0.0005220111343078315,0.012078441679477692,0.0014783645747229457,0.005094611551612616,-0.009957167319953442,-0.006206422112882137,-0.013219269923865795,-0.004207973834127188,0.0012710074661299586,0.027427997440099716,-0.006507559679448605,0.029162121936678886,-0.008426266722381115,0.0037060007452964783,0.01093210093677044,0.010412551462650299,0.006617559585720301,0.005424481350928545,-0.0067389789037406445,-0.011524245142936707,0.0054683261550962925,0.005612150300294161,-0.007968802005052567,0.001087897107936442,0.012756353244185448,0.00041947636054828763,-0.010478904470801353,0.006792108528316021,0.0010382916079834104,-0.011429470032453537,0.007204051129519939,-0.008390448987483978,-0.005786604713648558,0.017121106386184692,-0.020994210615754128,-0.003328807419165969,0.018448343500494957,-0.012043053284287453,-0.005241890903562307,0.021986648440361023,-0.0070721423253417015,0.009624349884688854,-0.010168013162910938,-0.01892230659723282,0.004861942492425442,0.013314464129507542,0.0005100650014355779,-0.004897912964224815,-0.0036292613949626684,0.01249545719474554],"act":"tanh"},{"W":[[0.06125938892364502,0.226231187582016,0.033951327204704285,-0.10534177720546722,-0.18156367540359497,0.05947444960474968,-0.18334966897964478,0.03159734606742859,-0.16379450261592865,0.3779647648334503,-0.1067407950758934,0.16554440557956696,-0.04301103204488754,0.09282420575618744,0.2408577799797058,-0.19887374341487885,0.34193748235702515,-0.08409222215414047,-0.07714469730854034,-0.1999833583831787,0.20779655873775482,0.0324319489300251,0.08873876184225082,-0.3381848633289337,-0.12664729356765747,-0.24333101511001587,0.050770554691553116,-0.05690049007534981,-0.10805106908082962,-0.0823766216635704,-0.12338887155056,-0.07834262400865555,0.19329385459423065,-0.08272585272789001,-0.25584521889686584,-0.22758503258228302,0.11250469088554382,0.08712834119796753,-0.3041045367717743,-0.39244046807289124,0.25377610325813293,-0.0798589363694191,0.10692664235830307,0.37474238872528076,0.043009523302316666,0.015782538801431656,0.0070982142351567745,-0.39874258637428284,-0.028699548915028572,-0.1842937171459198,-0.2847745716571808,-0.015857703983783722,0.19518953561782837,-0.32773715257644653,-0.16402867436408997,-0.18379482626914978,-0.1658630222082138,0.015533686615526676,0.13266226649284363,0.0936114713549614,-0.07592137902975082,0.20328310132026672,0.1527421772480011,-0.066897913813591],[0.1179913878440857,0.3489610254764557,0.1648891270160675,-0.015948276966810226,0.06290866434574127,0.15646354854106903,-0.15086305141448975,-0.3122420310974121,-0.226207435131073,-0.1236056312918663,-0.12538805603981018,0.03458932787179947,-0.07208803296089172,0.12456498295068741,-0.03920045495033264,0.297630250453949,0.010920161381363869,-0.09379409998655319,0.3439103960990906,0.20650866627693176,0.42080745100975037,0.022188952192664146,0.2660241425037384,-0.11475729942321777,0.01742437668144703,0.38829857110977173,-0.04654036834836006,0.0017469858285039663,0.25995150208473206,-0.2997809648513794,-0.14934229850769043,-0.08181459456682205,-0.14860284328460693,-0.09263063967227936,0.006209112238138914,-0.07534805685281754,-0.07811959087848663,0.21459120512008667,0.17157721519470215,-0.12824654579162598,-0.03697111830115318,-0.016981512308120728,0.026081139221787453,0.1000405102968216,0.12171228229999542,-0.012521808035671711,0.04514670372009277,0.11086414009332657,-0.365182489156723,0.028614206239581108,0.06974436342716217,-0.03031323291361332,-0.3717634081840515,-0.0661083459854126,-0.2015955001115799,0.26760101318359375,-0.02021661028265953,-0.16624827682971954,0.0193057581782341,0.23538713157176971,0.016347412019968033,0.24679513275623322,-0.35085782408714294,0.03654157742857933],[0.07824498414993286,0.2520967423915863,-0.21241457760334015,-0.10486968606710434,0.2274899184703827,0.09737250953912735,0.0714978501200676,-0.0056444136425852776,0.0022890022955834866,-0.14648889005184174,0.024926306679844856,0.018430743366479874,0.31749227643013,-0.23035815358161926,-0.12056862562894821,-0.21272364258766174,-0.0504814013838768,0.04884658753871918,-0.1626848727464676,-0.20896011590957642,0.07394807040691376,0.1624140441417694,-0.03778188303112984,0.00252765160985291,-0.18056422472000122,0.05319691076874733,0.016093624755740166,0.26918524503707886,-0.09878301620483398,-0.2728421688079834,-0.37431520223617554,-0.011887922883033752,-0.08922145515680313,-0.006536325439810753,0.04006652906537056,0.15396207571029663,-0.042427100241184235,0.033431924879550934,0.32802659273147583,-0.1017371192574501,0.0971037968993187,-0.10315967351198196,0.21459533274173737,-0.02315933257341385,-0.14844536781311035,-0.3124350905418396,-0.0277364794164896,0.0038508130237460136,0.3998812437057495,0.00915597565472126,0.08506842702627182,-0.20550437271595,-0.27731263637542725,-0.1682620644569397,0.3665417432785034,-0.04431337118148804,-0.14033791422843933,-0.21247844398021698,0.1620313823223114,0.19586525857448578,-0.21985061466693878,-0.21048320829868317,0.07057257741689682,0.41024577617645264],[-0.5203028321266174,0.1925097554922104,0.2466612458229065,-0.09689610451459885,0.2633342444896698,-0.20128172636032104,0.20424288511276245,-0.04497883468866348,-0.03342191129922867,0.08896441757678986,-0.17245517671108246,0.039865441620349884,0.015566423535346985,-0.14596834778785706,0.07107686251401901,-0.0026427479460835457,0.1039956659078598,0.03829974681138992,0.09362202137708664,0.0355088971555233,-0.1643061488866806,0.006999043747782707,-0.04360436275601387,0.09038539975881577,0.06768392771482468,0.1470445692539215,-0.3800513744354248,0.004975737538188696,-0.1175076961517334,0.3191041052341461,-0.1583641618490219,0.010787084698677063,-0.058340296149253845,-0.3439868688583374,-0.2564071714878082,-0.2194531261920929,0.09222623705863953,-0.06169339269399643,0.23541159927845,-0.17573507130146027,0.1467127650976181,0.2090327888727188,0.13020001351833344,-0.2224317044019699,-0.23353125154972076,0.26029422879219055,-0.007716997992247343,0.32992103695869446,-0.0977390706539154,-0.08583366870880127,-0.058699317276477814,-0.3919438421726227,0.09426454454660416,0.1642395555973053,-0.0850074291229248,-0.014101001434028149,0.11629053950309753,-0.11639297753572464,0.0771457850933075,0.3089873492717743,-0.01787816919386387,0.06106431037187576,0.20479567348957062,0.0244753360748291],[-0.11809763312339783,-0.30209675431251526,0.17361384630203247,-0.10122749209403992,-0.17583130300045013,-0.11821191012859344,-0.015115531161427498,0.046352628618478775,-0.20106306672096252,0.19404062628746033,0.13992710411548615,0.36278438568115234,0.06322835385799408,0.26985055208206177,0.054223474115133286,0.08847318589687347,-0.17880533635616302,0.19788245856761932,-0.0971929058432579,0.01376375276595354,-0.0991048812866211,-0.012018168345093727,0.15323428809642792,-0.011969075538218021,-0.17510192096233368,-0.171748548746109,0.1960485428571701,-0.03622424975037575,0.2898101210594177,-0.10251149535179138,0.00023060920648276806,-0.2656763792037964,-0.13971905410289764,-0.18070439994335175,-0.08288310468196869,0.019335834309458733,0.09172309190034866,-0.06686484068632126,-0.1971540004014969,0.2889574468135834,0.23292237520217896,-0.03513733670115471,0.4690855145454407,0.037558142095804214,-0.2668304443359375,0.10744965076446533,-0.17356513440608978,0.17717842757701874,-0.05883002653717995,-0.028603514656424522,0.14864957332611084,-0.09333979338407516,-0.4666326344013214,0.17902487516403198,-0.04178090766072273,0.05332573875784874,-0.26571065187454224,-0.03029920533299446,-0.02382965199649334,-0.3597658574581146,0.0016727582551538944,-0.13095979392528534,0.23260480165481567,0.15002983808517456],[0.30313238501548767,-0.132477268576622,0.19738247990608215,0.011603279039263725,-0.10664012283086777,0.08848706632852554,0.051856186240911484,0.048446230590343475,-0.058758195489645004,-0.37469926476478577,-0.08247643709182739,-0.2031773179769516,0.17673268914222717,-0.0560307539999485,0.353270024061203,0.2115531861782074,0.2498905062675476,-0.019744141027331352,0.03032580018043518,0.30111855268478394,-0.17359162867069244,0.47062796354293823,0.10924569517374039,-0.2716241180896759,-0.11703942716121674,0.06481493264436722,-0.09971817582845688,0.09698707610368729,0.14812910556793213,0.046886928379535675,-0.23384729027748108,0.22080682218074799,0.4031880497932434,0.03629748150706291,-0.2130158394575119,0.18859300017356873,-0.17337927222251892,-0.19354276359081268,0.01959616132080555,-0.3276963233947754,-0.008572675287723541,0.0428771935403347,0.09707812964916229,-0.16115084290504456,0.006369700189679861,0.19961266219615936,-0.09177408367395401,0.05763445422053337,0.1822260469198227,-0.022389370948076248,-0.05516645312309265,0.20427462458610535,-0.17066393792629242,0.005734256003051996,-0.05828104913234711,0.0046830750070512295,0.15468032658100128,0.12788259983062744,-0.19926950335502625,-0.18134157359600067,-0.07650279253721237,0.20403282344341278,0.21505063772201538,0.07424546033143997],[-0.24932478368282318,0.05010940134525299,0.1597588211297989,0.02607213892042637,-0.29128244519233704,-0.1634966880083084,-0.2256050407886505,0.1436510533094406,0.022846899926662445,-0.2427477240562439,0.10403696447610855,-0.2863832712173462,0.1111057698726654,0.08954960852861404,-0.03231267258524895,-0.44159865379333496,-0.03690895065665245,-0.23866704106330872,-0.18736685812473297,0.1692197024822235,0.07144775986671448,-0.18770194053649902,0.19437654316425323,0.14950868487358093,0.20468205213546753,-0.0029398591723293066,0.1135430857539177,0.3815024793148041,-0.06921777874231339,-0.21294882893562317,-0.22221513092517853,-0.012781063094735146,-0.18746040761470795,0.022445885464549065,0.0286992359906435,-0.04573873057961464,0.0502820685505867,-0.026856526732444763,0.02499333769083023,-0.0634235367178917,0.23870930075645447,-0.028062738478183746,-0.022524531930685043,0.3409823179244995,0.024959420785307884,0.20944422483444214,-0.27640506625175476,0.19100791215896606,-0.09063488245010376,-0.05854135751724243,0.09830527752637863,0.2201925665140152,-0.03880373761057854,-0.18110591173171997,0.005128953605890274,0.1323818564414978,0.4211124777793884,0.40945348143577576,0.13991586863994598,0.04625425115227699,-0.10859829187393188,0.07441523671150208,0.10903552919626236,-0.16634254157543182],[0.09708493947982788,0.15344427525997162,-0.174271360039711,-0.10829656571149826,-0.11462954431772232,-0.13199953734874725,0.046740900725126266,0.17422541975975037,-0.13610708713531494,0.04929877072572708,-0.11882452666759491,-0.12479741871356964,0.2990754544734955,-0.10188449919223785,0.08410798758268356,0.27483460307121277,0.07630472630262375,-0.05503352731466293,0.06709642708301544,-0.13039904832839966,0.13934771716594696,-0.4322872757911682,-0.17093807458877563,0.038485441356897354,-0.0044196778908371925,0.4444027543067932,-0.3724100589752197,0.11765949428081512,-0.1167420744895935,0.06340301036834717,-0.022815771400928497,-0.050589434802532196,-0.16451765596866608,0.013461422175168991,-0.15967562794685364,0.07749312371015549,-0.3590550124645233,0.0692330002784729,-0.10847007483243942,-0.23160764575004578,0.4665040969848633,0.048760849982500076,0.0362178273499012,0.08452600985765457,-0.026849834248423576,-0.08178532123565674,-0.0007101044175215065,0.07667078077793121,0.0986059308052063,0.16089823842048645,0.1265377700328827,0.3474297821521759,0.21253570914268494,0.30229026079177856,-0.03091401793062687,0.10968837887048721,-0.14268667995929718,-0.10830793529748917,0.11993490904569626,-0.3927804231643677,0.2051282823085785,-0.0790775790810585,-0.08314771205186844,0.11771941930055618],[0.16638685762882233,0.1805749535560608,0.1076723113656044,-0.14180247485637665,-0.24520806968212128,-0.13151341676712036,-0.22534842789173126,-0.14943672716617584,0.16497167944908142,-0.1887788027524948,0.17312967777252197,-0.18619976937770844,-0.030732667073607445,0.039850328117609024,0.15484586358070374,-0.2816753387451172,0.06285508722066879,-0.13212700188159943,0.09325533360242844,0.0366896316409111,0.1908368170261383,-0.11183031648397446,-0.07355391979217529,-0.34292730689048767,-0.06212712451815605,0.1148100420832634,-0.10553484410047531,-0.30121132731437683,-0.26375022530555725,-0.11773029714822769,-0.1353490799665451,0.21223555505275726,0.13700969517230988,0.26165127754211426,0.08559239655733109,-0.19406931102275848,0.4007653295993805,-0.11187891662120819,-0.08655780553817749,0.36288824677467346,0.10035736858844757,0.10074526816606522,0.1568334996700287,-0.1912277191877365,-0.2051420509815216,-0.07988516241312027,0.1004028245806694,0.24460843205451965,0.12773090600967407,-0.04958256706595421,0.05373027175664902,0.22070376574993134,-0.10985485464334488,0.20244084298610687,-0.3299843966960907,-0.35563576221466064,-0.06444735825061798,-0.22568336129188538,0.04510333761572838,0.12708793580532074,-0.022334806621074677,-0.13214658200740814,-0.0415172204375267,-0.13507215678691864],[-0.009709789417684078,0.06866726279258728,0.10056809335947037,0.12710656225681305,0.12870600819587708,-0.08226009458303452,0.21548521518707275,0.2858080565929413,-0.2084638625383377,0.33227306604385376,-0.16101674735546112,-0.3080301582813263,-0.17871782183647156,-0.06717691570520401,0.005588966887444258,0.028912071138620377,-0.1192157194018364,-0.1764083206653595,-0.14972063899040222,-0.04878178611397743,0.2640436589717865,0.36864641308784485,0.10147128999233246,0.1395776867866516,0.027753207832574844,-0.2599283754825592,-0.005610876251012087,-0.22190804779529572,0.0705871433019638,-0.14797739684581757,-0.2836713194847107,-0.2248118817806244,-0.0660063624382019,0.31648772954940796,-0.09165792912244797,-0.04814824461936951,0.25081998109817505,0.2618263065814972,0.15005822479724884,-0.0012880949070677161,0.024677585810422897,0.07902026921510696,0.1204509511590004,0.0694848820567131,-0.29612454771995544,-0.11964951455593109,0.17454306781291962,0.005643400363624096,-0.003987904172390699,-0.04737085476517677,-0.0030355367343872786,0.04632768779993057,0.10856610536575317,0.2303568571805954,0.16138164699077606,0.03448698669672012,0.14524871110916138,0.140243262052536,-0.5530403256416321,-0.2202240228652954,0.038702212274074554,-0.23019370436668396,-0.14154845476150513,-0.1780017912387848],[-0.021853547543287277,-0.53291255235672,-0.3336787223815918,0.10044220834970474,-0.035030316561460495,0.1229592114686966,-0.16585573554039001,-0.08927515149116516,-0.06238437071442604,-0.09692850708961487,-0.20705044269561768,0.17663231492042542,0.29118433594703674,-0.029208267107605934,-0.002261263784021139,0.10494884848594666,0.2942192554473877,-0.25948771834373474,-0.03843510523438454,0.018335096538066864,0.046095192432403564,-0.14137394726276398,-0.1568099409341812,0.12076745927333832,0.11360429972410202,-0.2604672312736511,0.031050488352775574,0.016733549535274506,-0.06557270139455795,-0.21895666420459747,0.05970129743218422,0.03298579528927803,-0.21994058787822723,0.25315436720848083,-0.24478796124458313,-0.38165083527565,0.11560899019241333,-0.2353331595659256,0.2938118875026703,-0.07120665907859802,-0.20072828233242035,0.20290477573871613,-0.036333680152893066,-0.0514756515622139,-0.2391955852508545,0.21898135542869568,-0.057579413056373596,-0.1027650311589241,0.04515693336725235,-0.29172781109809875,-0.1443912535905838,-0.049586210399866104,-0.07360488176345825,0.04494134709239006,-0.0897521823644638,0.3410906493663788,-0.03247038647532463,-0.23935090005397797,-0.011190714314579964,-0.016421670094132423,0.14296534657478333,-0.22174669802188873,-0.15014991164207458,0.15081188082695007],[-0.10831072926521301,-0.31956109404563904,-0.24432435631752014,0.04291857033967972,-0.03348735719919205,0.013125087134540081,-0.0318019837141037,-0.008865555748343468,-0.053641267120838165,0.13154229521751404,0.051426563411951065,-0.4990159273147583,-0.16949832439422607,0.13098061084747314,0.0034712820779532194,-0.048595719039440155,-0.013064519502222538,-0.08828097581863403,-0.18180862069129944,-0.0964512899518013,-0.16553547978401184,-0.0910884439945221,-0.285715252161026,0.11758232116699219,-0.12703905999660492,0.171422079205513,-0.12085022032260895,-0.30621573328971863,0.060786791145801544,-0.08975382149219513,-0.08123348653316498,0.3274203836917877,0.09012706577777863,-0.1237797662615776,0.2556895613670349,0.31633055210113525,0.025444049388170242,0.13570351898670197,0.14044591784477234,-0.12217137217521667,0.39257436990737915,0.056314948946237564,0.02905188500881195,0.03514229133725166,0.22380419075489044,-0.16566209495067596,-0.27306780219078064,-0.09124636650085449,-0.09693560004234314,-0.029274875298142433,-0.16417287290096283,-0.3299899101257324,-0.23475496470928192,0.024900395423173904,-0.30789312720298767,0.33288154006004333,-0.09351961314678192,-0.1671018898487091,-0.22441259026527405,0.16371917724609375,0.025903968140482903,0.03965551033616066,0.11718528717756271,0.05585294961929321],[0.1830710768699646,-0.2512882649898529,0.4523237347602844,-0.051068902015686035,0.05892609432339668,-0.17209267616271973,-0.11062520742416382,0.10699650645256042,0.12683728337287903,0.02426748163998127,0.008056475780904293,0.08444974571466446,0.17286185920238495,-0.22165976464748383,-0.3394266664981842,-0.21836857497692108,0.11418688297271729,0.2900787591934204,-0.12773698568344116,0.09935649484395981,0.08839833736419678,-0.015657084062695503,0.40160271525382996,-0.1957818567752838,-0.05866057798266411,0.3431294858455658,0.017376597970724106,0.19176796078681946,-0.054739560931921005,0.463301420211792,-0.06469374895095825,0.06751061230897903,-0.186216801404953,-0.0347442664206028,-0.02186507359147072,0.029629262164235115,0.05298221483826637,-0.1317521631717682,0.12605604529380798,-0.022991666570305824,0.19829027354717255,-0.004847699776291847,-0.1141371801495552,-0.04308050870895386,-0.057588495314121246,-0.2804855704307556,-0.1404462605714798,-0.27681732177734375,-0.12482644617557526,0.08716096729040146,-0.28111913800239563,0.06477814167737961,0.06109520047903061,-0.16553112864494324,-0.24504782259464264,0.1408848911523819,0.06700253486633301,-0.30351772904396057,-0.2736685872077942,-0.02495935745537281,-0.013405795209109783,-0.13069410622119904,-0.2726593613624573,0.060197241604328156],[0.08422459661960602,0.15635012090206146,-0.1902092844247818,-0.2437818944454193,0.053436897695064545,0.12666721642017365,0.10515818744897842,-0.10710590332746506,0.2924841642379761,0.3363259434700012,0.2252732664346695,0.15933482348918915,-0.1451902985572815,0.30416014790534973,-0.07937811315059662,0.1820787936449051,-0.11543357372283936,0.06623092293739319,-0.23393069207668304,0.33396247029304504,-0.09517767280340195,-0.02900536358356476,0.14010348916053772,0.10233087837696075,-0.13352267444133759,-0.041047897189855576,0.01588888093829155,0.18973186612129211,-0.2018115371465683,0.08206757158041,-0.3514993488788605,-0.08932347595691681,0.013775463216006756,0.2060432732105255,0.0733553022146225,0.23145298659801483,-0.1298382580280304,-0.16869589686393738,0.08025021851062775,0.07865232229232788,0.03716408461332321,0.1054091826081276,-0.14038020372390747,0.24398203194141388,-0.09161493927240372,0.19264711439609528,0.30984216928482056,0.049523450434207916,0.0860709398984909,-0.36460500955581665,-0.3730500340461731,0.30780795216560364,-0.08048546314239502,0.24433276057243347,-0.008617610670626163,0.1706262230873108,-0.10026392340660095,-0.04976024106144905,0.015073207207024097,0.2059687227010727,0.020384373143315315,0.08859225362539291,0.1509973406791687,-0.2306889444589615],[0.04094911366701126,-0.09445185214281082,0.22739049792289734,-0.300107479095459,0.030035723000764847,-0.2578057050704956,-0.3611510097980499,-0.15657880902290344,-0.09043718129396439,0.24568654596805573,0.27680668234825134,-0.18737590312957764,-0.2080228179693222,-0.4184446334838867,0.06167041137814522,0.21499094367027283,0.04161360487341881,-0.04632803052663803,-0.047518353909254074,-0.07704576104879379,-0.2150866836309433,0.240081787109375,-0.10880589485168457,0.11376810073852539,0.4146561324596405,0.017167026177048683,-0.10231950134038925,-0.00783294253051281,0.16228042542934418,-0.015197940170764923,0.17590193450450897,0.03508218750357628,0.02979549579322338,0.22001954913139343,-0.02385801449418068,-0.02569575421512127,0.06529992818832397,0.009756495244801044,0.08259574323892593,0.12350965291261673,0.09522031992673874,-0.19246649742126465,-0.0027083372697234154,0.3547239303588867,0.012213476002216339,0.2674413025379181,-0.11775591969490051,0.13690121471881866,0.04226149991154671,-0.18029822409152985,-0.026897963136434555,0.28733062744140625,0.035168323665857315,-0.16083478927612305,0.2961100935935974,-0.147659569978714,-0.27038320899009705,-0.20366626977920532,-0.008257291279733181,0.07079975306987762,-0.23528461158275604,0.21773633360862732,-0.1564847081899643,0.14717374742031097],[0.08648458123207092,-0.03522085025906563,-0.21806851029396057,-0.28827229142189026,-0.05850333347916603,-0.1315491944551468,-0.16514340043067932,-0.039461806416511536,0.09428863972425461,-0.31880658864974976,-0.2314913272857666,0.18481090664863586,-0.12390606850385666,0.09676501899957657,-0.2708815932273865,0.14566780626773834,-0.05811271443963051,0.11443024128675461,-0.16043893992900848,-0.360291451215744,0.30733397603034973,0.050907958298921585,0.15915937721729279,0.0217015091329813,-0.30148011445999146,-0.1783081591129303,-0.14701612293720245,0.07267928868532181,0.18351271748542786,0.09948789328336716,0.12428756803274155,0.3277936279773712,0.03453259542584419,-0.05903240665793419,0.13934217393398285,0.0270230770111084,0.12787868082523346,-0.050993338227272034,-0.005478617735207081,-0.2623787522315979,-0.014559820294380188,0.3326493203639984,0.09434836357831955,0.3332650363445282,-0.019516807049512863,0.2526242733001709,-0.19485986232757568,0.23583003878593445,0.015588141977787018,0.4062263071537018,-0.027244847267866135,0.038399286568164825,0.11179443448781967,0.17989987134933472,0.1644255816936493,-0.11720703542232513,0.03416561335325241,-0.07531341910362244,-0.1928652822971344,0.16025736927986145,-0.1371183544397354,0.052946243435144424,-0.04913650080561638,-0.21535320580005646],[0.09374923259019852,0.3184964656829834,-0.04358188062906265,0.19454003870487213,0.07722505182027817,0.10861526429653168,0.2556059956550598,0.1824323982000351,0.21435241401195526,-0.028449904173612595,-0.015443393029272556,0.06771288067102432,0.2749702036380768,0.18879327178001404,0.03648192435503006,0.11564908176660538,0.022996075451374054,0.31546080112457275,0.03821040689945221,-0.2802591919898987,-0.37612104415893555,-0.20602555572986603,0.002907067071646452,0.12696292996406555,0.009090801700949669,0.04080810025334358,-0.007350811269134283,0.02424078993499279,-0.03971341624855995,-0.07261284440755844,0.15765118598937988,-0.218256413936615,0.3796968162059784,0.15322288870811462,0.3044147491455078,-0.2502043545246124,0.08762948960065842,0.1040901467204094,0.4805324077606201,-0.06783968955278397,0.09211772680282593,-0.03884746879339218,0.1522560566663742,0.056192900985479355,-0.0847039520740509,0.23154884576797485,-0.30216196179389954,-0.06337030231952667,-0.27071020007133484,-0.01045871339738369,0.05743861198425293,0.2150532305240631,-0.03971998021006584,-0.08513867110013962,-0.30597665905952454,-0.11799189448356628,0.003949317149817944,0.03190016746520996,-0.2627142667770386,0.04707666486501694,-0.04803329333662987,-0.08226880431175232,-0.14093953371047974,0.23942287266254425],[0.09675060212612152,0.21819168329238892,-0.11935360729694366,0.4364418685436249,0.03907811641693115,-0.011993514373898506,-0.47576501965522766,0.01888081431388855,-0.2611393630504608,0.10344557464122772,-0.19391973316669464,-0.0008813373278826475,-0.19234110414981842,0.06757236272096634,-0.029709069058299065,0.49573174118995667,-0.09190231561660767,0.24063539505004883,-0.24139706790447235,-0.06044362112879753,-0.2002708613872528,0.13079552352428436,-0.03909852355718613,-0.06315862387418747,-0.08515212684869766,-0.11512038856744766,0.05865642800927162,0.08143941313028336,-0.41722729802131653,0.17147000133991241,0.021960536018013954,0.08303501456975937,-0.25661206245422363,0.0318802148103714,-0.1936071664094925,0.04657579958438873,0.14757856726646423,-0.2057458609342575,0.15343068540096283,0.013954547233879566,0.27004432678222656,0.04346553608775139,-0.2785656750202179,-0.1848285049200058,-0.024246791377663612,-0.09139120578765869,-0.1950410008430481,-0.16184905171394348,-0.043048661202192307,-0.04653818532824516,0.37910059094429016,-0.0735781341791153,-0.30239954590797424,0.0683855265378952,-0.010481026023626328,-0.1996767520904541,0.14283879101276398,0.11000514775514603,0.11111664026975632,0.08991365134716034,0.12177224457263947,-0.10110876709222794,-0.03517650440335274,0.005484373774379492],[0.24498729407787323,-0.14229071140289307,0.08021406084299088,0.09861517697572708,-0.22212760150432587,-0.08429568260908127,0.05826999619603157,-0.017984304577112198,0.16677942872047424,0.16134481132030487,-0.14047043025493622,0.009321458637714386,0.21064287424087524,0.1157558336853981,0.02137143723666668,-0.210687518119812,-0.17011801898479462,0.04291597753763199,-0.134371817111969,0.08829033374786377,-0.08328136801719666,0.2508636713027954,-0.40299293398857117,-0.13494929671287537,0.10549727082252502,-0.09303491562604904,-0.09147656708955765,0.06134675815701485,0.22740156948566437,0.06921377778053284,-0.06662357598543167,-0.10387735813856125,-0.16701848804950714,-0.44562017917633057,0.028911206871271133,-0.22272513806819916,-0.16956278681755066,0.22750821709632874,0.128438800573349,-0.13800624012947083,-0.08607268333435059,-0.19858713448047638,-0.2995198667049408,0.3127640187740326,0.207924023270607,0.17933274805545807,0.19234439730644226,0.057573352009058,0.22241927683353424,-0.09083887189626694,0.2420317381620407,-0.029180405661463737,-0.17605137825012207,0.30173787474632263,-0.2086499184370041,-0.22402088344097137,0.03032958321273327,-0.15746836364269257,-0.06262882053852081,0.11429335922002792,-0.0758805125951767,-0.33086690306663513,-0.1456943154335022,-0.1462087482213974],[-0.14511016011238098,0.0625014528632164,0.006590189412236214,0.2597184181213379,-0.27764615416526794,0.09752702713012695,0.17428617179393768,0.04163941368460655,0.12330188602209091,0.007347424514591694,-0.002866389462724328,-0.3849092125892639,-0.07326556742191315,0.10651732236146927,-0.2006172090768814,0.010909090749919415,0.101250559091568,0.22639553248882294,0.032149139791727066,-0.06494370102882385,-0.09379284083843231,0.2735098898410797,0.07112038135528564,-0.18544378876686096,-0.008330564014613628,-0.03491884469985962,-0.16678160429000854,0.23351213335990906,-0.06924166530370712,-0.1607818305492401,0.03967266529798508,-0.004598449915647507,-0.22298666834831238,0.09519955515861511,-0.023905862122774124,-0.26453110575675964,-0.1045960783958435,-0.2886402904987335,-0.10390780121088028,-0.041877757757902145,-0.21468165516853333,-0.18869106471538544,0.09571609646081924,-0.019653435796499252,0.023890957236289978,-0.11792127788066864,-0.11826813220977783,-0.02713535539805889,-0.34422925114631653,0.13699525594711304,0.2762964963912964,0.0902249738574028,0.2001907229423523,0.14624537527561188,0.16909159719944,0.28266242146492004,-0.41949889063835144,-0.3485991060733795,-0.11091332137584686,0.24531352519989014,0.18447819352149963,-0.11755388975143433,0.4188486337661743,0.006122838705778122],[0.03893672674894333,-0.09356731921434402,-0.14011238515377045,0.42072024941444397,0.2287234365940094,-0.43733179569244385,-0.028885312378406525,-0.14301514625549316,0.11705579608678818,0.011667326092720032,-0.08526134490966797,0.14318573474884033,0.3529963493347168,0.12421192973852158,0.13868245482444763,0.10474291443824768,-0.0681067556142807,-0.12134166061878204,0.24929258227348328,0.26836857199668884,-0.057381100952625275,-0.29054462909698486,0.2255571484565735,0.010142266750335693,-0.024969473481178284,-0.09017974883317947,-0.059085238724946976,-0.22905872762203217,-0.07126989215612411,0.040964461863040924,-0.12959270179271698,0.1914275586605072,-0.27869972586631775,0.030382389202713966,0.09851124882698059,0.130608469247818,0.14970837533473969,0.1409667730331421,0.06905389577150345,-0.1318894773721695,-0.04375039041042328,-0.14735738933086395,0.08101648092269897,-0.02575061097741127,0.13701915740966797,-0.03869530186057091,-0.03724789246916771,-0.1876102089881897,-0.11968490481376648,-0.12850674986839294,0.17435084283351898,0.052169978618621826,0.1303783506155014,0.1054571196436882,0.24570968747138977,-0.09771935641765594,-0.20942965149879456,-0.10063695907592773,-0.19269299507141113,-0.04287891462445259,-0.5693302750587463,0.06870771199464798,0.26659971475601196,-0.11627194285392761],[0.2623275816440582,-0.05695594102144241,0.099857859313488,-0.08789271116256714,-0.042670316994190216,-0.026873623952269554,0.22750915586948395,0.23732972145080566,0.10892994701862335,-0.270231157541275,0.018540410324931145,-0.2437060922384262,-0.006711065303534269,0.19316968321800232,-0.02038116753101349,0.2600562870502472,0.10039918124675751,-0.11976630985736847,0.1324203610420227,-0.23638132214546204,0.04251088574528694,-0.24940720200538635,0.3501094877719879,-0.17137612402439117,0.39101213216781616,0.007955670356750488,0.08124324679374695,0.07213403284549713,0.07375005632638931,0.286115437746048,0.24153763055801392,-0.005400450434535742,-0.015375722199678421,0.2047007977962494,-0.2576201260089874,-0.09574820101261139,-0.24880380928516388,0.14844603836536407,0.15850301086902618,0.2182086855173111,0.17200994491577148,0.17206299304962158,0.04025549814105034,0.22536875307559967,-0.003349804552271962,-0.18549636006355286,0.05071600526571274,-0.1328517198562622,0.2612360417842865,-0.1529977172613144,0.0965103879570961,-0.47007355093955994,-0.17163711786270142,0.11096533387899399,-0.0012367659946903586,-0.019440721720457077,-0.09664826095104218,0.10536883771419525,0.008527186699211597,0.31931957602500916,-0.06342015415430069,0.016428235918283463,0.18898288905620575,-0.06588111072778702],[0.31769034266471863,0.03700285404920578,-0.12293103337287903,-0.040524616837501526,-0.04716813564300537,0.24417047202587128,-0.032180484384298325,0.4050748646259308,0.12717051804065704,-0.014152111485600471,0.07766654342412949,0.06726289540529251,-0.129123255610466,-0.051378052681684494,-0.035677988082170486,0.14801336824893951,-0.4848170280456543,-0.0887182280421257,0.06151455268263817,0.4004169702529907,0.12222248315811157,0.007707157637923956,-0.1587769091129303,-0.03381659835577011,0.18378719687461853,-0.3991599678993225,-0.10525477677583694,-0.10523029416799545,0.1041887030005455,0.1745402067899704,0.13975460827350616,0.024336857721209526,-0.22023506462574005,-0.24814338982105255,-0.049673862755298615,-0.04686100408434868,0.15123619139194489,0.15194518864154816,0.05365462973713875,-0.13735689222812653,0.10487651079893112,0.18392546474933624,0.22224819660186768,-0.19755077362060547,-0.021320773288607597,-0.20302805304527283,-0.16941362619400024,0.2610337436199188,-0.05494142696261406,-0.14340737462043762,-0.06605176627635956,0.26749858260154724,0.2120543271303177,-0.32802295684814453,-0.08871624618768692,0.08401189744472504,-0.05290617421269417,-0.021422788500785828,0.056731000542640686,0.19129568338394165,0.025296032428741455,-0.12449265271425247,0.18955478072166443,0.2664625942707062],[0.03788162022829056,0.097719207406044,0.08313082903623581,0.0760582759976387,0.013794025406241417,-0.2365594059228897,-0.3461957275867462,0.3470230996608734,-0.08981744945049286,0.11858738958835602,0.027520958334207535,0.026240931823849678,0.015894412994384766,-0.17216350138187408,-0.18275848031044006,0.10989221185445786,0.14751648902893066,0.07959749549627304,0.1098933070898056,0.16957120597362518,-0.1592782586812973,-0.13021360337734222,-0.08422618359327316,-0.03520656377077103,-0.07385784387588501,-0.17452658712863922,0.007225056178867817,0.13359703123569489,-0.09676717221736908,-0.44268497824668884,0.30413779616355896,-0.1194438561797142,0.0755341574549675,-0.05732918530702591,0.19052042067050934,0.1152547150850296,-0.06884948909282684,-0.12351983785629272,0.00837814062833786,0.035822708159685135,-0.0510590635240078,0.18273106217384338,0.1728755533695221,0.19810126721858978,0.07781301438808441,-0.01559489220380783,0.6356192231178284,0.1568995714187622,0.14977571368217468,0.04671420156955719,0.02679332345724106,-0.16965781152248383,0.016610095277428627,-0.20240439474582672,-0.16840586066246033,0.026929914951324463,0.34773632884025574,-0.32138708233833313,-0.2653789222240448,-0.08524966239929199,-0.020382367074489594,0.09531794488430023,0.3005369305610657,-0.08236251771450043],[-0.3656519651412964,-0.24596750736236572,-0.16535550355911255,-0.06701189279556274,0.16299545764923096,0.11781574040651321,-0.07867474108934402,-0.1266811192035675,0.239431694149971,0.16234190762043,0.0355360247194767,0.07441077381372452,-0.10254532098770142,-0.22515422105789185,-0.1677614450454712,-0.18417304754257202,-0.08563367277383804,0.040009547024965286,0.12911845743656158,0.021049315109848976,-0.0734310895204544,0.023758500814437866,-0.12288127094507217,-0.28247350454330444,-0.010178755968809128,0.08100426942110062,0.4899921715259552,0.07142522931098938,-0.02967122569680214,-0.02287444844841957,-0.06848958134651184,-0.014322594739496708,0.014659306965768337,0.09510965645313263,-0.2637684941291809,-0.19654595851898193,0.009979207068681717,0.30347010493278503,0.1490991860628128,-0.1496274769306183,0.028471242636442184,0.4481740891933441,-0.06859160959720612,0.09534067660570145,0.09211607277393341,-0.1804504543542862,0.09819933772087097,0.08925465494394302,0.06549019366502762,0.06802894920110703,0.31989341974258423,0.34707170724868774,-0.12575018405914307,0.07023981958627701,-0.10148022323846817,-0.17152248322963715,-0.16716569662094116,0.15455582737922668,-0.2598324716091156,-0.11084787547588348,0.09331807494163513,0.41093793511390686,0.2124214917421341,0.05100731551647186],[-0.09653672575950623,0.17468717694282532,-0.18557915091514587,0.0940796285867691,0.05665351077914238,-0.3143198788166046,0.29517507553100586,0.13005484640598297,0.20977556705474854,0.16858771443367004,0.1141044944524765,0.13110236823558807,-0.0960182249546051,-0.17592433094978333,-0.21472719311714172,-0.1329265832901001,0.022007126361131668,-0.24715253710746765,0.34826937317848206,-0.0007940526120364666,0.10985117405653,0.11223983764648438,0.11374472081661224,-0.29652827978134155,0.19152377545833588,-0.2654280662536621,-0.03907047212123871,0.04374195262789726,0.15774314105510712,-0.13009727001190186,0.08551014214754105,0.06435691565275192,0.19739747047424316,0.0554814413189888,0.16371482610702515,0.02151404321193695,-0.288782000541687,-0.4413380026817322,-0.22046847641468048,-0.2352788895368576,0.45187774300575256,0.10588110238313675,-0.2207079380750656,-0.22179323434829712,-0.0027114367112517357,0.03316135331988335,-0.22176136076450348,-0.030500128865242004,-0.06311395764350891,-0.06850222498178482,0.03197590634226799,-0.02093016356229782,-0.33480843901634216,0.07987526059150696,0.03359803929924965,0.029061803594231606,0.07658303529024124,-0.10141652822494507,0.05615295469760895,-0.004187800921499729,-0.08281561732292175,0.002715799491852522,-0.35726141929626465,-0.04068168252706528],[0.14755472540855408,-0.05803127586841583,-0.40403902530670166,0.3902660608291626,0.008405198343098164,-0.2563574016094208,-0.04392574727535248,-0.22892649471759796,0.036620572209358215,0.018830357119441032,-0.17722739279270172,-0.09419665485620499,-0.17571602761745453,0.09827028959989548,-0.23470357060432434,-0.11572562158107758,0.15395833551883698,0.08594129234552383,-0.08438033610582352,0.1444389820098877,-0.055352553725242615,-0.03986575827002525,0.18944694101810455,0.07650946825742722,-0.20236726105213165,0.0007855568546801805,0.019543971866369247,-0.040833957493305206,0.03392861783504486,0.0845661610364914,-0.0036606776993721724,-0.3090996742248535,0.22445560991764069,-0.11515296995639801,-0.30018535256385803,0.05500999838113785,-0.2412547916173935,0.011768648400902748,0.13262222707271576,0.14720508456230164,-0.016686130315065384,-0.20412355661392212,0.21730220317840576,-0.04375733435153961,-0.06626011431217194,-0.1212090477347374,-0.29493647813796997,0.5018107295036316,0.2772311270236969,-0.28314173221588135,0.17247362434864044,-0.134664386510849,0.3268473148345947,-0.23281735181808472,-0.10085946321487427,-0.0072290427051484585,-0.14201129972934723,-0.07914728671312332,-0.07307610660791397,-0.011344012804329395,0.1783219873905182,0.0756632387638092,-0.2579728662967682,-0.1153675764799118],[0.08226599544286728,-0.20215635001659393,0.03172358497977257,0.12329743802547455,0.1914772391319275,0.1572856307029724,-0.02708727866411209,0.16696396470069885,0.02042735181748867,0.02467411383986473,-0.2962203323841095,0.17020219564437866,-0.3291350305080414,-0.07584209740161896,0.19543223083019257,-0.13036328554153442,-0.18428683280944824,-0.2823297381401062,-0.037466343492269516,-0.015027167275547981,-0.11525649577379227,-0.09564898163080215,0.16330157220363617,-0.005327809602022171,-0.14516058564186096,0.5518383979797363,-0.2312707006931305,0.13820773363113403,0.10076618939638138,0.0230404082685709,-0.012337838299572468,0.08580362796783447,0.0457233227789402,0.0007160559180192649,0.1832248866558075,-0.3413427472114563,-0.025648919865489006,-0.5163624286651611,-0.05155396834015846,-0.012065727263689041,0.11331140249967575,0.02507024258375168,0.4598359167575836,0.15234118700027466,0.40779539942741394,-0.10805083066225052,0.12819279730319977,-0.10948359966278076,0.02078716643154621,-0.1890430599451065,0.0776456966996193,0.046899061650037766,-0.01932167075574398,0.08152346312999725,0.17669005692005157,-0.13477252423763275,0.053921714425086975,0.19366466999053955,-0.04587817192077637,0.18546132743358612,0.05073044076561928,-0.07827702164649963,-0.17439983785152435,0.1167701780796051],[-0.09502027183771133,0.04840613901615143,0.13980068266391754,-0.08821866661310196,0.13778434693813324,-0.013852952979505062,0.006558213382959366,0.2484273910522461,-0.18251147866249084,-0.27018073201179504,0.029818274080753326,0.3491077423095703,-0.17744141817092896,0.2524104416370392,-0.08365493267774582,-0.08150570839643478,0.3619345426559448,-0.3621869385242462,0.04154510796070099,-0.17280539870262146,-0.1437867432832718,0.2268579751253128,-0.08763664215803146,0.4421599507331848,-0.22840040922164917,0.015208287164568901,0.11713654547929764,-0.13892237842082977,-0.12024561315774918,0.2288048267364502,0.1417526751756668,0.16541558504104614,-0.05435410887002945,0.04958624392747879,0.02632075920701027,-0.04085931554436684,-0.2831328511238098,0.13944479823112488,0.08539329469203949,-0.1414182037115097,0.032956354320049286,-0.1669331043958664,-0.17647527158260345,-0.0435318797826767,-0.05771049112081528,-0.27426788210868835,0.06529694050550461,0.2554289400577545,-0.16190944612026215,-0.24010570347309113,0.23514029383659363,0.2602217197418213,-0.1800808310508728,-0.16173890233039856,-0.06754954159259796,0.03210748732089996,-0.18868717551231384,-0.16007418930530548,-0.09432245045900345,-0.02871645614504814,-0.051073525100946426,-0.3312755227088928,0.1810048371553421,-0.16126109659671783],[-0.05624743923544884,-0.015594695694744587,-0.2546703815460205,0.19851839542388916,0.06345375627279282,-0.021698689088225365,0.30408433079719543,-0.006584702525287867,-0.20385029911994934,-0.1969759613275528,0.29729124903678894,0.006075961980968714,-0.12552231550216675,-0.13703657686710358,0.2641482353210449,0.0884900912642479,0.2225715070962906,0.36232852935791016,-0.3725344240665436,0.13347090780735016,0.19572004675865173,0.22319167852401733,0.16656751930713654,0.08770844340324402,0.06879066675901413,0.2512730360031128,0.42867377400398254,-0.1051567867398262,-0.06856872886419296,-0.07096060365438461,0.32266944646835327,0.053804539144039154,-0.22957952320575714,-0.09559448063373566,0.20614002645015717,-0.15426073968410492,-0.09407331794500351,0.04603559523820877,-0.10540348291397095,-0.18857140839099884,0.16192561388015747,0.10338474065065384,0.12424828857183456,-0.05030902847647667,-0.026573698967695236,0.022446323186159134,0.0443572998046875,0.033075686544179916,0.0928390845656395,-0.14491093158721924,0.11381342262029648,0.002373727736994624,0.2687600553035736,0.313308447599411,-0.23045475780963898,0.10774561762809753,0.11614007502794266,-0.10845300555229187,0.12220749258995056,0.16178132593631744,-0.35852277278900146,-0.08276952803134918,-0.10538896918296814,0.1671399623155594],[0.2411923110485077,-0.1404011845588684,0.07625801861286163,0.2537996172904968,0.051054514944553375,0.06668537110090256,-0.03067082166671753,-0.10562855750322342,0.40966975688934326,0.20614950358867645,-0.21585047245025635,-0.09040401875972748,-0.08020129799842834,0.04089679569005966,0.4774012863636017,-0.09551765024662018,0.40578675270080566,-0.011333730071783066,0.0551643930375576,-0.20185762643814087,-0.12310266494750977,0.03524088114500046,0.14965073764324188,0.2624717056751251,0.04879365861415863,-0.06825032830238342,-0.08169723302125931,0.44218909740448,0.07300854474306107,-0.15837007761001587,0.04871046170592308,0.0362292155623436,-0.16273267567157745,-0.1671876311302185,-0.05474397540092468,0.310909628868103,-0.0008227109792642295,0.12377067655324936,-0.14523117244243622,0.11281697452068329,0.11812914162874222,0.4052034914493561,-0.04095090553164482,-0.1318017691373825,-0.13694888353347778,-0.1943536400794983,0.12545926868915558,0.2256472259759903,-0.28067123889923096,0.21518062055110931,-0.06400268524885178,0.04915503039956093,-0.037197839468717575,-0.018182964995503426,-0.04410828277468681,-0.07539159059524536,-0.14978766441345215,0.06029590964317322,0.10190501064062119,0.14941073954105377,-0.14482426643371582,-0.11388041824102402,-0.21211649477481842,0.12125328183174133],[0.12730476260185242,0.059341512620449066,8.046346192713827e-05,0.1314603090286255,-0.3325689136981964,-0.1596064567565918,0.20635512471199036,-0.049844395369291306,-0.07169134169816971,0.109408900141716,0.16334237158298492,-0.03239702805876732,-0.18561962246894836,-0.19424648582935333,-0.11944644898176193,0.08068324625492096,0.042666155844926834,0.0018694816390052438,-0.16568708419799805,-0.2358771413564682,-0.13508106768131256,-0.39272603392601013,0.31696611642837524,-0.03562399372458458,0.05555131286382675,0.021337304264307022,0.0183281060308218,-0.09811507165431976,-0.31225743889808655,0.011537658050656319,-0.08239399641752243,0.33149266242980957,0.27164217829704285,-0.5039263963699341,-0.21438705921173096,-0.11751016229391098,0.038598522543907166,0.22475625574588776,-0.02756616286933422,-0.12244708091020584,-0.3057595491409302,0.08558470010757446,0.07176364213228226,-0.13850480318069458,0.10036703944206238,0.07445727288722992,0.14964893460273743,0.044660333544015884,-0.02446410059928894,-0.09391968697309494,0.048429057002067566,0.21530665457248688,-0.32997989654541016,-0.01958216354250908,0.3171651065349579,0.3053204417228699,0.06776092946529388,-0.014391402713954449,-0.0999668687582016,0.022668786346912384,0.0059341141022741795,-0.2361833155155182,-0.1463484913110733,0.17555394768714905],[0.19344496726989746,0.39262866973876953,-0.10579085350036621,-0.21819022297859192,0.05802462622523308,-0.03135909140110016,-0.16277089715003967,0.07152634859085083,0.32450634241104126,0.17408515512943268,-0.42833879590034485,-0.08234556764364243,-0.0036778803914785385,0.07120051234960556,-0.011087490245699883,0.02197267673909664,0.10435118526220322,-0.18694482743740082,-0.08880867063999176,-0.06833133846521378,-0.08028765022754669,0.06589984148740768,0.050070732831954956,0.12005385011434555,0.10510795563459396,0.3284324109554291,0.1503002643585205,-0.019071156159043312,0.27314603328704834,0.0626935362815857,0.020987914875149727,0.11720158904790878,0.08848798274993896,-0.3075583279132843,0.13531140983104706,-0.26990970969200134,0.16366498172283173,-0.130050390958786,-0.2051275223493576,0.20420794188976288,-0.11480984091758728,0.0057282294146716595,-0.19190524518489838,-0.05440928041934967,-0.3161485493183136,-0.1756366491317749,-0.22625313699245453,-0.1880120038986206,0.20136961340904236,-0.08600395917892456,0.18829476833343506,0.028359757736325264,0.021206099539995193,0.10416097939014435,-0.0329260379076004,0.4162212312221527,0.20930948853492737,-0.122194804251194,0.015011937357485294,-0.20326842367649078,-0.232389897108078,0.2806779444217682,0.18127372860908508,0.12315139919519424],[-0.2580476999282837,0.1830979734659195,-0.20179441571235657,0.1035657599568367,-0.11877503991127014,0.06600462645292282,0.010654686950147152,-0.07315311580896378,-0.38629719614982605,-0.07001081854104996,-0.22826048731803894,0.1319894641637802,0.08576814830303192,-0.09650640934705734,0.15338513255119324,-0.02040981315076351,0.0116733368486166,-0.23957130312919617,0.2741678059101105,-0.2748565673828125,-0.2508202791213989,0.07111597061157227,0.143217995762825,-0.42494192719459534,0.35256141424179077,0.17699021100997925,0.1686163693666458,0.14372633397579193,0.0690472275018692,0.19169695675373077,0.020145028829574585,0.04914155602455139,-0.11799544841051102,-0.282099187374115,0.23080962896347046,0.5302557945251465,0.07063388079404831,-0.12844693660736084,0.08948317915201187,0.13416561484336853,-0.1044292226433754,0.014517131261527538,0.17189116775989532,0.15348808467388153,-0.18370208144187927,-0.05709056183695793,-0.11568330973386765,-0.07133463025093079,0.18469519913196564,-0.0070398286916315556,-0.14645756781101227,0.2942633032798767,0.12301576882600784,0.05005809664726257,-0.18475329875946045,0.09584207832813263,-0.01262109074741602,-0.029704825952649117,-0.15016350150108337,0.2700957655906677,0.13436968624591827,-0.18484938144683838,-0.07839550077915192,-0.12993928790092468],[0.22549861669540405,-0.09462402015924454,-0.12851104140281677,-0.2297501116991043,-0.43387284874916077,0.09991483390331268,0.04542557895183563,0.13457275927066803,-0.23582439124584198,0.26276612281799316,0.045962877571582794,-0.18215809762477875,-0.10954602062702179,-0.0801381766796112,-0.18069308996200562,-0.1838473677635193,0.004379746038466692,-0.06665683537721634,0.5238727331161499,-0.01124989241361618,0.11271831393241882,0.09984498471021652,-0.008263998664915562,0.3978419005870819,-0.2889207899570465,0.007188793737441301,0.07513264566659927,0.07967207580804825,-0.3850778341293335,0.1139553114771843,0.1058352142572403,-0.3172685503959656,-0.229627326130867,-0.06796927005052567,-0.009585528634488583,0.12423712760210037,0.009326224215328693,-0.13545626401901245,0.13712316751480103,-0.02701498009264469,-0.2656143307685852,0.07962187379598618,0.023260047659277916,-0.14970102906227112,0.06697937846183777,0.20461386442184448,-0.17001157999038696,-0.08549069613218307,0.03967393934726715,-0.11127864569425583,0.048583127558231354,-0.09196528047323227,-0.0588117353618145,0.19798146188259125,-0.12446469068527222,-0.21856096386909485,-0.05953111872076988,0.10719708353281021,-0.16194696724414825,0.0002563329180702567,-0.3574124276638031,0.15924063324928284,0.03462737426161766,0.16174252331256866],[0.02965262532234192,0.13645829260349274,0.04564143344759941,0.05256728455424309,0.08135640621185303,0.055662743747234344,-0.22497105598449707,-0.019861705601215363,-0.07452868670225143,0.08729269355535507,0.21811141073703766,-0.020903177559375763,0.08949051052331924,0.010922856628894806,0.04285889118909836,-0.1392095983028412,0.04884003847837448,-0.2703997790813446,-0.0503564178943634,0.1805175095796585,0.00925285741686821,0.02366320975124836,0.2838427424430847,0.342752605676651,0.14728716015815735,-0.13566380739212036,0.09490802884101868,-0.16801238059997559,0.13361001014709473,0.08190905302762985,-0.031200919300317764,0.033856283873319626,0.35006311535835266,-0.25079867243766785,-0.21075597405433655,-0.039495646953582764,-0.1313602179288864,-0.30478301644325256,0.43853873014450073,0.030653273686766624,0.1474035084247589,0.04317677766084671,0.16415396332740784,-0.02128063514828682,0.13057494163513184,-0.04872380569577217,0.07202334702014923,-0.3306994140148163,0.0987263023853302,0.7060315012931824,0.14071032404899597,0.14639751613140106,0.11681321263313293,0.25845271348953247,-0.1387857049703598,0.10545535385608673,-0.16242334246635437,-0.09407597780227661,0.22941254079341888,0.1564624160528183,0.02883736975491047,-0.04424017295241356,-0.05068158358335495,-0.06714554131031036],[-0.0015026205219328403,-0.021264389157295227,-0.03191816061735153,0.20930276811122894,-0.037585705518722534,-0.1638418287038803,0.16634692251682281,0.022344527766108513,0.08566833287477493,-0.04965287446975708,0.25653451681137085,-0.0012879539281129837,-0.05446808785200119,0.024740276858210564,-0.2678639590740204,0.227688267827034,-0.10130616277456284,-0.015539420768618584,0.06724657118320465,-0.2134188711643219,0.0295452568680048,0.20440705120563507,0.06847827136516571,0.26659876108169556,0.0779167115688324,0.22609049081802368,0.018816230818629265,-0.04347596317529678,0.26076632738113403,-0.22264719009399414,-0.24115964770317078,-0.017061181366443634,0.02174898236989975,-0.07117852568626404,-0.19713231921195984,0.16947217285633087,0.22912870347499847,-0.08043032884597778,0.11134213209152222,-0.05252065882086754,-0.26175010204315186,0.40147098898887634,-0.07164935767650604,0.1788739413022995,0.21661055088043213,-0.07677438110113144,-0.13622945547103882,-0.09266124665737152,-0.1339995115995407,-0.34063300490379333,-0.04530902951955795,-0.03525219485163689,0.15703938901424408,-0.040108948945999146,-0.2096591293811798,-0.39993515610694885,0.08170032501220703,-0.23866765201091766,0.3758465647697449,-0.36302483081817627,0.11307341605424881,-0.29869353771209717,0.2901485860347748,0.006463879719376564],[-0.08612358570098877,-0.10733876377344131,0.11970404535531998,0.21908698976039886,-0.10684806108474731,0.05242931470274925,0.3659069240093231,-0.0993543416261673,0.017385872080922127,0.09577592462301254,-0.11770141124725342,-0.10098116844892502,0.1761912703514099,0.05549463629722595,-0.18673965334892273,0.33903011679649353,0.04859588295221329,-0.34878477454185486,-0.1607408970594406,0.0626990869641304,0.2634814977645874,-0.06295625120401382,-0.41864848136901855,-0.21164515614509583,-0.18616983294487,0.2553011476993561,0.18478044867515564,-0.023536141961812973,-0.08021488785743713,0.15930551290512085,0.0657304897904396,0.043396010994911194,0.23579180240631104,-0.1499146670103073,-0.18531465530395508,0.09654930979013443,-0.08668375015258789,-0.3497847616672516,0.02480234019458294,0.2686273753643036,0.1127202957868576,0.020533673465251923,0.052502330392599106,0.2864486873149872,-0.27483201026916504,-0.09138944000005722,0.06083930656313896,0.02576909027993679,-0.2997336685657501,0.23352724313735962,0.051008712500333786,0.11006548255681992,0.029677778482437134,-0.26509249210357666,0.06200728937983513,-0.04713765159249306,0.14685118198394775,0.013376648537814617,0.05184484273195267,0.23084239661693573,-0.4545372426509857,-0.00020421348745003343,-0.11493722349405289,0.12137605994939804],[-0.41463521122932434,-0.04985744133591652,-0.17978420853614807,-0.33094292879104614,-0.030774863436818123,-0.05604616925120354,-0.015546102076768875,0.01699773408472538,0.20644740760326385,0.06535466015338898,0.03037470206618309,-0.05092652514576912,0.09261786192655563,0.09633606672286987,0.25319966673851013,0.06629841029644012,-0.011932600289583206,-0.011180625297129154,-0.1712091714143753,-0.046308327466249466,0.058606814593076706,0.16880258917808533,0.2805139124393463,-0.13916371762752533,-0.018770262598991394,-0.11275997012853622,-0.49390122294425964,-0.16067154705524445,-0.11379781365394592,0.23032578825950623,-0.014165202155709267,-0.2095126509666443,-0.01449925359338522,0.16616322100162506,-0.024361710995435715,0.19447414577007294,-0.01173742488026619,-0.0543372705578804,-0.10253728181123734,0.030064715072512627,-0.2649242877960205,0.15094856917858124,0.06166721507906914,0.11864324659109116,0.20933040976524353,-0.05490637943148613,0.10261072963476181,-0.1395023912191391,0.05980517715215683,0.0233957227319479,0.5367941856384277,0.06748636066913605,-0.09391460567712784,-0.3634238839149475,-0.3180352747440338,0.20223857462406158,0.141135573387146,-0.022743122652173042,0.05617097020149231,-0.01821315474808216,-0.19214196503162384,-0.0685221329331398,-0.2466134876012802,0.1715196818113327],[0.29064130783081055,-0.02867560274899006,-0.31648218631744385,-0.022810976952314377,-0.04246550425887108,0.026434212923049927,-0.0026958356611430645,-0.29601162672042847,-0.3729272782802582,-0.08057086169719696,-0.03850975260138512,-0.11007846891880035,0.03098110854625702,0.15374766290187836,-0.15962834656238556,-0.4364200234413147,-0.24486418068408966,0.10598956793546677,-0.01856684498488903,-0.06815321743488312,-0.2976738214492798,0.011748144403100014,0.13695402443408966,0.04303378984332085,0.3391971290111542,0.04538674280047417,-0.19414713978767395,-0.1427920013666153,0.15492753684520721,0.21625863015651703,-0.07181967049837112,0.10766394436359406,0.003858639393001795,0.15438276529312134,-0.030821625143289566,-0.07468244433403015,-0.19033096730709076,-0.15437018871307373,-0.15690535306930542,-0.20326992869377136,0.05933026969432831,0.07835526019334793,0.03054308518767357,0.14532975852489471,-0.4363492727279663,-0.11468754708766937,0.4343966245651245,-0.010896360501646996,-0.38643407821655273,0.08819147944450378,-0.0012125639477744699,0.027936801314353943,-0.07956025749444962,-0.096308633685112,-0.046471305191516876,-0.1605299413204193,0.22496937215328217,-0.04069148376584053,0.06641243398189545,-0.05772087350487709,-0.10348932445049286,0.23147350549697876,0.0397774763405323,0.1836368888616562],[-0.05591067299246788,0.19637557864189148,0.06610316783189774,0.10130687057971954,-0.1301107108592987,0.1691259890794754,0.0901774987578392,0.04428163170814514,0.09752845764160156,-0.08460310101509094,-0.16477318108081818,0.07965224236249924,0.3639962375164032,-0.3222339451313019,0.4640031158924103,-0.09491455554962158,-0.5544125437736511,-0.1423090696334839,-0.10686954855918884,-0.11108049005270004,0.08812140673398972,0.06831031292676926,0.2936256527900696,0.24019086360931396,-0.07913566380739212,0.047100357711315155,0.1310005635023117,-0.018369635567069054,-0.24935272336006165,-0.02527087740600109,0.15031547844409943,0.35622406005859375,0.10612805187702179,-0.03294215723872185,-0.2240626960992813,0.06609714776277542,-0.3148427903652191,-0.10252977907657623,-0.12053232640028,0.1940350979566574,0.06474371999502182,0.00803261436522007,-0.12007222324609756,0.2111481875181198,0.010319440625607967,-0.02418549917638302,-0.1564556509256363,0.07414812594652176,-0.19688154757022858,-0.09287384152412415,0.003690444165840745,-0.18715760111808777,-0.005951336119323969,0.0191285852342844,-0.07943547517061234,-0.04102882370352745,0.013797787949442863,-0.4560341238975525,-0.21509045362472534,0.05804482474923134,0.1906091421842575,0.2635679244995117,-0.1270267218351364,-0.00269694603048265],[-0.18960802257061005,-0.021129954606294632,-0.3698798716068268,0.05186781659722328,0.02302979864180088,0.006860288791358471,-0.049667373299598694,0.0612093061208725,-0.03262465074658394,-0.14266812801361084,-0.07598143815994263,-0.216749370098114,-0.05676146596670151,-0.24699360132217407,0.09915830940008163,0.2924538254737854,0.044370587915182114,-0.060830119997262955,-0.26190561056137085,-0.20110797882080078,0.16274122893810272,-0.16538453102111816,0.12726908922195435,0.084266796708107,0.07095526158809662,-0.062016990035772324,0.00515237869694829,0.11559363454580307,0.18170785903930664,0.1466141641139984,-0.29252099990844727,-0.2382972240447998,-0.16117066144943237,-0.21176986396312714,0.12652860581874847,-0.3454485535621643,-0.3599972426891327,-0.047781430184841156,-0.010912046767771244,0.2562703788280487,-0.0334201455116272,-0.149161234498024,-0.016176730394363403,-0.405796080827713,0.12564019858837128,0.016508091241121292,0.021304376423358917,-0.026041759178042412,-0.09661052376031876,0.13227759301662445,-0.3314836919307709,0.16180013120174408,-0.2621096968650818,-0.19463279843330383,-0.19420938193798065,-0.35897356271743774,-0.03545794263482094,-0.16204844415187836,-0.20517320930957794,-0.03508632257580757,-0.18560922145843506,-0.013879194855690002,0.20421893894672394,-0.16578112542629242],[0.08223851770162582,-0.07535344362258911,0.044461123645305634,-0.19285883009433746,0.2994975447654724,-0.07414402067661285,0.3182516396045685,0.1973661482334137,-0.3987271785736084,0.25361672043800354,-0.058942727744579315,-0.06908617168664932,0.15376624464988708,-0.04198669642210007,-0.0057112425565719604,-0.006784890778362751,0.23776178061962128,0.05111253261566162,-0.045850347727537155,0.21682609617710114,0.012296617031097412,-0.3361031711101532,0.21670953929424286,0.05133216083049774,-0.13812971115112305,-0.02863989770412445,-0.08926533907651901,-0.005879038479179144,0.2835264205932617,-0.20172648131847382,-0.14417198300361633,0.3871530294418335,-0.03807971253991127,-0.006464958656579256,0.03397674858570099,0.023814119398593903,-0.0694325789809227,-0.07999828457832336,-0.2246108204126358,0.1622025966644287,-0.17511138319969177,-0.012107853777706623,-0.3039558231830597,0.09941694140434265,-0.0907420963048935,-0.010068596340715885,-0.24925588071346283,-0.021631618961691856,0.10418219864368439,0.09969467669725418,0.2636425197124481,0.19919417798519135,0.014158074744045734,-0.04574456438422203,-0.1762252151966095,-0.3180309236049652,0.09288302063941956,0.021339746192097664,-0.042448122054338455,0.5124658346176147,0.2800338566303253,0.07162030786275864,0.008020887151360512,0.24280917644500732],[0.27483439445495605,0.20764842629432678,-0.17012238502502441,-0.23727606236934662,0.08063691854476929,-0.16013148427009583,0.08800628781318665,-0.31304484605789185,0.04402216896414757,0.28977131843566895,-0.0917753204703331,-0.0006041558226570487,0.146993950009346,-0.13637755811214447,0.09049058705568314,0.04745977371931076,0.26620373129844666,-0.08711456507444382,0.06775013357400894,0.20744678378105164,0.030560830608010292,0.21037858724594116,0.007671551778912544,-0.11347689479589462,0.14154131710529327,0.04635709151625633,0.18553493916988373,0.01771075651049614,-0.2692157030105591,0.22236685454845428,-0.09710796922445297,0.40306034684181213,-0.1267479807138443,0.0365881472826004,0.29489701986312866,-0.20275039970874786,-0.3571186363697052,0.012479874305427074,0.07123669981956482,0.21971012651920319,-0.0030624563805758953,0.1565466672182083,0.37727850675582886,0.20701076090335846,0.1845577359199524,0.0535719059407711,-0.23991547524929047,0.0477885939180851,-0.26533031463623047,0.22392261028289795,0.0226542130112648,-0.23665587604045868,-0.02191929891705513,-0.19053436815738678,-0.014171282760798931,0.012274439446628094,0.14870357513427734,0.17488114535808563,0.01246031653136015,-0.19265979528427124,0.2616921067237854,-0.30781564116477966,0.08140136301517487,0.0018259627977386117],[0.24611127376556396,-0.01872607320547104,0.20669899880886078,-0.03172534331679344,0.19302377104759216,0.011859805323183537,0.1403966099023819,-0.1553906798362732,0.057826291769742966,-0.13982252776622772,-0.12552784383296967,-0.027351904660463333,0.04687181115150452,0.017221108078956604,-0.2023712694644928,-0.22885216772556305,0.15454134345054626,-0.3267693817615509,-0.4038243293762207,-0.13993485271930695,0.2966341972351074,0.06904652714729309,0.0639284998178482,-0.1372596174478531,0.14766225218772888,-0.07088492065668106,-0.07062440365552902,-0.12174603343009949,-0.12350696325302124,-0.00883109588176012,0.15056924521923065,-0.18908736109733582,-0.10800056159496307,-0.22332428395748138,0.26297998428344727,0.32285383343696594,0.06604868918657303,-0.017973197624087334,0.08326214551925659,0.11744219064712524,0.20565231144428253,0.10073424875736237,0.038684919476509094,-0.17121613025665283,0.10193923115730286,0.49047285318374634,0.20120243728160858,-0.17839162051677704,-0.12301196157932281,-0.199686199426651,0.25345203280448914,0.15358227491378784,0.03535676375031471,-0.042412154376506805,0.07733877748250961,-0.10829277336597443,-0.1066882461309433,-0.04030872881412506,-0.0288946945220232,-0.07166612148284912,0.3672266900539398,0.38999783992767334,0.18623299896717072,0.1644744873046875],[-0.16038329899311066,-0.05606519430875778,-0.0741705596446991,-0.2801551818847656,-0.13907712697982788,0.011425522156059742,-0.04827062785625458,0.31623461842536926,0.37606364488601685,0.034759361296892166,-0.3805566430091858,0.001246109837666154,-0.20026083290576935,0.22973580658435822,-0.14766792953014374,0.0031104302033782005,0.0212651789188385,0.12117602676153183,0.14356906712055206,0.012085607275366783,-0.09101586788892746,0.09274227172136307,0.11713303625583649,-0.05630999058485031,0.1862184852361679,0.1608506143093109,0.29333803057670593,-0.2864803075790405,-0.029211584478616714,-0.28626978397369385,-0.15262913703918457,0.356339693069458,-0.21172817051410675,0.06820407509803772,-0.32322829961776733,0.21944379806518555,-0.13343854248523712,0.03909273445606232,0.03997315093874931,0.034748103469610214,0.17740097641944885,-0.3916703760623932,0.19953767955303192,-0.14404168725013733,-0.007771776523441076,0.4066397547721863,0.2484283745288849,-0.12174081802368164,-0.007023624610155821,0.1404026299715042,-0.05746646225452423,0.061754561960697174,0.12653106451034546,-0.1445922553539276,-0.013224112801253796,-0.2063845545053482,0.14558616280555725,-0.05486467853188515,0.08413875102996826,0.03867547959089279,-0.005670502781867981,-0.016938822343945503,-0.18195801973342896,0.13958223164081573],[0.033885445445775986,0.06896291673183441,-0.38110482692718506,-0.061833012849092484,0.07778637856245041,0.20562328398227692,-0.25346967577934265,-0.02970438078045845,0.10383918881416321,0.06176625192165375,0.4830770194530487,0.03160291165113449,0.05140114203095436,-0.11664516478776932,0.03994598239660263,0.018676673993468285,0.06991524249315262,-0.13219860196113586,0.08152057975530624,-0.07968093454837799,0.15605804324150085,-0.07235682755708694,0.06669320166110992,-0.07333309203386307,-0.14175046980381012,0.07686498016119003,0.0514567494392395,0.2451934516429901,0.3111923336982727,0.1476065069437027,0.03138206526637077,0.04624442383646965,0.10774657875299454,-0.03215578943490982,-0.23018401861190796,0.11073756217956543,0.2771512269973755,-0.026987982913851738,0.010215803049504757,0.009229985997080803,0.12891411781311035,-0.3677315413951874,-0.2337573617696762,-0.0707925409078598,-0.005957094486802816,0.23575566709041595,0.23323696851730347,0.15443842113018036,-0.29052993655204773,-0.1512002944946289,0.2477727234363556,-0.3010062575340271,0.2158508002758026,0.10718627274036407,-0.02996300533413887,0.014152691699564457,0.057891327887773514,0.16563844680786133,-0.40121522545814514,-0.0336151160299778,0.040572162717580795,-0.37672820687294006,0.1893077790737152,0.21064171195030212],[0.12190986424684525,0.1815904825925827,0.07068601995706558,-0.3296221196651459,0.13066549599170685,-0.10580076277256012,0.06819317489862442,0.09659184515476227,-0.11062558740377426,-0.15253601968288422,0.20191434025764465,-0.24795939028263092,0.1332237422466278,0.026350609958171844,0.03385202959179878,0.07527642697095871,-0.12627840042114258,-0.1999759078025818,-0.17732906341552734,-0.14377224445343018,-0.46513962745666504,-0.08482354134321213,-0.029173530638217926,-0.30251944065093994,-0.3562832772731781,-0.09646070003509521,0.1279662549495697,0.11446236819028854,0.1388990581035614,-0.18357783555984497,-0.06618276983499527,0.20162633061408997,-0.30537304282188416,-0.24236960709095,-0.0647386834025383,-0.10736919939517975,-0.1778765767812729,-0.17119233310222626,0.18515457212924957,0.024364953860640526,-0.06780031323432922,0.20317761600017548,0.0758293941617012,-0.17624187469482422,-0.0351204089820385,-0.06751652806997299,0.05590164661407471,-0.10800594836473465,-0.2544766664505005,-0.15342308580875397,0.08645401149988174,-0.12225718796253204,0.3172743320465088,-0.02594870887696743,-0.10432036966085434,0.0653151124715805,-0.2307955026626587,0.13663442432880402,0.0456383191049099,-0.10294900834560394,-0.13501906394958496,0.14620426297187805,-0.4740518629550934,-0.24539834260940552],[0.07724476605653763,0.017355473712086678,-0.03681793808937073,-0.036408282816410065,0.3189798593521118,0.30941545963287354,0.1187865287065506,-0.07606840133666992,-0.07929547131061554,0.025178253650665283,0.17023620009422302,0.05169463902711868,0.22992336750030518,0.27351438999176025,-0.22932954132556915,0.023841330781579018,0.2052001804113388,0.03218023106455803,0.00961587019264698,-0.25751444697380066,-0.15644021332263947,0.09135781973600388,-0.09027893096208572,0.022447530180215836,0.20400093495845795,-0.2651887536048889,-0.04655371606349945,-0.06899014115333557,-0.19041384756565094,-0.0643266811966896,-0.017446154728531837,-0.08256255090236664,-0.21343518793582916,-0.07146677374839783,-0.3652791678905487,-0.04170432686805725,0.23931768536567688,-0.11238246411085129,-0.1916085183620453,0.17111532390117645,0.06203688308596611,-0.18024808168411255,0.13314767181873322,0.010591370984911919,0.5878628492355347,-0.2489316463470459,-0.14540448784828186,0.3587993085384369,0.041212424635887146,-0.0037876402493566275,-0.1818857043981552,0.12163092195987701,-0.01094853039830923,0.2819719910621643,-0.006082569714635611,0.03505692258477211,0.3581772744655609,-0.11565836519002914,-0.19160328805446625,-0.09616972506046295,-0.1616639643907547,0.15613240003585815,-0.06102578341960907,0.02993815392255783],[0.06870982050895691,-0.06852594763040543,0.04483412578701973,0.24257618188858032,0.11131609976291656,-0.14940878748893738,0.15532371401786804,0.013164234347641468,0.09237892180681229,-0.09272773563861847,-0.08620703220367432,-0.1641557812690735,-0.023598937317728996,-0.25334545969963074,0.08289371430873871,0.1114819347858429,-0.03428670018911362,0.30960798263549805,0.33628782629966736,-0.3725040853023529,0.16258138418197632,-0.004475052002817392,-0.02886218950152397,0.17759859561920166,-0.20147842168807983,-0.3551779091358185,0.1825367510318756,-0.19916503131389618,0.012201987206935883,0.20913498103618622,-0.234580859541893,0.12149660289287567,-0.20312249660491943,-0.0851793959736824,0.1226406991481781,-0.09683246910572052,0.18613392114639282,-0.358157753944397,0.17281778156757355,0.02310330606997013,0.054293520748615265,-0.28224775195121765,-0.10072188079357147,0.26749756932258606,0.06040852516889572,-0.03678158298134804,0.3130808174610138,0.26544085144996643,0.11857818812131882,-0.09494907408952713,-0.004187724087387323,0.08557191491127014,-0.062020741403102875,-0.06494074314832687,-0.29527273774147034,0.3308524489402771,-0.1994497925043106,0.27569150924682617,0.19994747638702393,-0.11971800774335861,0.10715100169181824,0.0912618637084961,0.07329577952623367,0.1701844036579132],[-0.044805917888879776,0.23762744665145874,0.10048200190067291,0.4897097647190094,0.12118589133024216,0.24384705722332,-0.020069669932127,0.06756957620382309,0.06385128945112228,0.32833221554756165,0.23253118991851807,-0.10100375860929489,-0.050974179059267044,0.018501434475183487,-0.04501701146364212,-0.19253434240818024,0.02545706368982792,-0.229283407330513,-0.07396388053894043,-0.15889202058315277,0.0428195521235466,-0.05370589345693588,0.08360280096530914,-0.21435952186584473,-0.31001797318458557,0.10605093091726303,-0.19283625483512878,0.04077781364321709,0.2703034281730652,0.2527472972869873,0.2929779589176178,0.3806455433368683,-0.34086090326309204,0.24537214636802673,-0.06872043013572693,0.00013221788685768843,-0.2152688354253769,0.16395357251167297,0.10892817378044128,0.00794272031635046,-0.20207448303699493,-0.024984611198306084,0.22578130662441254,0.003810918191447854,-0.13660457730293274,0.3085609972476959,-0.08959916234016418,0.014367473311722279,0.25316157937049866,0.13114044070243835,-0.15560807287693024,0.08077460527420044,-0.18460553884506226,-0.032409414649009705,-0.12416789680719376,0.026299847289919853,0.17736013233661652,-0.11329805850982666,0.23552222549915314,-0.14735952019691467,-0.06727001070976257,0.1546255350112915,-0.00030338348005898297,0.025258587673306465],[0.0927133560180664,0.03837298974394798,0.09216338396072388,-0.17386606335639954,0.302767813205719,0.0582168847322464,0.14202959835529327,-0.3803270161151886,0.046638939529657364,0.19437851011753082,-0.1483781337738037,-0.18608930706977844,0.08830858021974564,-0.051731422543525696,0.042968183755874634,0.002124955179169774,-0.1970117688179016,0.22973662614822388,-0.05965125188231468,-0.11760471761226654,0.24047547578811646,-0.16770443320274353,-0.04476780816912651,0.16198354959487915,0.18696697056293488,0.14885061979293823,-0.010662298649549484,0.11834682524204254,-0.02885235659778118,-0.1972680389881134,0.458421528339386,0.17813734710216522,-0.022623447701334953,-0.07698418200016022,-0.27143141627311707,0.11880602687597275,-0.033197224140167236,-0.33299171924591064,0.03241530433297157,-0.31089287996292114,-0.05220283195376396,-0.1563417613506317,0.23453722894191742,-0.21148845553398132,-0.12554897367954254,-0.08343347162008286,-0.09048844873905182,-0.09990090876817703,0.10812854766845703,-0.10729566961526871,0.1210530698299408,0.1344798356294632,-0.21774062514305115,-0.2279038429260254,-0.25047817826271057,0.035281866788864136,-0.05885623022913933,0.16983968019485474,-0.12846127152442932,0.023486221209168434,-0.07754059880971909,-0.28607451915740967,0.1332366019487381,-0.5177234411239624],[-0.06558437645435333,0.3216744363307953,-0.07334508746862411,0.0839461162686348,0.05875292420387268,0.13448551297187805,-0.08319797366857529,0.15357902646064758,0.13090021908283234,-0.11061491817235947,-0.15754829347133636,-0.3811130225658417,0.42178767919540405,-0.2428966760635376,-0.15495862066745758,0.013563205488026142,0.24729204177856445,0.03561152145266533,-0.0696602463722229,0.19699177145957947,-0.188956156373024,-0.12177485227584839,-0.025633230805397034,0.21559815108776093,-0.09544356912374496,0.1035863533616066,0.317984014749527,-0.2538174092769623,0.25222593545913696,0.38945817947387695,0.061618827283382416,-0.1375550776720047,-0.07195467501878738,0.028944510966539383,-0.04194273054599762,0.12300395220518112,0.15126028656959534,-0.10703095048666,-0.41590890288352966,-0.24284011125564575,-0.06435084342956543,0.1984654664993286,0.25805148482322693,0.08113598823547363,0.1079815998673439,0.0838061198592186,0.027111103758215904,0.004930945113301277,-0.12601737678050995,-0.09073766320943832,-0.0003255756455473602,-0.053999416530132294,-0.3328375816345215,0.015693506225943565,0.154830664396286,-0.06125183776021004,-0.21065449714660645,-0.07684322446584702,0.05514857545495033,0.22041794657707214,0.14406263828277588,-0.17272473871707916,-0.2496248334646225,-0.12509097158908844],[-0.2963235378265381,0.020984193310141563,-0.01503946352750063,-0.017199190333485603,0.1681637167930603,0.05950888991355896,-0.1510225236415863,0.02295226790010929,0.053797461092472076,-0.14465613663196564,-0.2237289398908615,-0.21141856908798218,0.047808051109313965,-0.11053856462240219,-0.2893640100955963,0.0897022932767868,0.08965220302343369,-0.03287124261260033,-0.04078160971403122,0.22171920537948608,0.14643266797065735,0.03538326546549797,0.10710110515356064,0.003795826341956854,0.041661035269498825,-0.23422680795192719,-0.2075849324464798,0.34976810216903687,-0.14351968467235565,0.04937971010804176,0.1972758024930954,0.3692435622215271,0.2911394238471985,-0.23128272593021393,0.08631779998540878,0.05838361382484436,-0.12636086344718933,0.16997279226779938,-0.03226194530725479,0.08231829851865768,-0.1109844371676445,-0.2670256793498993,0.3101104199886322,0.16891668736934662,-0.1762324720621109,-0.27470383048057556,0.01675204001367092,-0.21486125886440277,-0.22325877845287323,-0.2792817950248718,-0.09806206822395325,0.04377385228872299,-0.09967277199029922,0.4506065249443054,-0.2687954902648926,-0.20101220905780792,-0.10518626868724823,0.15475386381149292,0.18306809663772583,-0.14447949826717377,-0.03690996393561363,0.02536950632929802,-0.20137783885002136,0.22644376754760742],[0.038324203342199326,-0.15499958395957947,-0.20728673040866852,0.04126305878162384,0.48189303278923035,0.13431242108345032,0.07757478952407837,0.363296777009964,-0.1480444371700287,-0.07570373266935349,0.14976181089878082,-0.2714979350566864,-0.07614355534315109,0.32440584897994995,0.17224542796611786,-0.08953221142292023,-0.04071618616580963,0.05423231050372124,0.24508130550384521,0.13160516321659088,0.13792724907398224,0.06223868206143379,0.016416549682617188,-0.07300641387701035,0.16737204790115356,0.18498094379901886,0.01666255109012127,0.3118000328540802,-0.3208009898662567,0.14086870849132538,-0.09506870061159134,0.15610583126544952,0.15574027597904205,-0.30851680040359497,0.04475190117955208,-0.12665973603725433,0.23576368391513824,-0.009333289228379726,-0.14789828658103943,0.0645800232887268,0.01797494664788246,0.05688510090112686,-0.01998111419379711,0.21634653210639954,-0.17077448964118958,0.3136669099330902,-0.0038234214298427105,-0.06579267233610153,0.06660226732492447,0.16647356748580933,0.09401637315750122,-0.030030952766537666,-0.13108132779598236,-0.29023003578186035,0.11781812459230423,-0.018049580976366997,-0.1978064626455307,-0.3349859118461609,0.05069183558225632,-0.2392536699771881,0.03176143020391464,0.0809328556060791,-0.2462991178035736,-0.24381723999977112],[-0.054243531078100204,0.1374458223581314,0.1010659858584404,-0.25895053148269653,0.22368106245994568,0.090578593313694,0.10205849260091782,-0.2889789938926697,0.0485508069396019,-0.19294454157352448,-0.26654139161109924,-0.33273860812187195,-0.43191543221473694,-0.01630263589322567,0.2447309046983719,-0.15732410550117493,-0.010737231001257896,-0.1534927785396576,0.047071970999240875,0.2706075608730316,-0.17191392183303833,-0.29046377539634705,0.2447059452533722,-0.3174331486225128,-0.22220006585121155,-0.14956705272197723,0.10706033557653427,-0.13768291473388672,-0.06080431863665581,-0.05378589406609535,0.2808893024921417,-0.23523427546024323,-0.08201315253973007,-0.07355945557355881,-0.08551573008298874,0.05105695128440857,-0.015817441046237946,-0.13786596059799194,0.13035699725151062,-0.09712745994329453,0.060414042323827744,-0.041652530431747437,-0.2731027603149414,0.3593001067638397,-0.012746690772473812,0.0331614688038826,-0.12752710282802582,-0.03170997276902199,-0.016895994544029236,0.16400696337223053,-0.19406047463417053,0.08992258459329605,-0.05206413194537163,0.04004651680588722,0.11554449796676636,-0.1404820680618286,0.15744753181934357,-0.24756592512130737,0.06134330853819847,-0.2763182520866394,-0.0409366749227047,-0.29489102959632874,0.0807851031422615,0.2703327238559723],[0.11667555570602417,0.17668183147907257,0.030554011464118958,-0.01754075661301613,0.025453973561525345,-0.383564293384552,0.13398197293281555,0.18351033329963684,0.053995281457901,-0.027049530297517776,-0.012607509270310402,0.12750253081321716,-0.2458581179380417,0.09426091611385345,0.23570026457309723,-0.016712242737412453,0.004368314985185862,-0.23848357796669006,-0.3638262152671814,0.03533584251999855,0.09139639139175415,-0.2560303211212158,-0.24050360918045044,-0.04787271469831467,0.3063344359397888,0.06856493651866913,0.24852807819843292,0.28815028071403503,-0.04060998186469078,0.18272292613983154,-0.1065978854894638,0.01429735217243433,-0.033769551664590836,0.20535317063331604,-0.05393582582473755,0.2090158611536026,0.10957398265600204,-0.2201278805732727,0.02431396208703518,-0.3982500433921814,-0.4462149441242218,-0.23270513117313385,0.1571481078863144,-0.011167097836732864,0.04072766378521919,-0.1411115527153015,-0.09135738760232925,0.12970958650112152,-0.13295678794384003,0.2692636251449585,-0.006360527593642473,-0.21875403821468353,-0.13552804291248322,0.13727985322475433,-0.2513027787208557,-0.05936198681592941,-0.13312353193759918,-0.14352664351463318,-0.07184921205043793,-0.024555418640375137,0.10374713689088821,0.231744647026062,-0.12173781543970108,0.23129034042358398],[0.12879516184329987,-0.24039480090141296,-0.21827131509780884,-0.01303158514201641,-0.19177623093128204,0.34936121106147766,0.23745349049568176,0.1597452312707901,0.24221543967723846,0.018540844321250916,0.1968020647764206,0.2135615050792694,-0.048244133591651917,-0.44764944911003113,0.009369973093271255,0.19174769520759583,0.28922948241233826,-0.0405733622610569,-0.07464589923620224,0.06264971941709518,-0.19701342284679413,-0.036281902343034744,0.1367461383342743,0.022044556215405464,-0.0030220828484743834,0.03918249532580376,-0.21202020347118378,-0.23128405213356018,-0.08068819344043732,-0.10476250946521759,-0.0005175152909941971,-0.1252979338169098,-0.22047483921051025,-0.1672046184539795,0.10300105065107346,0.042641378939151764,0.24886780977249146,0.017449868842959404,0.2508205473423004,-0.15637816488742828,-0.007657101843506098,-0.3391413390636444,0.0402369424700737,0.1622096598148346,-0.3012453019618988,-0.26513245701789856,-0.10497269779443741,0.09051433205604553,-0.14477412402629852,0.08511312305927277,0.2013821005821228,-0.14504374563694,-0.1474270522594452,0.06757011264562607,0.048860661685466766,-0.13517174124717712,0.1310221403837204,-0.0013261958956718445,0.1571369618177414,-0.08920823037624359,0.12346158921718597,0.2185746282339096,0.029218856245279312,-0.4815983474254608],[0.16777847707271576,-0.20654383301734924,0.23148466646671295,0.05922088399529457,0.3802538812160492,0.020602619275450706,-0.2558680772781372,-0.13125662505626678,0.2244134396314621,-0.05872815102338791,0.16145546734333038,-0.07615017890930176,-0.005093513056635857,-0.0978570431470871,-0.17243033647537231,0.21978847682476044,-0.23845398426055908,-0.38768118619918823,0.08385446667671204,-0.21811212599277496,-0.1800684779882431,0.048943378031253815,0.14431090652942657,-0.05266909673810005,-0.006074038799852133,0.07191827148199081,0.08709107339382172,-0.1309109926223755,-0.35126158595085144,-0.12679819762706757,-0.22450773417949677,-0.22827672958374023,0.01617254875600338,-0.04894447326660156,0.11415404826402664,-0.04626406729221344,-0.27846404910087585,0.09024699777364731,-0.5282135605812073,-0.2714385688304901,-0.09027288854122162,-0.0854877233505249,0.0883534625172615,0.09842324256896973,-0.3193112909793854,0.19356979429721832,-0.1460805982351303,-0.030261853709816933,0.0993613749742508,0.2112015187740326,0.003657163120806217,-0.04807506129145622,0.11671604216098785,0.06636007130146027,-0.3049798309803009,0.03485265001654625,0.08173323422670364,0.08274547755718231,0.0007461670902557671,0.24029839038848877,0.03129475936293602,-0.12956637144088745,0.017302026972174644,0.11915213614702225],[0.07571496069431305,-0.03989822417497635,-0.3816722333431244,0.010730763897299767,0.16158472001552582,-0.643192708492279,-0.007101250812411308,0.1482498198747635,0.14036676287651062,-0.13445980846881866,0.22607742249965668,-0.02512754499912262,0.14416542649269104,0.08066083490848541,0.1836056262254715,-0.03296199440956116,-0.032630130648612976,0.03360428288578987,0.09349016845226288,-0.06989815831184387,0.022345105186104774,0.3284197449684143,-0.12200979143381119,0.04348258674144745,-0.29054027795791626,0.16836704313755035,-0.08722430467605591,-0.08559019863605499,-0.037071432918310165,-0.06500817835330963,0.36643341183662415,-0.22104324400424957,-0.15300868451595306,-0.18964579701423645,-0.3220961093902588,-0.07573087513446808,0.061013802886009216,0.08709122985601425,0.09396763145923615,0.12154168635606766,-0.1065712422132492,-0.11467322707176208,0.05743261054158211,0.03694421425461769,-0.0833679810166359,-0.14377065002918243,-0.009404356591403484,-0.19898058474063873,-0.17529331147670746,0.019951729103922844,-0.3069745600223541,0.21117322146892548,-0.2641238570213318,0.08173459023237228,0.1255621761083603,0.07276687771081924,0.17424575984477997,0.18088573217391968,-0.007421812508255243,0.29198965430259705,0.33955517411231995,0.06592874974012375,0.09034594893455505,0.04653209447860718],[0.13578049838542938,0.08026618510484695,-0.17843608558177948,0.04066634178161621,-0.06372036784887314,-0.1479409635066986,0.42045333981513977,-0.15606318414211273,-0.12693023681640625,-0.19673898816108704,-0.20660534501075745,0.1550336480140686,-0.14241522550582886,-0.3237527012825012,-0.24566783010959625,0.04163087159395218,-0.1251489520072937,-0.2143312394618988,-0.04912896081805229,0.16311965882778168,-0.342394083738327,0.13967221975326538,-0.0020141119603067636,0.1667739450931549,-0.1615481823682785,-0.04122248291969299,-0.09327057749032974,0.3415691554546356,-0.011431080289185047,-0.03869594633579254,0.07408972829580307,0.006204062607139349,-0.03331898897886276,0.24137833714485168,-0.23319363594055176,-0.088162362575531,0.43962016701698303,0.3042953610420227,-0.22432191669940948,0.20712542533874512,0.2456321120262146,-0.11297239363193512,0.014775538817048073,-0.01967461220920086,0.18270525336265564,0.19508488476276398,0.11429405212402344,-0.16325007379055023,0.09182153642177582,0.2205985188484192,0.01985960453748703,-0.013347489759325981,-0.06816233694553375,-0.10418394207954407,-0.38201698660850525,0.1884048730134964,-0.16851529479026794,-0.01951499469578266,0.07279794663190842,0.005887070670723915,-0.10619447380304337,-0.06180496886372566,0.07703962177038193,-0.1036144345998764],[0.13636119663715363,-0.31017670035362244,-0.16542211174964905,-0.07599955052137375,0.16023802757263184,-0.06741875410079956,-0.04387083649635315,0.30390167236328125,-0.2197931408882141,0.3188236951828003,-0.305458664894104,-0.12688089907169342,0.2839306890964508,-0.09986744076013565,-0.021504901349544525,0.009871482849121094,-0.16716723144054413,-0.015926411375403404,-0.1060396134853363,-0.19125697016716003,-0.01716088503599167,0.0819195806980133,0.24204957485198975,-0.22601525485515594,-0.10009840875864029,0.08556113392114639,0.20394758880138397,0.02585584484040737,-0.05668804794549942,0.03329399600625038,0.16192875802516937,-0.1581699699163437,0.27777528762817383,0.1857307106256485,0.0808560773730278,0.02024039626121521,0.11191383004188538,0.15953607857227325,0.2077954113483429,-0.05369192734360695,-0.11890336126089096,-0.13336536288261414,-0.11573918163776398,-0.2725222706794739,0.2200402170419693,-0.008765807375311852,0.002142461948096752,0.450755774974823,-0.3179835379123688,-0.041556116193532944,-0.02071065455675125,0.021153150126338005,-0.019394652917981148,0.19764943420886993,-0.013413478620350361,0.1721022129058838,-0.0075254132971167564,-0.09697309881448746,0.5536445379257202,0.08948980271816254,-0.13459667563438416,-0.1494748890399933,0.19599643349647522,-0.17240509390830994],[-0.12031728774309158,-0.17207729816436768,0.15422575175762177,-0.2130456417798996,-0.2189915031194687,-0.07720335572957993,0.09261465072631836,-0.3705252408981323,0.05551230534911156,0.14127275347709656,0.0864778533577919,-0.2364349663257599,0.06609784066677094,0.2754589021205902,0.11707916110754013,0.2233583778142929,-0.09283249825239182,-0.2320358008146286,0.1942584216594696,-0.044077299535274506,-0.020130781456828117,-0.00022450252436101437,0.09578445553779602,0.1291889101266861,-0.1828722506761551,-0.1904105544090271,0.2714225649833679,0.3510671555995941,0.12012682110071182,0.20946569740772247,0.014955779537558556,0.04298066347837448,0.05115983635187149,0.06249039247632027,0.27068275213241577,-0.12242844700813293,0.18801729381084442,0.12182438373565674,-0.033661533147096634,-0.2694384455680847,0.22022059559822083,-0.15090492367744446,0.20702950656414032,-0.16606618463993073,-0.02232581563293934,-0.12226668000221252,0.18644979596138,-0.13721798360347748,0.17993776500225067,-0.04745561257004738,0.11561580002307892,0.12837140262126923,0.12135987728834152,-0.11025360226631165,0.15435190498828888,-0.1928197145462036,0.4638531506061554,-0.3701056241989136,0.10016505420207977,0.07421711832284927,0.32403725385665894,0.19256055355072021,-0.12441764771938324,0.018060972914099693],[0.20009653270244598,-0.0704895481467247,-0.024667594581842422,0.0497448667883873,0.2124447375535965,0.016854751855134964,-0.013726413249969482,0.06521584093570709,-0.018286101520061493,-0.16356424987316132,-0.041160471737384796,0.0841711014509201,-0.2859934866428375,-0.313993901014328,0.14704273641109467,-0.12931962311267853,0.06623858213424683,0.3094601631164551,0.16017568111419678,-0.17398081719875336,0.05908198654651642,-0.22760681807994843,-0.396174818277359,0.030375460162758827,-0.11942178010940552,-0.21571935713291168,0.07591953873634338,0.08973008394241333,0.11268860101699829,0.16209514439105988,-0.2827381491661072,-0.11625079065561295,0.07920956611633301,0.07385815680027008,-0.21213270723819733,0.1800583451986313,-0.2151774913072586,0.1316494643688202,0.023542992770671844,0.22295042872428894,-0.045147720724344254,-0.010146556422114372,0.31970226764678955,-0.022166218608617783,-0.002621613908559084,0.05752485617995262,-0.21632856130599976,-0.3057168424129486,-0.31823015213012695,-0.2093961387872696,0.32711681723594666,0.1147763729095459,0.0031154979951679707,0.21636906266212463,0.009404217824339867,0.2867990732192993,0.3530399799346924,-0.3228287994861603,0.13302811980247498,0.15986190736293793,-0.09734924137592316,-0.0969647541642189,0.06296318024396896,-0.22754625976085663]],"b":[-0.03167771175503731,0.006594251841306686,0.010705159977078438,0.011421075090765953,-0.001479288679547608,-0.003189348615705967,-0.007611135020852089,0.014500334858894348,-0.011032067239284515,-0.004214712884277105,0.0020279756281524897,0.012513931840658188,0.006404483690857887,-0.005686411168426275,-0.007726457901299,-0.009360761381685734,0.012257835827767849,-0.006061641499400139,-0.0018356468062847853,0.010089070536196232,0.004765000194311142,0.006226019933819771,0.003887853818014264,-0.0067725409753620625,-0.008273637853562832,0.00010830363316927105,0.0024330569431185722,0.00455381628125906,0.011998218484222889,0.0183070357888937,0.00508486945182085,0.007855820469558239,0.0011179341236129403,0.0033097881823778152,0.0018449530471116304,0.0022390466183423996,0.014896860346198082,0.0043099853210151196,0.0003126991505268961,-0.0039996434934437275,0.013868126086890697,0.005873192101716995,0.004810759797692299,0.0017188694328069687,-0.005417642183601856,-0.014016591012477875,0.006482800934463739,0.005042549222707748,2.4401953851338476e-05,0.001889857230708003,-0.0001819072786020115,-0.002100351033732295,0.017640382051467896,-0.00010289926285622641,-0.0043275621719658375,-0.019619835540652275,0.004755727015435696,0.010524793528020382,-0.0062485346570611,0.008820188231766224,0.006422568112611771,0.015938816592097282,-0.010095816105604172,0.0016816240968182683],"act":"tanh"},{"W":[[0.09666360169649124,-0.009864351712167263,-0.08006221055984497,-0.07690668106079102,-0.012222043238580227,0.03277375549077988,0.0772138461470604,-0.06923522800207138,0.07256844639778137,0.03018539771437645,-0.0678257942199707,-0.08191405236721039,-0.04645704850554466,0.07176381349563599,0.08457592874765396,0.012797336094081402,-0.08589201420545578,-0.09081195294857025,-0.00860324315726757,-0.08477368950843811,-0.060937125235795975,-0.05386372283101082,-0.01846868172287941,0.06724220514297485,0.06875064969062805,-0.0041238716803491116,-0.0806148573756218,-0.02326510287821293,-0.07058712095022202,-0.08758486062288284,-0.0637345090508461,-0.07598471641540527,-0.021309560164809227,-0.04492980241775513,0.0012638726038858294,-0.02407926507294178,-0.030673695728182793,-0.03659350425004959,0.01946721039712429,0.04182051494717598,-0.04772103205323219,-0.07583915442228317,-0.007979391142725945,-0.0338713638484478,0.08113870024681091,0.07204964756965637,-0.027283694595098495,-0.04176180437207222,-0.023122023791074753,-0.05705920606851578,-0.014624504372477531,-0.07691216468811035,-0.07494935393333435,-0.04322030767798424,0.014448845759034157,0.05652466416358948,-0.036983974277973175,-0.055677127093076706,0.03465515002608299,-0.06884436309337616,-0.013814947567880154,-0.07652910053730011,0.0848681628704071,-0.08564690500497818],[-0.03387173265218735,-0.10064850002527237,-0.006603233050554991,-0.03238801658153534,0.09404809027910233,-0.0798024982213974,-0.04165024682879448,-0.05661875754594803,-0.04678398743271828,0.0927334725856781,0.0707993432879448,-0.013071847148239613,-0.08465632051229477,0.033370669931173325,0.0003304494603071362,-0.045827772468328476,0.0010398807935416698,0.02535475231707096,0.05419658496975899,0.023985138162970543,0.042890578508377075,-0.05355808138847351,0.08611109852790833,0.04403332993388176,0.04283430427312851,-0.0854228287935257,0.03725816309452057,-0.09909172356128693,0.05711055174469948,0.00031275430228561163,-0.04458325728774071,-0.02031552605330944,-0.09191974252462387,-0.08594159781932831,0.08522307872772217,-0.08727039396762848,0.08826833963394165,-0.09069854766130447,-0.05274352803826332,-0.0806712955236435,-0.08728645741939545,-0.0014860541559755802,-0.10029058903455734,-0.09223254770040512,-0.03189430385828018,-0.05915934965014458,0.08391860872507095,-0.07755355536937714,0.09058365225791931,0.07135426998138428,-0.08252033591270447,-0.03946901112794876,-0.03645044192671776,-0.07349054515361786,-0.08518852293491364,-0.07189254462718964,-0.07766605913639069,0.06877037137746811,-0.07127104699611664,0.055816639214754105,0.05200592800974846,0.05346107482910156,-0.02818894572556019,0.02794118970632553]],"b":[-0.01793869398534298,0.0029760925099253654],"act":"none"}]}