{"tier":4,"obs_dim":9,"act_dim":2,"layers":[{"W":[[-0.010411512106657028,0.19467449188232422,-0.16992446780204773,0.31568580865859985,0.10273540019989014,0.08781024068593979,0.2251076102256775,-0.18460993468761444,0.0037870919331908226],[-0.12599624693393707,0.32358023524284363,0.06137705594301224,-0.3018488883972168,-0.0029276066925376654,0.06160510331392288,-0.09685477614402771,-0.1785154789686203,0.348716676235199],[0.22300614416599274,0.19034826755523682,-0.02458389289677143,0.006919153034687042,-0.38745832443237305,-0.30376309156417847,0.015165384858846664,0.07776588946580887,0.02392592281103134],[-0.21251653134822845,0.183667853474617,0.1332307755947113,-0.23867559432983398,-0.16538241505622864,0.19049076735973358,-0.024821043014526367,0.021913068369030952,0.10098892450332642],[0.29018205404281616,0.090447336435318,-0.37525132298469543,0.08150127530097961,0.13042692840099335,0.0019077779725193977,0.05847323685884476,0.5855455994606018,0.06700379401445389],[-0.051580701023340225,-0.028959158807992935,0.11257898062467575,-0.07040917873382568,0.1936110556125641,0.24620278179645538,-0.29993295669555664,-0.03584549203515053,-0.1035708338022232],[0.21088150143623352,0.23597395420074463,-0.04278433695435524,-0.07610604166984558,0.2199748456478119,0.17713434994220734,-0.12420165538787842,0.07011102139949799,-0.06926868855953217],[0.09180507063865662,0.007227641064673662,0.17236144840717316,-0.36054813861846924,0.2258467823266983,-0.2527344524860382,0.09767799824476242,0.0971749871969223,0.30580610036849976],[0.20557765662670135,0.08468388766050339,-0.08859563618898392,0.21486155688762665,-0.28221842646598816,0.20199792087078094,-0.0722351148724556,-0.11959905922412872,0.2484739124774933],[-0.192577064037323,-0.1199701800942421,0.09975811094045639,-0.029680658131837845,0.048207517713308334,0.1869303286075592,-0.1690334975719452,-0.37050890922546387,0.3037748634815216],[0.10679535567760468,-0.21888646483421326,-0.21737048029899597,-0.21134315431118011,-0.11304347217082977,-0.2101108580827713,0.44955915212631226,-0.21099825203418732,-0.31002068519592285],[-0.08407998085021973,-0.04864120855927467,-0.04285106807947159,-0.1488046497106552,0.16772553324699402,-0.042111899703741074,-0.08080564439296722,0.12990987300872803,-0.13765589892864227],[-0.3194931447505951,-0.08198024332523346,-0.0818290114402771,0.28534817695617676,-0.06607796251773834,0.19497951865196228,-0.017467796802520752,0.062076542526483536,0.340372234582901],[-0.015178592875599861,-0.06779076159000397,0.10342896729707718,-0.11724337935447693,-0.11361092329025269,0.17634853720664978,-0.22901424765586853,-0.42119574546813965,0.22956503927707672],[0.22460204362869263,-0.3440195322036743,0.17075161635875702,0.3879470229148865,0.09839887171983719,-0.03554206341505051,-0.14394521713256836,-0.16349342465400696,-0.013229034841060638],[-0.30150389671325684,0.059321269392967224,-0.00017923543055076152,0.08025149255990982,-0.020275114104151726,0.16264118254184723,0.16462434828281403,0.12049910426139832,-0.09051690250635147],[-0.2437538355588913,-0.0775766670703888,0.1945735663175583,0.07202078402042389,-0.024927441030740738,0.018600935116410255,-0.3694174289703369,-0.22074027359485626,-0.2051371932029724],[-0.11944671720266342,-0.009831071831285954,-0.00786054041236639,0.05699343979358673,-0.3533170521259308,-0.049600083380937576,0.1615273654460907,-0.07775759696960449,0.117158442735672],[0.5260558724403381,-0.2983023524284363,-0.03969268500804901,0.03277137503027916,-0.1439659297466278,0.15113145112991333,-0.14369453489780426,-0.22288993000984192,-0.044335730373859406],[0.16958102583885193,0.1996922791004181,0.2973989248275757,-0.04033924639225006,0.0011491971090435982,-0.07309816777706146,-0.015672681853175163,-0.04860701411962509,-0.25011441111564636],[-0.011088589206337929,-0.10195855051279068,-0.3423880934715271,-0.12154243886470795,0.14209194481372833,-0.10494699329137802,-0.06472957879304886,0.02302764542400837,-0.13332439959049225],[-0.43558862805366516,-0.2274678498506546,0.02133307419717312,-0.008471298962831497,-0.27461761236190796,-0.010706587694585323,-0.16956225037574768,-0.06477656215429306,0.13051775097846985],[0.13107910752296448,-0.09531356394290924,0.21162715554237366,0.04148250073194504,0.07932856678962708,0.19622617959976196,-0.10226371884346008,-0.02898503839969635,-0.4183611571788788],[-0.2557981312274933,0.21845625340938568,-0.11915366351604462,0.13030986487865448,-0.06062405928969383,0.030524052679538727,0.17657645046710968,-0.07616529613733292,-0.06936656683683395],[-0.06578528881072998,-0.012007180601358414,0.021467482671141624,-0.27704209089279175,0.17094598710536957,-0.2667268216609955,0.2366943359375,-0.13256140053272247,-0.2308638095855713],[0.1845611184835434,0.14810486137866974,-0.0771862044930458,-0.09783630818128586,-0.07482758909463882,0.07793276011943817,-0.08239490538835526,-0.35200735926628113,0.16356074810028076],[0.2544049322605133,0.00936631765216589,-0.1609708070755005,-0.3105239272117615,0.12886165082454681,0.1961388885974884,-0.005072735249996185,0.06044551357626915,-0.29800400137901306],[-0.11980436742305756,-0.03606213629245758,-0.07805504649877548,0.07987464964389801,0.177585631608963,-0.18557259440422058,-0.2594667673110962,-0.09640585631132126,0.11354522407054901],[-0.07699042558670044,-0.1275668889284134,-0.21163390576839447,0.08850853145122528,-0.07326459139585495,0.03041481412947178,0.1431320458650589,-0.02135157771408558,-0.1628657579421997],[0.17905057966709137,-0.2113257199525833,0.1616491675376892,-0.13638152182102203,-0.3399071991443634,0.303579181432724,0.39198246598243713,-0.10005035251379013,0.3368567228317261],[0.11899429559707642,-0.06474626064300537,0.1748659908771515,0.4778870642185211,0.22584450244903564,0.24676035344600677,-0.2219541370868683,0.09438002854585648,-0.08802793174982071],[-0.10109567642211914,0.22535395622253418,0.13936440646648407,-0.014886612072587013,-0.14315776526927948,-0.11884632706642151,0.2461286038160324,-0.24490103125572205,0.05091513693332672],[0.00927180889993906,-0.2330193817615509,-0.008248750120401382,-0.060025718063116074,-0.06310740113258362,-0.00025039652246050537,-0.2713093161582947,0.1469832956790924,-0.217346653342247],[0.07232068479061127,0.40251612663269043,-0.24168545007705688,-0.23645050823688507,0.22880662977695465,-0.3543282449245453,0.29948002099990845,-0.05063899978995323,-0.1379568874835968],[0.11761552095413208,0.013949781656265259,-0.012974539771676064,0.24630625545978546,-0.018186138942837715,-0.052435558289289474,0.03502196446061134,-0.34056445956230164,-0.013698650524020195],[0.07582961022853851,0.08412416279315948,0.03377540409564972,-0.21778857707977295,-0.23936448991298676,-0.10468460619449615,0.20617975294589996,-0.2676750421524048,-0.024101166054606438],[-0.11951453238725662,-0.07158607989549637,0.40743982791900635,0.01901048794388771,-0.1885652095079422,-0.1086428239941597,0.1510581225156784,-0.32990121841430664,0.3867236375808716],[-0.16495032608509064,0.24116191267967224,-0.16602854430675507,0.05479947105050087,-0.19203807413578033,-0.0520951971411705,-0.3426589071750641,-0.08228995651006699,-0.2371758073568344],[-0.12347039580345154,-0.1729273647069931,0.2790357768535614,-0.20448815822601318,-0.5077922940254211,-0.16122151911258698,-0.15961779654026031,-0.34947389364242554,0.19294646382331848],[0.4314253330230713,0.13413631916046143,0.009410232305526733,-0.15862466394901276,-0.09362900257110596,-0.4579858183860779,0.16601963341236115,-0.11468809098005295,0.241171732544899],[0.04215967655181885,0.2468896061182022,-0.11291369050741196,0.0572737455368042,-0.10566391050815582,-0.24569092690944672,0.1981412172317505,-0.31795430183410645,0.24045570194721222],[-0.22359132766723633,-0.003209700807929039,0.009120410308241844,-0.2037479728460312,0.039388664066791534,-0.034605417400598526,0.05071830376982689,0.41309744119644165,0.07961029559373856],[-0.06431426107883453,-0.3916340470314026,-0.2806675136089325,-0.044042132794857025,-0.3380086421966553,-0.03553137555718422,-0.29364874958992004,-0.04980110749602318,0.04556044936180115],[0.17982187867164612,-0.01039950828999281,0.009861094877123833,0.23760074377059937,-0.15681155025959015,0.054546233266592026,-0.2526776194572449,0.15938112139701843,0.19417960941791534],[-0.08792978525161743,0.0746101662516594,-0.14828413724899292,0.0614299401640892,-0.15255258977413177,0.12217812240123749,-0.06995872408151627,0.0170186385512352,-0.00810196902602911],[-0.002635036827996373,0.13854213058948517,0.2350739687681198,-0.018713682889938354,0.006242000963538885,-0.03823401778936386,0.0526353195309639,-0.3828122913837433,0.3374137282371521],[-0.0794699490070343,0.1538507342338562,0.12193365395069122,-0.005506814923137426,0.012554456479847431,0.2019563466310501,-0.12596993148326874,-0.2932015657424927,0.1902492791414261],[0.280654639005661,-0.22748464345932007,-0.0255704578012228,-0.12249942868947983,0.0789501890540123,0.0054629179649055,-0.14541377127170563,-0.26528236269950867,0.23875223100185394],[0.0063264500349760056,0.15097524225711823,-0.026157470420002937,0.2549476623535156,-0.13054141402244568,0.38470834493637085,-0.1174209788441658,-0.26833871006965637,0.04543101415038109],[-0.11600446701049805,0.08318114280700684,0.16390757262706757,-0.2617342472076416,0.13662005960941315,0.07511524111032486,0.4369770884513855,0.01916673220694065,-0.23450955748558044],[0.1377747356891632,0.33488982915878296,0.19295640289783478,-0.366632878780365,0.12122225016355515,-0.32879775762557983,0.1615050882101059,0.1319924294948578,0.2548429071903229],[-0.055829502642154694,0.19075971841812134,-0.2317952662706375,0.2218291461467743,-0.0383719839155674,-0.24767115712165833,-0.19292548298835754,0.06207938864827156,0.10913822799921036],[-0.22457459568977356,-0.144270122051239,0.04875512421131134,0.040890730917453766,0.05879507586359978,0.37934261560440063,-0.3183368742465973,-0.03637883812189102,-0.07614707946777344],[0.025279315188527107,0.2268172949552536,-0.011234890669584274,-0.16309072077274323,-0.39942818880081177,0.01971522532403469,0.1499904990196228,0.012030168436467648,0.16451682150363922],[-0.05090877041220665,-0.08888642489910126,0.19539490342140198,0.31737956404685974,-0.11095374077558517,0.21553128957748413,-0.03912601247429848,-0.1768716424703598,-0.14876079559326172],[-0.13748297095298767,-0.026455089449882507,0.3532794117927551,0.06565343588590622,0.034558750689029694,-0.1776992231607437,-0.07986924797296524,-0.11456681787967682,0.07556553184986115],[-0.17668266594409943,0.4247722923755646,0.11337821185588837,0.22074110805988312,-0.29944926500320435,-0.17649981379508972,-0.07284441590309143,-0.18106912076473236,0.003101348876953125],[-0.13106146454811096,-0.07302451133728027,-0.3707219660282135,-0.09953022003173828,0.15171019732952118,0.05416088178753853,-0.1107059046626091,-0.056670695543289185,-0.3375084102153778],[-0.07722947001457214,-0.13555216789245605,-0.11544237285852432,-0.062379080802202225,0.030048299580812454,-0.11156322807073593,-0.2720930576324463,0.104141466319561,-0.06669901311397552],[0.38518306612968445,-0.015614437870681286,0.06812820583581924,0.03804108127951622,-0.0009655985049903393,0.1527358442544937,-0.005490296985954046,-0.12906143069267273,0.09562020748853683],[0.01889953948557377,-0.15945883095264435,0.33939820528030396,-0.06575171649456024,-0.2396736443042755,0.2766615152359009,-0.1788472831249237,-0.30938342213630676,0.2652728259563446],[-0.48352670669555664,-0.360272616147995,-0.23072895407676697,0.03795323148369789,0.04704095423221588,0.3048288822174072,0.29434439539909363,-0.2211650311946869,0.2860012352466583],[-0.10980165004730225,-0.06816007941961288,0.34487488865852356,0.10848907381296158,0.35990411043167114,-0.31500548124313354,0.12431180477142334,0.006384819746017456,0.20295096933841705],[0.09930118918418884,0.177355095744133,0.13358783721923828,0.22890301048755646,0.16829487681388855,-0.1192380040884018,0.36117076873779297,-0.05901392549276352,-0.23166394233703613]],"b":[-0.024505475535988808,0.00052073277765885,0.022534223273396492,-0.0417972169816494,-0.008748861961066723,0.0036028586328029633,-0.00039701946661807597,-0.00373062863945961,-0.031094515696167946,-0.008547940291464329,0.05874677374958992,0.0037687676958739758,-0.007055225316435099,0.010160338133573532,0.023508736863732338,0.008080679923295975,0.011605240404605865,-0.013156101107597351,0.02664368413388729,-0.0030250041745603085,0.04483982175588608,-0.010015280917286873,0.025481833145022392,-0.008291888050734997,0.0177952628582716,-0.014235474169254303,0.00477267662063241,0.02357599139213562,0.004168436862528324,-0.04688220098614693,-0.0046036262065172195,-0.026152895763516426,0.0025502010248601437,0.0025881098117679358,0.03183199092745781,0.0018718084320425987,-0.02241499535739422,0.024572869762778282,0.006713260430842638,0.01599865034222603,0.024640804156661034,-0.031421445310115814,-0.004537968430668116,0.003387138480320573,-0.0196261927485466,-0.014646714553236961,-0.01606893539428711,0.062197957187891006,-0.0009638967458158731,-0.0066323792561888695,-0.014047418721020222,0.018276425078511238,-0.0236712284386158,-0.02498510666191578,-0.020039387047290802,-0.00020568881882354617,0.0025592090096324682,0.023820819333195686,0.03206310421228409,-0.01189639512449503,-0.0072708772495388985,0.01338686142116785,4.002617788501084e-05,0.00045327821862883866],"act":"tanh"},{"W":[[-0.016599636524915695,0.25555843114852905,-0.008833272382616997,-0.07000745832920074,0.19052429497241974,-0.106340192258358,0.03929750993847847,0.014389731921255589,0.08258673548698425,-0.10321033746004105,-0.164350226521492,0.1946152299642563,-0.024857500568032265,0.043250083923339844,0.001633549458347261,0.07044228166341782,0.04389810189604759,-0.22025293111801147,-0.3888201117515564,0.16163857281208038,0.5133721232414246,-0.35551783442497253,0.3465229570865631,0.1402352750301361,-0.0848863497376442,0.028610773384571075,-0.0857754647731781,-0.02223857305943966,-0.17059515416622162,-0.15461012721061707,-0.0889766663312912,0.43437865376472473,-0.1851169317960739,-0.03580344095826149,-0.034375302493572235,-0.1385456919670105,-0.06589033454656601,0.05924008786678314,0.16794589161872864,0.2208736538887024,-0.02186048962175846,0.09624265134334564,0.15197503566741943,0.053541529923677444,-0.1257099211215973,-0.08739151060581207,-0.04508614540100098,-0.1095959022641182,0.2738538086414337,-0.2756573557853699,-0.18780270218849182,-0.10385012626647949,0.07916209846735,-0.16741402447223663,0.16655349731445312,0.06884173303842545,-0.014459799975156784,0.2616146504878998,-0.12541598081588745,-0.30353987216949463,-0.33213505148887634,-0.03920616954565048,0.14036621153354645,-0.015266352333128452],[0.17265360057353973,0.4104912281036377,0.2061050832271576,0.23691648244857788,-0.2400304526090622,-0.01741258054971695,0.18099060654640198,-0.13714765012264252,-0.09182854741811752,0.13876725733280182,0.3040742874145508,0.2729453146457672,0.01717974618077278,-0.27463313937187195,-0.20945234596729279,0.09212672710418701,-0.1640232652425766,-0.21189436316490173,-0.2007908970117569,0.16259647905826569,-0.2908719480037689,-0.23949764668941498,0.2433812916278839,0.059355728328228,-0.01564657688140869,-0.25906112790107727,0.10904841125011444,0.07284034043550491,0.06699083000421524,0.06965269148349762,-0.11082327365875244,-0.3545626699924469,0.03288205340504646,-0.004443875979632139,-0.046465516090393066,-0.023583829402923584,0.19842681288719177,-0.04256962984800339,-0.19538752734661102,0.47447553277015686,0.036041609942913055,0.07201147079467773,-0.12377884984016418,0.027975918725132942,0.06755498051643372,-0.13828688859939575,0.16729094088077545,0.12262769788503647,0.12650878727436066,0.04600096121430397,0.01830432191491127,-0.03838275372982025,0.06867247819900513,0.08416523784399033,0.11991262435913086,0.09147001802921295,-0.06465868651866913,-0.267797589302063,0.012837862595915794,0.17116130888462067,-0.019199104979634285,0.07772964239120483,0.25146761536598206,-0.3118267357349396],[0.1365819126367569,0.14007675647735596,0.015410383231937885,0.2992510199546814,-0.31578999757766724,0.2454141080379486,-0.19253301620483398,-0.21857702732086182,-0.06812843680381775,0.2745232880115509,-0.030351312831044197,-0.135057732462883,0.09020563215017319,0.1313767433166504,-0.22794987261295319,-0.21493545174598694,-0.06447935849428177,0.3050048053264618,-0.20796041190624237,-0.06112166494131088,0.05826129764318466,0.119964100420475,0.07181686908006668,-0.16244062781333923,-0.03545639291405678,-0.19045335054397583,-0.08910197764635086,-0.08631904423236847,0.09692585468292236,-0.10952796787023544,0.09113229066133499,-0.021446559578180313,-0.025299478322267532,-0.15245789289474487,0.11582653969526291,-0.06230601295828819,-0.44891300797462463,-0.3318166732788086,0.2114698439836502,-0.5041771531105042,-0.10683470219373703,-0.08058501780033112,0.123319111764431,0.11865424364805222,0.03782438486814499,0.10874190926551819,-0.10673346370458603,0.06177504360675812,0.34869828820228577,0.09994656592607498,-0.1919674277305603,0.3666139841079712,0.11745119094848633,0.2050364911556244,0.13591930270195007,-0.033099159598350525,-0.14511694014072418,0.12174063920974731,-0.2119339257478714,-0.29247376322746277,0.12659822404384613,-0.038754887878894806,0.06388208270072937,-0.29503682255744934],[-0.30348116159439087,-0.03287147730588913,-0.10289641469717026,0.26965945959091187,-0.1672196090221405,-0.3177066445350647,-0.19635924696922302,0.019093146547675133,0.3725701868534088,0.2354293316602707,-0.06062142178416252,0.0019475480075925589,-0.040546707808971405,0.2983696162700653,0.11558932065963745,0.1274300515651703,0.13781552016735077,0.17189352214336395,0.0368233323097229,0.29539981484413147,0.03091001696884632,0.18717044591903687,-0.2133013904094696,0.24305585026741028,0.2613926827907562,-0.17045660316944122,-0.3211324214935303,-0.0020079384557902813,0.09891872107982635,0.09430254995822906,0.08361110091209412,0.18903899192810059,0.0799679383635521,-0.07711055129766464,0.07357779145240784,-0.08768394589424133,0.20469681918621063,0.09319930523633957,0.3505305051803589,0.19285084307193756,0.3456304669380188,0.047169435769319534,-0.20332913100719452,-0.209245502948761,0.17920295894145966,0.08428466320037842,0.19873450696468353,0.17171211540699005,0.32324790954589844,0.05089003965258598,0.19831976294517517,0.05066876858472824,-0.3448856472969055,0.14953561127185822,0.18642574548721313,-0.1350325495004654,0.2023811936378479,-0.004560262430459261,-0.04804488644003868,0.1608133167028427,0.43429937958717346,-0.022909831255674362,0.3597137928009033,-0.2591216266155243],[0.07184408605098724,0.18300805985927582,0.19690175354480743,0.23171788454055786,0.11144302040338516,0.049054622650146484,0.23906457424163818,0.012281232513487339,0.28270354866981506,0.03926849365234375,0.11232428252696991,0.13713060319423676,-0.0936095267534256,0.22178222239017487,0.2278343141078949,0.08355692774057388,0.04032403603196144,-0.02021685242652893,0.33633050322532654,0.3009653687477112,-0.14062583446502686,0.17380383610725403,0.10171172767877579,-0.10295552760362625,-0.321206271648407,0.11909057945013046,-0.22779954969882965,-0.18496821820735931,0.0007694488158449531,-0.14618562161922455,0.003560621291399002,0.19082853198051453,-0.12164174765348434,-0.18822245299816132,-0.22329212725162506,-0.20326995849609375,-0.16146309673786163,0.18529576063156128,0.15267546474933624,-0.11441340297460556,-0.03763343021273613,0.20528684556484222,-0.13241401314735413,-0.21874091029167175,-0.2331458032131195,0.1101578027009964,0.08081015944480896,-0.006316581275314093,-0.17623497545719147,0.2526414394378662,-0.050692882388830185,-0.04821166396141052,0.1753779500722885,0.18057936429977417,-0.05674159899353981,0.05282333865761757,-0.027376282960176468,-0.25406840443611145,-0.3182273507118225,-0.18546810746192932,0.19190973043441772,0.3847583830356598,-0.1982138603925705,-0.0005383426323533058],[0.2816101610660553,0.1630297601222992,0.15224111080169678,-0.07811985164880753,0.24033008515834808,-0.14196836948394775,0.05673651397228241,0.06006056070327759,-0.26330724358558655,-0.5342754125595093,-0.015035013668239117,-0.14635184407234192,-0.05084221810102463,0.07335773855447769,-0.18480221927165985,0.01566649042069912,0.020876705646514893,-0.2774217128753662,0.0772123858332634,-0.18753883242607117,0.18429124355316162,0.058465953916311264,-0.12817013263702393,-0.08713196218013763,0.2060646265745163,-0.4077951908111572,-0.1510321944952011,0.25236254930496216,0.041241034865379333,-0.40599489212036133,0.23222488164901733,-0.18759343028068542,0.03106214478611946,0.060545664280653,-0.17572231590747833,-0.07433050125837326,-0.025294598191976547,-0.0014241732424125075,-0.16810421645641327,0.09426353126764297,0.08538059145212173,-0.1555488407611847,-0.06853833049535751,-0.442458838224411,0.08613714575767517,-0.09344605356454849,-0.22808335721492767,-0.1642066389322281,0.13078725337982178,0.35642629861831665,-0.1379244476556778,-0.0076441168785095215,0.019140109419822693,0.21961940824985504,0.07865370064973831,0.22878006100654602,0.1813676357269287,0.20570550858974457,0.11144869029521942,-0.08036575466394424,-0.1768486499786377,0.1408747434616089,-0.11159868538379669,0.0021440433338284492],[0.13266576826572418,0.10706748813390732,0.12925152480602264,-0.15519119799137115,-0.23517301678657532,0.01003780122846365,0.07570107281208038,-0.0023414576426148415,0.011912630870938301,-0.1341862976551056,-0.04567541182041168,-0.41338977217674255,-0.11704770475625992,0.06415291875600815,-0.07966524362564087,0.12167440354824066,-0.3992091119289398,0.06528350710868835,0.21466943621635437,0.3265567719936371,0.27203187346458435,0.2884800136089325,0.30407166481018066,-0.1919606328010559,-0.17607907950878143,0.1732393354177475,0.12466493993997574,-0.10848051309585571,-0.038579683750867844,-0.15385708212852478,-0.16876575350761414,-0.020219389349222183,0.13699133694171906,0.11074093729257584,0.04949383810162544,-0.2430417537689209,0.1254088431596756,0.0781654492020607,0.140814870595932,-0.05843120440840721,0.03652274236083031,-0.2593434453010559,-0.020754262804985046,0.022436143830418587,0.004704582970589399,0.0704047903418541,-0.062344539910554886,0.25975000858306885,-0.1325896978378296,-0.35674384236335754,-0.15203216671943665,0.030296841636300087,0.002650173846632242,-0.0872155949473381,0.09409988671541214,0.1475810408592224,0.32512417435646057,-0.09744138270616531,0.18329356610774994,0.12540705502033234,0.41244855523109436,-0.21447749435901642,0.17194420099258423,-0.11153694242238998],[0.0012161217164248228,-0.02208908274769783,0.21403750777244568,-0.07491818070411682,-0.15657953917980194,-0.18254287540912628,0.12364649772644043,0.18232356011867523,0.1043558269739151,-0.2460891157388687,0.012748487293720245,0.12490443140268326,-0.2193785309791565,-0.30112767219543457,-0.38763752579689026,0.05175625532865524,-0.5064900517463684,0.13558533787727356,0.2171483188867569,-0.056547243148088455,-0.23423345386981964,0.05103933811187744,-0.3636764585971832,0.22214069962501526,0.4766917824745178,0.04542747512459755,-0.054354533553123474,-0.01788601092994213,-0.19721098244190216,-0.05860334634780884,-0.10505516827106476,0.3061303198337555,0.010130300186574459,-0.1625957489013672,-0.12233143299818039,-0.05947143957018852,0.15597906708717346,-0.0718684196472168,0.03720181807875633,0.07247652858495712,0.18294326961040497,0.054706230759620667,-0.0244899932295084,0.0316803939640522,-0.4983047842979431,-0.17456424236297607,-0.018208960071206093,0.0352136567234993,0.08430979400873184,-0.059460341930389404,0.056837279349565506,0.04951956123113632,-0.10105111449956894,-0.008737138472497463,-0.21755172312259674,0.054680656641721725,-0.2040557563304901,0.020268313586711884,-0.18631267547607422,-0.0683138519525528,-0.22936157882213593,-0.3090493977069855,-0.1259317249059677,-0.18654637038707733],[-0.016298703849315643,0.1408873051404953,0.014833964407444,-0.08989129215478897,-0.310131311416626,0.3069954216480255,-0.1352466344833374,-0.20270328223705292,-0.014799064956605434,0.08196055889129639,-0.0383407287299633,-0.19267837703227997,-0.09755311161279678,0.22838298976421356,0.21755480766296387,-0.07129231095314026,-0.13117417693138123,-0.28775179386138916,-0.25554969906806946,-0.012869707308709621,-0.3143777549266815,-0.06176970154047012,0.05651243031024933,0.31939443945884705,0.1235937848687172,0.19873937964439392,-0.12236849218606949,-0.024968357756733894,0.07497716695070267,0.15264999866485596,0.05357811227440834,0.4172718822956085,-0.25125738978385925,0.07772176712751389,-0.15174652636051178,0.03647967427968979,0.2954709529876709,-0.13775599002838135,0.18515200912952423,-0.1467868983745575,0.2620701789855957,0.02820419706404209,0.13015897572040558,-0.2099711000919342,-0.002058902522549033,0.16501617431640625,-0.3970922529697418,0.00860732700675726,-0.011094256304204464,0.12335661798715591,0.2947051227092743,-0.005008914973586798,0.0788433700799942,0.15163065493106842,0.22222061455249786,0.3563249409198761,-0.06982874870300293,-0.22145183384418488,0.12186690419912338,0.3426887094974518,0.09637656062841415,-0.15464520454406738,-0.023222172632813454,0.08085749298334122],[-0.02591967210173607,0.21329647302627563,0.03335396572947502,0.0788363367319107,-0.45839953422546387,-0.33010831475257874,0.3056705892086029,-0.1383325159549713,-0.030251873657107353,0.12165751308202744,-0.20874232053756714,-0.008646869100630283,0.17231811583042145,0.008045240305364132,0.11666944622993469,-0.11950729787349701,0.09693589061498642,0.25463518500328064,0.05470968782901764,0.01088982168585062,-0.1556916981935501,-0.028746556490659714,0.14207389950752258,-0.3986482322216034,0.1649889349937439,-0.1512225717306137,-0.16346973180770874,0.195679172873497,-0.27512305974960327,0.15202867984771729,-0.11216625571250916,0.2892274260520935,0.21156279742717743,0.03330426290631294,-0.12820622324943542,0.10951867699623108,0.01943112537264824,0.20276778936386108,0.05677274242043495,-0.042662445455789566,-0.04874645918607712,0.2381066232919693,0.16297145187854767,-0.08535654842853546,0.14138653874397278,-0.06573313474655151,-0.04280296340584755,-0.05054432898759842,0.24514292180538177,0.14728191494941711,-0.10605119913816452,-0.0010906957322731614,0.14252236485481262,-0.049644406884908676,-0.09565376490354538,-0.216624915599823,0.23092426359653473,-0.03256875276565552,0.28884032368659973,0.0679749846458435,0.0009498576400801539,-0.1967168152332306,-0.150864377617836,0.42024722695350647],[-0.14324046671390533,0.027151335030794144,-0.027588438242673874,-0.31783366203308105,-0.20050688087940216,0.3183600902557373,0.03612932562828064,0.10877032577991486,0.2476692497730255,0.05381996929645538,0.1741456538438797,0.13385795056819916,0.18162952363491058,-0.06591112166643143,0.0314880795776844,-0.10717716068029404,-0.09377536177635193,-0.25597429275512695,0.029117951169610023,0.16678930819034576,-0.05129580944776535,0.21375945210456848,-0.0017689003143459558,0.008521427400410175,-0.29132404923439026,-0.17188769578933716,0.09941740334033966,-0.14761371910572052,-0.09392133355140686,-0.06403351575136185,-0.08778319507837296,0.0202095415443182,0.23707911372184753,0.1441231071949005,0.08843070268630981,0.030800221487879753,-0.09119013696908951,-0.31390655040740967,-0.25554579496383667,-0.13505591452121735,-0.02611822634935379,0.13007217645645142,-0.0025013613048940897,-0.49727630615234375,-0.10020265728235245,-0.32088136672973633,0.0275100227445364,-0.262729287147522,-0.11616174876689911,0.053188569843769073,-0.1378941535949707,-0.09760793298482895,0.022717192769050598,0.12031837552785873,-0.2260587215423584,-0.1577482670545578,-0.004970288369804621,0.6147230863571167,0.07408193498849869,0.04294898733496666,-0.2122729867696762,-0.03249097242951393,0.3176593780517578,0.014360755681991577],[0.3882750868797302,-0.14999771118164062,0.11476119607686996,0.0031699722167104483,0.07028904557228088,0.17697133123874664,-0.012526328675448895,-0.005816063843667507,0.30608561635017395,0.05505061894655228,-0.09962005168199539,-0.6070851683616638,0.48301395773887634,-0.06344718486070633,-0.14546291530132294,0.042145296931266785,0.1319526582956314,0.001988239586353302,0.111552894115448,0.17090779542922974,-0.1157601922750473,0.08487239480018616,0.14188824594020844,0.14296282827854156,0.168043315410614,-0.16158007085323334,0.08866739273071289,-0.163174107670784,0.23959486186504364,0.14738355576992035,-0.10565774142742157,-0.004225873854011297,-0.037541065365076065,0.19448749721050262,-0.12915536761283875,0.10442252457141876,0.048616331070661545,-0.024122415110468864,0.22342531383037567,0.41486236453056335,-0.017157722264528275,0.24075864255428314,-0.06279212236404419,-0.0843883827328682,-0.13556326925754547,0.2747083306312561,0.0802559107542038,-0.06490983068943024,0.16945090889930725,-0.051229920238256454,0.29245367646217346,0.04635249823331833,-0.17107130587100983,-0.12884686887264252,-0.12072940915822983,0.02120589278638363,0.04336100444197655,-6.480368028860539e-06,0.09900984168052673,-0.2334107756614685,-0.25037145614624023,-0.06367644667625427,-0.1664550006389618,-0.07078475505113602],[-0.14336083829402924,-0.2600249946117401,0.06056539714336395,-0.2721705436706543,-0.056343041360378265,-0.09671195596456528,0.1146189346909523,0.12740562856197357,0.02919376641511917,-0.22800394892692566,0.07279329001903534,0.15766409039497375,0.17428910732269287,0.35784605145454407,-0.22704096138477325,0.13182541728019714,-0.06625612825155258,0.05735800787806511,-0.11195944994688034,0.29590120911598206,-0.22428332269191742,-0.18581612408161163,-0.1492920219898224,-0.38201603293418884,-0.182402104139328,-0.40510696172714233,0.2199408859014511,-0.0909886434674263,0.08326683938503265,0.16050204634666443,-0.0196392759680748,0.13433824479579926,-0.2368854135274887,-0.12466958910226822,-0.07737244665622711,-0.20398639142513275,-0.008627800270915031,-0.1727789342403412,0.09972519427537918,-0.0032704549375921488,0.18338900804519653,-0.04322274029254913,0.15835900604724884,0.42533406615257263,0.15510015189647675,0.0930144265294075,0.09650298207998276,-0.1704748272895813,-0.08107244223356247,0.10090933740139008,0.0742146298289299,-0.1480855941772461,-0.33778154850006104,0.1330745816230774,0.11712919175624847,0.2626774311065674,0.13435208797454834,0.022072695195674896,-0.05174097418785095,0.08849280327558517,-0.07234519720077515,-0.05172300711274147,-0.014795273542404175,0.06274007260799408],[0.25681355595588684,-0.1984567791223526,0.15669971704483032,0.34576040506362915,-0.018958469852805138,-0.15042665600776672,-0.18116627633571625,0.093583844602108,0.06452762335538864,-0.18012107908725739,-0.05498511716723442,0.08221644163131714,-0.243773952126503,0.03290700539946556,0.038930781185626984,-0.3562121093273163,-0.03788546845316887,-0.17379015684127808,-0.10850444436073303,-0.15781667828559875,-0.1253235787153244,-0.27185550332069397,-0.10073184221982956,-0.11275925487279892,-0.052708808332681656,-0.2891802489757538,0.19604626297950745,-0.07380711287260056,-0.11068757623434067,0.22284340858459473,-0.1676945686340332,0.07485438138246536,-0.021918712183833122,-0.0014279522001743317,0.01583772711455822,0.1692071408033371,-0.18653887510299683,0.21864448487758636,0.037155650556087494,0.21004986763000488,0.12219312787055969,0.019447768107056618,-0.4946030080318451,-0.04389359802007675,-0.40348124504089355,0.06515812128782272,-0.13469842076301575,0.2461041361093521,-0.40771937370300293,-0.08092688024044037,0.19906221330165863,0.16510389745235443,0.08042800426483154,0.03523903340101242,0.2052265703678131,0.042191602289676666,0.13256515562534332,0.34570246934890747,0.09262970834970474,-0.044571928679943085,-0.00865622702986002,-0.1612071990966797,0.21451197564601898,0.19961833953857422],[-0.07113227993249893,-0.047630779445171356,-0.25016483664512634,0.036322031170129776,-0.16361616551876068,0.19632495939731598,0.019216356799006462,-0.20981919765472412,0.16648314893245697,-0.17167986929416656,-0.1657378077507019,-0.11658051609992981,-0.058801501989364624,-0.012424930930137634,0.04009353369474411,0.0896637961268425,0.0989503413438797,0.023131871595978737,-0.09011587500572205,0.04145192354917526,-0.04104037955403328,0.1367129385471344,-0.04916532710194588,0.048353031277656555,-0.41693317890167236,-0.26225098967552185,-0.26085418462753296,0.1382375806570053,-0.10188311338424683,0.14819900691509247,0.35277649760246277,-0.42869439721107483,0.02743339166045189,0.019254857674241066,0.30431365966796875,-0.2302439659833908,0.2735757827758789,0.209678515791893,0.07316827774047852,-0.171152725815773,0.14644911885261536,0.020474622026085854,0.12791810929775238,0.08270704001188278,-0.4717658460140228,-0.032638080418109894,0.012803399004042149,-0.1788320541381836,0.21556824445724487,-0.24241794645786285,-0.241723895072937,0.237412691116333,0.04760937765240669,0.051548510789871216,0.0005010593449696898,0.02106647565960884,-0.07965096086263657,-0.3156237006187439,-0.038712311536073685,-0.0746658593416214,-0.1617402881383896,0.06476937979459763,0.1257847398519516,0.3650573492050171],[0.038285911083221436,0.12620756030082703,-0.28737619519233704,0.06343184411525726,-0.10177872329950333,0.3979955017566681,-0.3361300230026245,-0.17100836336612701,-0.1451849341392517,0.02812582068145275,-0.08089699596166611,0.12023314833641052,0.24344512820243835,0.41875892877578735,-0.003872552188113332,0.49892184138298035,0.15173554420471191,0.181857630610466,0.4355948567390442,-0.05168122425675392,0.015165614895522594,-0.15854595601558685,0.03471548855304718,0.04410277679562569,-0.12319774180650711,-0.13841789960861206,-0.05563528835773468,0.10672017186880112,-0.23697099089622498,0.043549563735723495,-0.19079409539699554,0.062110766768455505,0.021305495873093605,-0.2302737683057785,-0.17615965008735657,0.31918737292289734,0.1134820356965065,0.034733664244413376,-0.13036024570465088,0.04006807506084442,0.09065603464841843,0.06343076378107071,0.09168115258216858,-0.06478859484195709,-0.11703851819038391,-0.023100469261407852,0.24936439096927643,0.17428593337535858,0.07510063797235489,-0.12309079617261887,-0.19658902287483215,0.16460756957530975,-0.01909366436302662,-0.044701624661684036,0.07509792596101761,0.30173707008361816,-0.23300251364707947,0.15342743694782257,0.07296954840421677,-0.022505614906549454,0.4377995729446411,-0.09230231493711472,-0.17070049047470093,-0.03835876286029816],[0.09730382263660431,0.2794545888900757,-0.308167040348053,0.006037768442183733,0.22357328236103058,-0.17999134957790375,0.20324921607971191,-0.16441836953163147,-0.4041844308376312,-0.10690665990114212,-0.324514240026474,0.29145896434783936,0.19366508722305298,-0.05115249380469322,-0.05791052058339119,-0.08118556439876556,0.03121657855808735,0.04932244494557381,-0.03587011247873306,0.2609430253505707,0.07282436639070511,0.2603069543838501,-0.06037098914384842,0.2882222533226013,0.1049717515707016,0.02697230502963066,0.1569388210773468,0.037583380937576294,0.2709308862686157,0.1670503467321396,-0.055776000022888184,-0.1978049874305725,0.1630595475435257,0.06505156308412552,0.017416298389434814,-0.3540528118610382,-0.14860482513904572,-0.23852834105491638,0.1010906845331192,0.009707434102892876,-0.010768040083348751,0.3245268166065216,0.2021491378545761,0.06620536744594574,-0.35349053144454956,0.004285657312721014,-0.13922502100467682,0.15132910013198853,-0.39389148354530334,0.30351123213768005,-0.08826152980327606,0.03945527970790863,-0.021420106291770935,-0.1518893986940384,0.08192097395658493,0.01887240633368492,-0.011767810210585594,0.2511308193206787,0.11514465510845184,0.07003773748874664,0.00200357916764915,0.0004899955820292234,-0.010337178595364094,0.0689125806093216],[-0.03613746911287308,0.28607144951820374,-0.06587384641170502,-0.023080814629793167,0.20715968310832977,0.17255665361881256,0.11739587038755417,-0.05017143115401268,0.05735873803496361,-0.04006098210811615,0.30849024653434753,-0.2515918016433716,-0.12453394383192062,0.3169463872909546,0.016968945041298866,0.06152431294322014,-0.19003407657146454,0.07155237346887589,-0.22358816862106323,-0.092350535094738,0.029587160795927048,-0.0874355286359787,0.14448073506355286,0.028227904811501503,0.145224928855896,0.12008070200681686,0.2915281355381012,0.39170941710472107,-0.29336732625961304,0.37726107239723206,0.10640348494052887,0.1971675455570221,0.21886537969112396,-0.011179235763847828,0.15811772644519806,-0.1214129850268364,-0.18643200397491455,-0.10190506279468536,0.09684246778488159,0.36281999945640564,0.2400342971086502,-0.1613338142633438,-0.4107581675052643,0.01448818389326334,-0.047177452594041824,-0.11466662585735321,-0.01327140536159277,-0.07489409297704697,-0.23457688093185425,0.24224218726158142,-0.05615651234984398,0.12978573143482208,-0.3734405040740967,0.12493418157100677,-0.30304959416389465,-0.18291419744491577,0.040209874510765076,-0.13460180163383484,-0.04628666490316391,-0.06609407067298889,-0.1488456279039383,-0.11097100377082825,-0.16663014888763428,-0.03183519095182419],[-0.1106693372130394,-0.17977261543273926,0.036087777465581894,0.19511286914348602,-0.12280634790658951,-0.10355610400438309,-0.42122772336006165,-0.3467729091644287,-0.20023612678050995,-0.12063486129045486,0.052584245800971985,0.06943698972463608,-0.3234923183917999,-0.15617649257183075,0.2413918524980545,0.1080360859632492,0.025390081107616425,-0.018268518149852753,-0.03133835271000862,0.15211336314678192,-0.017180928960442543,0.2873983383178711,0.060397885739803314,-0.012163064442574978,-0.053791243582963943,0.029966523870825768,0.5024405717849731,-0.12350183725357056,0.13881830871105194,-0.014141750521957874,0.07303735613822937,0.07041412591934204,-0.044120751321315765,-0.3255137801170349,-0.128261536359787,-0.007348955143243074,0.24110350012779236,0.10892753303050995,0.15954500436782837,0.06122991070151329,-0.10345856100320816,-0.12130951881408691,0.13694597780704498,-0.08721644431352615,-0.0038656163960695267,-0.05240064486861229,0.04946490377187729,-0.5488876104354858,0.0707266554236412,0.1977260708808899,-0.22744311392307281,0.19034124910831451,0.07586245238780975,-0.25289949774742126,-0.061581384390592575,-0.12670573592185974,0.016870681196451187,0.1416206657886505,0.3235340118408203,-0.15953119099140167,-0.07866808772087097,0.1387617290019989,-0.08237320929765701,-0.15620627999305725],[0.05242769047617912,0.01096989493817091,0.17731744050979614,0.38582611083984375,-0.2928549349308014,0.04674835130572319,0.23515452444553375,0.1493184119462967,0.010924062691628933,-0.1917600780725479,0.02582463249564171,-0.02528919093310833,0.11923956871032715,-0.005063649266958237,-0.006553810089826584,-0.15002062916755676,-0.016346212476491928,0.06755923479795456,0.049262724816799164,-0.08673913776874542,-0.029172658920288086,0.09993235021829605,-0.19782540202140808,0.08984745293855667,-0.1452587991952896,0.39315474033355713,0.174932599067688,-0.0958026722073555,0.08162655681371689,-0.012956073507666588,0.30622705817222595,0.14060477912425995,-0.22496259212493896,0.21883977949619293,0.12630322575569153,0.20018771290779114,0.15164896845817566,0.22453531622886658,0.04673612490296364,0.4108501076698303,0.29705244302749634,0.20477212965488434,0.2975844442844391,0.1612706035375595,0.32667312026023865,-0.1291951686143875,-0.09452373534440994,0.1660129874944687,-0.0681074783205986,-0.015807896852493286,-0.17746058106422424,0.16106246411800385,-0.304884135723114,0.31260979175567627,-0.14192695915699005,0.1858537346124649,-0.11720006167888641,0.21301518380641937,-0.0017582454020157456,-0.2000705599784851,0.1542934626340866,0.03665556386113167,0.09251583367586136,0.09985513985157013],[-0.25794675946235657,-0.34497296810150146,-0.05355855077505112,0.10545608401298523,0.0913204774260521,0.28815701603889465,0.0740738958120346,0.1168297827243805,-0.2997589111328125,0.09044060856103897,-0.15145044028759003,-0.07718639075756073,0.2071433961391449,0.04648523032665253,0.4009779989719391,-0.2088983952999115,0.1725073903799057,-0.22251005470752716,0.08879701048135757,0.11184690147638321,-0.08470123261213303,-0.04334840178489685,-0.01497107744216919,-0.35812845826148987,-0.01089206151664257,0.2584103047847748,-0.04535616189241409,0.1102982684969902,0.2096800059080124,-0.19702750444412231,-0.05503043532371521,0.038925353437662125,0.29090338945388794,-0.04071379452943802,-0.04640790447592735,-0.10460703074932098,0.05607141554355621,-0.011542159132659435,-0.14167547225952148,0.13288061320781708,-0.13303570449352264,-0.07594294846057892,-0.05533929541707039,0.1686612218618393,-0.4450017213821411,-0.07889748364686966,-0.08162537962198257,0.07581181079149246,0.34109365940093994,0.04452350735664368,-0.412128210067749,-0.12759578227996826,-0.06208948418498039,0.2910197675228119,0.2787246108055115,-0.09547273069620132,-0.04622239992022514,-0.08739760518074036,0.04265302047133446,0.03855988010764122,-0.05716568976640701,-0.21840834617614746,-0.01878245547413826,-0.3029789328575134],[-0.251000314950943,0.13596057891845703,0.18290932476520538,0.06947805732488632,-0.08427287638187408,0.22354745864868164,-0.0898250862956047,0.03135296702384949,-0.008528455160558224,-0.027033748105168343,-0.17614485323429108,-0.03233739733695984,0.10254797339439392,-0.10858213156461716,0.13196638226509094,-0.02913074567914009,-0.3254110813140869,-0.25997135043144226,0.47012847661972046,-0.018530458211898804,0.288062185049057,-0.14426279067993164,0.36835047602653503,-0.0078748669475317,0.0919649600982666,-0.24186991155147552,0.00574516924098134,-0.06606954336166382,0.07938084006309509,0.10583516210317612,0.2792355418205261,-0.12160874903202057,0.18283754587173462,0.01873692311346531,-0.012840869836509228,0.035163771361112595,-0.013953164219856262,0.06562869995832443,-0.006740914657711983,-0.142901211977005,0.2519061863422394,-0.13487672805786133,0.2054489105939865,0.4066535234451294,-0.08933648467063904,-0.17080557346343994,-0.051279693841934204,-0.08690501004457474,-0.015923267230391502,0.09254962205886841,0.2567102909088135,-0.10307684540748596,0.06356232613325119,-0.002378476783633232,0.3000299334526062,-0.4691759943962097,-0.08023923635482788,0.23487837612628937,-0.09774884581565857,0.012449664063751698,0.047138337045907974,0.3174786865711212,-0.2454114854335785,0.07417356222867966],[0.11903989315032959,-0.024499624967575073,-0.11726229637861252,-0.05240335315465927,-0.0571553073823452,0.09103982150554657,-0.27423202991485596,0.1312408447265625,0.10681600868701935,0.22284996509552002,-0.18087807297706604,-0.17109648883342743,0.14426830410957336,-0.14870396256446838,0.049015942960977554,0.1670137345790863,-0.08417709916830063,-0.014671441167593002,-0.09803963452577591,0.04221095144748688,0.0274630356580019,0.13713929057121277,-0.19734007120132446,-0.21392780542373657,0.20936335623264313,-0.25636884570121765,-0.042491365224123,-0.21205396950244904,0.10594569146633148,0.1194533258676529,-0.14434613287448883,0.24460822343826294,-0.33430325984954834,-0.1704346239566803,0.1763455718755722,-0.23330990970134735,-0.19515816867351532,0.03417206555604935,-0.07082518190145493,0.4120228588581085,0.15133628249168396,-0.1354067176580429,0.13064299523830414,-0.03723832964897156,0.06806159764528275,-0.13717524707317352,-0.07976607978343964,0.18619783222675323,-0.1447179615497589,-0.08469215780496597,-0.46582964062690735,0.08381500095129013,0.37925949692726135,0.14000870287418365,-0.1011095643043518,-0.14772462844848633,-0.08714897930622101,-0.1798674762248993,-0.06674891710281372,0.37332332134246826,0.00245428504422307,0.3012889325618744,-0.13305746018886566,0.1204170435667038],[0.28624874353408813,0.14100758731365204,-0.1571476012468338,0.03802623599767685,-0.08235575258731842,-0.4172714948654175,-0.16336916387081146,-0.112055204808712,0.04491071775555611,-0.18501198291778564,0.08559448271989822,-0.030301062390208244,0.26230588555336,-0.06899625808000565,0.5596851706504822,0.10287896543741226,-0.2507916986942291,0.04031572863459587,-0.25067755579948425,0.03466141223907471,0.08228912204504013,0.07261286675930023,-0.016623469069600105,0.05021614581346512,-0.050055596977472305,-0.09208589047193527,-0.3142470419406891,-0.14130616188049316,-0.11408761888742447,-0.10850958526134491,0.07094646245241165,-0.05774473771452904,0.20746822655200958,0.01762009784579277,-0.12512995302677155,0.06455665826797485,-0.07964394241571426,-0.026068735867738724,-0.14068107306957245,0.045168932527303696,-0.21464663743972778,0.03671970218420029,-0.025758447125554085,0.27030521631240845,0.03394034877419472,0.010664994828402996,-0.04241788387298584,-0.3170830011367798,-0.31794485449790955,-0.2569678723812103,0.10330156236886978,-0.090491883456707,-0.08685773611068726,0.43003910779953003,-0.10424386709928513,0.027858341112732887,-0.2510697841644287,0.07027213275432587,0.06794075667858124,-0.005900099407881498,-0.02115500532090664,-0.14434166252613068,-0.1618201732635498,-0.22343508899211884],[0.46770983934402466,-0.1704922914505005,0.08080002665519714,-0.03302760794758797,-0.016480578109622,-0.015599225647747517,0.1390468031167984,-0.14035257697105408,-0.009061168879270554,0.2506099343299866,-0.09918610006570816,0.06152362376451492,-0.19720083475112915,0.2212068885564804,-0.10256271064281464,-0.010701474733650684,-0.3043968379497528,-0.015956223011016846,0.04539112374186516,0.07189754396677017,0.056665774434804916,-0.3317394256591797,-0.15194225311279297,-0.002496854867786169,-0.1594119668006897,0.03902478143572807,-0.22907961905002594,-0.20504842698574066,0.18752996623516083,0.0819108635187149,0.030951786786317825,-0.031961869448423386,0.14687079191207886,-0.22007110714912415,0.2409275621175766,0.22244229912757874,0.06337962299585342,-0.06264004856348038,-0.09490780532360077,0.21290302276611328,-0.14092309772968292,0.08057969063520432,0.04401783272624016,-0.14261479675769806,-0.030697595328092575,-0.08515140414237976,-0.4871945083141327,-0.2459884136915207,0.08308425545692444,0.0761374905705452,-0.17540320754051208,-0.154939666390419,-0.4414512515068054,-0.3396727740764618,-0.03598839417099953,-0.17489014565944672,0.042915619909763336,-0.06834050267934799,-0.14909708499908447,0.04728968068957329,0.2511976957321167,0.022733937948942184,-0.015356497839093208,0.08381427079439163],[0.11020144820213318,-0.23193766176700592,0.05177396535873413,-0.018950872123241425,-0.035865094512701035,0.1744694709777832,0.3577238917350769,-0.03169768676161766,0.07222416996955872,0.3974727392196655,-0.029473578557372093,0.373617023229599,0.22626841068267822,-0.19255603849887848,0.062385983765125275,0.4576478600502014,-0.03450433164834976,0.1068752110004425,-0.035612136125564575,-0.35238116979599,0.32042834162712097,-0.0880364254117012,0.012152065522968769,0.04486384987831116,0.09693526476621628,-0.09808962047100067,0.09580393135547638,-0.22855336964130402,0.0586150698363781,-0.21099333465099335,0.08151975274085999,-0.09125343710184097,0.012641675770282745,0.23225371539592743,-0.10427780449390411,-0.11047055572271347,-0.07912673056125641,0.260796457529068,0.23686134815216064,-0.2961406111717224,0.08364000171422958,-0.12187378108501434,-0.25824305415153503,-0.03564756363630295,-0.056830257177352905,-0.19920240342617035,-0.08512056618928909,-0.19333498179912567,-0.25681859254837036,0.22715669870376587,-0.2096106857061386,0.07217242568731308,-0.052684713155031204,0.013561543077230453,0.21205350756645203,0.11313415318727493,-0.028175432235002518,-0.06520719081163406,0.3637937307357788,-0.053910959511995316,-0.28001683950424194,-0.10324777662754059,0.016304336488246918,-0.0643967017531395],[0.03775470703840256,-0.21748287975788116,0.05578717589378357,0.14326559007167816,-0.023798450827598572,0.15794585645198822,-0.29841119050979614,0.12548816204071045,0.33927056193351746,-0.22248859703540802,-0.2731567919254303,0.23044459521770477,-0.004058752674609423,0.21110865473747253,-0.018446926027536392,0.19603221118450165,-0.3091225326061249,-0.10973981767892838,-0.19370324909687042,0.0047591133043169975,-0.11545328050851822,0.2918876111507416,0.2997612953186035,-0.08604759722948074,0.24955588579177856,0.29583799839019775,-0.25778111815452576,0.16011179983615875,0.012328985147178173,0.19484838843345642,-0.3059018552303314,-0.20979422330856323,0.21192044019699097,-0.036247286945581436,0.1923823356628418,0.03876768425107002,-0.1474318653345108,0.17821474373340607,-0.19572563469409943,-0.13075095415115356,-0.1131502166390419,0.08619746565818787,0.14201082289218903,0.11415176838636398,0.17743106186389923,-0.0815386027097702,0.03728315234184265,0.09815046191215515,0.036516427993774414,0.3324524760246277,-0.08263099193572998,-0.11671050637960434,0.028618933632969856,-0.06511693447828293,0.06420774012804031,0.24404066801071167,0.036785658448934555,-0.02183421142399311,0.16284716129302979,-0.2628430426120758,-0.217926487326622,0.17352908849716187,0.12570953369140625,0.006244821473956108],[-0.0491197407245636,-0.1710841804742813,-0.2838328778743744,0.3729691207408905,-0.2880977690219879,-0.03601168468594551,-0.022703921422362328,0.22228030860424042,-0.009235035628080368,0.03732341155409813,0.40104052424430847,-0.25493597984313965,0.005094829015433788,-0.1329769492149353,-0.3966502249240875,-0.04794391617178917,0.07710474729537964,0.14578455686569214,-0.12950441241264343,0.3550347089767456,0.2880534529685974,-0.24607031047344208,-0.15385712683200836,0.14480218291282654,-0.03999946266412735,0.09822150319814682,-0.14246316254138947,0.12258636951446533,-0.2742334306240082,-0.10192440450191498,-0.2549751102924347,0.07160785794258118,0.08106797188520432,-0.09637819230556488,-0.3265293836593628,0.06514004617929459,0.1393091231584549,0.05109098181128502,-0.10430555045604706,0.14137601852416992,0.024154897779226303,-0.17650625109672546,0.26838845014572144,-0.08967889100313187,-0.12710265815258026,0.11043958365917206,-0.2496229112148285,0.08543813973665237,-0.3966449499130249,0.29357585310935974,0.26336610317230225,-0.0014503522543236613,-0.1742798537015915,0.06810210645198822,0.013542316854000092,-0.056043654680252075,0.10929297655820847,-0.08210032433271408,0.06917595863342285,0.0036651736591011286,-0.3295588493347168,0.19254042208194733,0.05904785171151161,0.030713094398379326],[0.005074871238321066,0.10291825979948044,0.22442913055419922,0.2773169279098511,0.0017221750458702445,-0.3071556091308594,-0.025261951610445976,-0.09251738339662552,-0.14847855269908905,-0.0655180960893631,0.16434931755065918,0.13484016060829163,-0.005899277050048113,0.1288985162973404,-0.1278078258037567,0.34968850016593933,0.06099754944443703,-0.2263130396604538,0.20869547128677368,0.058647628873586655,-0.1043887734413147,0.18518725037574768,0.004523927345871925,-0.043437518179416656,-0.05875077471137047,0.05158893018960953,0.017269765958189964,-0.1135721430182457,-0.2261766493320465,-0.006568508222699165,-0.15674488246440887,0.10853005945682526,-0.22721606492996216,0.41238561272621155,0.30836552381515503,0.12903888523578644,-0.2641110122203827,0.010969298891723156,-0.12600816786289215,0.1073436439037323,0.13459014892578125,-0.2893853187561035,0.0467153862118721,0.008038991130888462,-0.20999939739704132,0.5885058045387268,-0.1859341859817505,-0.008188260719180107,0.15134133398532867,0.11340384930372238,0.11126779019832611,-0.09864460676908493,-0.23230594396591187,-0.024842415004968643,-0.15624618530273438,-0.2076554000377655,-0.2285187542438507,-0.011679868213832378,0.054373081773519516,0.2736857533454895,-0.2814333438873291,-0.21167069673538208,0.11840514093637466,0.036002278327941895],[-0.2630392611026764,0.07660239934921265,-0.2567111551761627,-0.05326341837644577,-0.1182432696223259,-0.10038720816373825,0.10376255959272385,0.44183188676834106,-0.0018932544626295567,-0.5227636694908142,0.0006713076145388186,0.1804477870464325,0.26485610008239746,-0.030603855848312378,-0.07202157378196716,-0.22238348424434662,0.050232335925102234,0.0808313637971878,-0.027287058532238007,-0.011185433715581894,0.028603894636034966,-0.09728036820888519,0.16243749856948853,0.1952192634344101,0.10087065398693085,0.008502849377691746,0.03743225708603859,-0.4551661014556885,-0.03507595509290695,0.08917556703090668,-0.10345393419265747,-0.023629000410437584,0.07426117360591888,0.10295627266168594,-0.07346660643815994,0.1554567962884903,-0.22826409339904785,-0.1318422108888626,-0.05126437172293663,0.1717747151851654,0.07064858824014664,-0.2503717541694641,-0.3614240288734436,-0.06505738198757172,-0.018600905314087868,-0.010346041060984135,-0.35683950781822205,-0.2526269257068634,0.166462704539299,0.07002051174640656,-0.022099537774920464,0.2267993539571762,0.002188910963013768,-0.2309931218624115,-0.11888900399208069,0.08001668006181717,-0.16037710011005402,-0.33729442954063416,0.1270369589328766,-0.006396429147571325,0.2080909013748169,0.17434458434581757,0.07661062479019165,0.01815384067595005],[-0.0032833178993314505,-0.08031909912824631,-0.34911999106407166,-0.0012524855555966496,0.21108999848365784,0.12342392653226852,0.04994751513004303,-0.1218249648809433,0.18079248070716858,-0.2081565409898758,0.13822053372859955,0.18850553035736084,0.08517902344465256,-0.16197505593299866,0.0021324532572180033,-0.022607414051890373,-0.22301065921783447,-0.052647799253463745,-0.20074261724948883,0.09592439979314804,-0.0418832004070282,0.2734747529029846,0.10651931911706924,-0.2402629256248474,-0.1231185793876648,-0.11769168823957443,0.22458644211292267,0.05515940114855766,-0.013505826704204082,-0.5227046012878418,0.11553484946489334,-0.10394184291362762,0.06131424009799957,-0.12926924228668213,-0.15347923338413239,-0.01802760176360607,0.013302817940711975,0.052668944001197815,-0.07361296564340591,0.010781073942780495,0.141325443983078,0.1845855563879013,-0.2456466406583786,-0.10187717527151108,0.29352515935897827,-0.00875998567789793,-0.3022552728652954,0.3407047688961029,0.052429623901844025,0.023299550637602806,0.03506854549050331,-0.027417778968811035,-0.057679835706949234,-0.3349733054637909,0.2747657001018524,-0.306801438331604,-0.4599037766456604,0.06841882318258286,-0.08063513785600662,-0.021771270781755447,-0.2048766314983368,-0.2526021897792816,-0.2449512630701065,0.239597350358963],[0.2455693632364273,0.007194592617452145,-0.006029755342751741,-0.052034471184015274,0.02048254758119583,0.1054634302854538,-0.08730476349592209,0.041391320526599884,-0.03458601236343384,-0.2745571434497833,0.07540789246559143,0.011323373764753342,-0.31617972254753113,-0.004548819735646248,-0.09933902323246002,0.14203041791915894,0.12352623045444489,0.051998794078826904,-0.17744889855384827,0.11696226894855499,0.2075148969888687,-0.01678192988038063,-0.20245452225208282,-0.020005125552415848,0.1966351568698883,0.14712397754192352,0.1977180540561676,-0.1545621007680893,-0.27626731991767883,-0.2762899398803711,-0.46477994322776794,-0.19047734141349792,-0.044883742928504944,0.3736714720726013,0.07824753224849701,0.2317577451467514,0.036597177386283875,-0.13700994849205017,0.43363282084465027,0.21404848992824554,-0.07288237661123276,0.21232996881008148,-0.1245143935084343,0.17339617013931274,-0.11558244377374649,-0.37451234459877014,0.019261285662651062,-0.1438794583082199,0.16092179715633392,0.311119943857193,0.3221713602542877,-0.08503365516662598,-0.004794273059815168,0.36183756589889526,-0.0040523880161345005,-0.17615893483161926,-0.0038225529715418816,-0.022546567022800446,-0.13835513591766357,0.25700613856315613,0.10558062046766281,-0.02511247992515564,0.0023769200779497623,0.29997432231903076],[-0.009864388965070248,-0.14171409606933594,-0.24329602718353271,0.24411633610725403,-0.24193236231803894,0.007044873666018248,0.03953428566455841,-0.119969941675663,0.13092561066150665,-0.11908001452684402,-0.25900471210479736,-0.2282101958990097,0.12352125346660614,-0.014512765221297741,0.10612276941537857,0.08178304135799408,-0.11456441879272461,-0.1764584630727768,0.04753907024860382,0.23480083048343658,0.05987861007452011,-0.23236878216266632,0.0481286346912384,0.14873725175857544,0.11853210628032684,0.03411157801747322,0.12694017589092255,-0.028486665338277817,-0.14554758369922638,-0.24427172541618347,0.48746272921562195,-0.08404567092657089,-0.24954548478126526,-0.029461106285452843,0.10464279353618622,-0.10922949016094208,-0.09089811891317368,-0.02783964015543461,-0.3098510205745697,-0.32031315565109253,-0.42015284299850464,0.06936343014240265,-0.3726365864276886,0.2052457332611084,-0.010485614649951458,-0.07908175140619278,0.2529852092266083,-0.00853832345455885,0.058564454317092896,0.277546763420105,-0.30267608165740967,-0.08548521250486374,0.09823285043239594,-0.2598193883895874,-0.05340230464935303,0.14686614274978638,0.17703011631965637,0.21304109692573547,-0.11030362546443939,0.30511221289634705,-0.029023414477705956,-0.06617622077465057,-0.1058683767914772,0.01137122418731451],[0.10880516469478607,0.17149922251701355,-0.18372437357902527,0.012229851447045803,0.027218502014875412,-0.020298011600971222,0.13959908485412598,0.28048524260520935,-0.10727917402982712,-0.10275018960237503,0.12913641333580017,-0.28905704617500305,-0.1768178939819336,-0.15141981840133667,0.20238523185253143,0.49249258637428284,0.08426869660615921,0.28767409920692444,0.10266264528036118,0.06796537339687347,-0.5495294332504272,-0.20680958032608032,0.07520794123411179,0.005647501442581415,0.051294680684804916,0.11815211176872253,0.04915941506624222,0.12672008574008942,0.21303749084472656,-0.22569946944713593,0.1864054799079895,0.11156865209341049,0.11612232029438019,-0.04663696140050888,0.14343255758285522,0.10930409282445908,-0.31390687823295593,-0.1350022703409195,0.11718488484621048,-0.10820038616657257,0.008126894943416119,0.03057299368083477,-0.011784760281443596,0.06247805804014206,-0.04754270985722542,-0.1451331526041031,-0.11517864465713501,-0.038025107234716415,0.016331378370523453,-0.16998307406902313,-0.04274613782763481,-0.10005764663219452,0.093780018389225,-0.1343306601047516,0.28514936566352844,-0.0393233448266983,-0.016484880819916725,0.23769007623195648,0.15052270889282227,-0.05511017516255379,-0.20013687014579773,0.3063980042934418,0.32914334535598755,0.11092426627874374],[0.22602269053459167,0.001040980569086969,-0.1229686588048935,-0.17577044665813446,0.07442325353622437,-0.14020048081874847,-0.13577064871788025,-0.19151170551776886,-0.06041223555803299,0.10496725142002106,-0.03689268231391907,0.18335260450839996,0.27173635363578796,-0.22807548940181732,-0.1404975801706314,0.08320076763629913,0.1669110655784607,-0.20588862895965576,0.08322226256132126,0.3525814712047577,-0.0345635749399662,0.21912921965122223,0.004837377462536097,-0.09594178944826126,0.024037053808569908,0.2897648513317108,-0.04514716565608978,-0.10576660186052322,-0.1284904181957245,0.23163610696792603,0.4521290063858032,0.11437498778104782,-0.023319978266954422,-0.1478414684534073,0.009658362716436386,0.48621389269828796,-0.09797939658164978,-0.06821832805871964,0.04838031530380249,0.015143129043281078,0.15228460729122162,-0.3864171504974365,-0.0009196344763040543,-0.05222762003540993,-0.02724081464111805,-0.30078986287117004,0.04763226956129074,0.14083319902420044,-0.020671918988227844,0.05839226767420769,0.10492740571498871,0.03795658424496651,0.08971626311540604,0.12886564433574677,0.14570297300815582,0.057478610426187515,0.338530570268631,-0.20037683844566345,-0.2575798034667969,-0.1995757520198822,-0.04762312024831772,-0.22303509712219238,0.10392289608716965,0.09137967973947525],[-0.3468048870563507,0.5306432843208313,-0.029108814895153046,0.03027978166937828,-0.06835547834634781,-0.02312362752854824,0.08962149173021317,-0.32996881008148193,0.2805687487125397,0.04069743677973747,-0.14530573785305023,-0.1944415122270584,0.05531826242804527,-0.04642317444086075,-0.03832869231700897,-0.11285437643527985,-0.073346808552742,-0.09759292006492615,0.3040688931941986,-0.03191906586289406,0.18582552671432495,-0.032991256564855576,-0.41563940048217773,-0.3029406666755676,0.09953121840953827,0.1626673936843872,-0.03870347887277603,0.0324055552482605,0.25614026188850403,0.04626407474279404,-0.31662729382514954,-0.01817484013736248,-0.1402856856584549,-0.35552000999450684,0.12598852813243866,0.24559937417507172,0.11546234786510468,-0.051707763224840164,0.205471932888031,0.16803449392318726,-0.15579484403133392,-0.1444929540157318,-0.23874759674072266,0.04801683872938156,0.08045798540115356,0.12839068472385406,-0.021822195500135422,-0.0766463503241539,-0.11799199134111404,-0.014220504090189934,0.14780691266059875,0.024277953431010246,-0.22471989691257477,0.09507088363170624,0.05833081528544426,0.30706655979156494,-0.17695046961307526,-0.05651850998401642,0.05151209607720375,0.01657506637275219,-0.22171184420585632,0.039396658539772034,0.2919221520423889,0.19034802913665771],[-0.05284144729375839,0.10085137188434601,0.04222523793578148,0.2413083165884018,-0.045890938490629196,0.09631708264350891,0.012988327071070671,0.12269614636898041,-0.11203993111848831,0.029213696718215942,-0.1493985503911972,0.07653379440307617,-0.09303013980388641,0.49442410469055176,-0.26738953590393066,-0.08649826794862747,0.13216686248779297,0.3897925615310669,-0.08728621155023575,0.21519601345062256,0.04267430678009987,0.10191171616315842,0.10392880439758301,-0.13422733545303345,0.1893882155418396,0.10384337604045868,-0.10269112139940262,0.027269823476672173,0.2899516522884369,-0.14938533306121826,0.14140377938747406,-0.1622469574213028,-0.22837761044502258,0.05005510151386261,0.1040426716208458,0.054288122802972794,0.04341260343790054,0.12010841816663742,-0.22173774242401123,0.13214364647865295,0.16642321646213531,-0.08587653934955597,-0.12031131982803345,-0.14147959649562836,-0.07104853540658951,-0.3117332458496094,-0.03759536147117615,-0.3915351629257202,-0.29333680868148804,-0.23733603954315186,0.30748727917671204,-0.26783040165901184,0.3144509196281433,-0.06768181920051575,-0.050642892718315125,-0.09698103368282318,-0.11837327480316162,0.040887050330638885,0.06102687120437622,0.053106311708688736,-0.19847482442855835,-0.3308165967464447,-0.08407634496688843,-0.10707800835371017],[0.06752544641494751,-0.23506583273410797,9.09461232367903e-05,-0.022221464663743973,0.3106558620929718,0.1963777244091034,0.2967667877674103,-0.13211195170879364,0.16032953560352325,0.007157377898693085,0.29474517703056335,-0.0014056976651772857,0.12735441327095032,-0.12160491943359375,-0.10315421223640442,-0.05941648781299591,0.21548974514007568,-0.2464650720357895,0.1537848263978958,0.15285348892211914,0.026067012920975685,0.13357670605182648,0.06780247390270233,0.03476691618561745,-0.03688133880496025,0.0496562123298645,-0.3346792757511139,0.23734354972839355,-0.10166744142770767,0.021887173876166344,0.028934326022863388,-0.0007537634228356183,0.05665288120508194,-0.3702773451805115,0.31108734011650085,-0.0432700589299202,-0.1484311819076538,0.1880892813205719,0.056203681975603104,-0.15596170723438263,0.010613628663122654,0.13473710417747498,0.0524628721177578,0.3997040390968323,0.1574741005897522,-0.05033385753631592,-0.1686493456363678,-0.31846338510513306,0.0915139690041542,-0.04306081309914589,-0.07706152647733688,0.3800620436668396,0.4258793294429779,-0.10816667973995209,0.10478910058736801,0.07782791554927826,-0.06388701498508453,0.31481462717056274,0.27674615383148193,0.3507041037082672,0.23824256658554077,-0.07435189187526703,-0.0890359878540039,-0.23933377861976624],[-0.10015802830457687,0.19734378159046173,0.03517291322350502,0.10306201875209808,0.3411582112312317,-0.08340052515268326,-0.17362220585346222,0.11094934493303299,0.08673539757728577,0.058597296476364136,-0.18869464099407196,-0.13847507536411285,-0.05635929852724075,0.16568700969219208,-0.005146937444806099,-0.17991624772548676,-0.14186115562915802,-0.18616068363189697,-0.05843557417392731,-0.04952894151210785,-0.11775381863117218,-0.073992058634758,-0.11688413470983505,-0.1425919234752655,-0.23249705135822296,-0.07279161363840103,-0.007568893022835255,-0.19880598783493042,-0.1586923748254776,-0.32866933941841125,0.1437835991382599,-0.08134829252958298,0.19220905005931854,0.08344568312168121,-0.11820659786462784,0.31335511803627014,-0.2927940785884857,-0.008292240090668201,0.1433328092098236,-0.1159588024020195,0.1556992381811142,0.24698200821876526,0.35662734508514404,0.03714132308959961,-0.06299189478158951,-0.3085121214389801,0.23965005576610565,0.010887806303799152,-0.12275883555412292,0.026403671130537987,-0.0938892737030983,0.26709577441215515,-0.12240374833345413,-0.32350218296051025,-0.0007328505162149668,0.04430565983057022,0.08360155671834946,-0.306519091129303,0.26538223028182983,0.3319932222366333,-0.24739985167980194,-0.019157571718096733,-0.030995149165391922,-0.3047506809234619],[0.03307834267616272,0.11676324158906937,-0.1447167843580246,-0.17374683916568756,-0.2631585896015167,0.16857267916202545,-0.2361139953136444,0.028082963079214096,-0.1428878903388977,-0.1417071521282196,-0.17407482862472534,0.17064693570137024,0.053026314824819565,-0.22055977582931519,-0.2971683144569397,0.11544127762317657,-0.054823461920022964,-0.04140111058950424,-0.12877686321735382,0.04859266057610512,0.0697055533528328,-0.05182670056819916,-0.2708633542060852,-0.0943986102938652,-0.04858187958598137,-0.006889817304909229,0.199338898062706,0.31269577145576477,0.18196174502372742,-0.16279837489128113,0.028333432972431183,0.39349520206451416,0.3357550799846649,0.21286600828170776,0.154525488615036,0.1858115792274475,-0.11489178240299225,0.43369439244270325,-0.008369287475943565,0.011800569482147694,0.111286461353302,0.3567207455635071,-0.1930966079235077,-0.009296232834458351,0.006401232443749905,0.4083172082901001,-0.07220584154129028,-0.29423508048057556,-0.136265367269516,-0.0012666372349485755,0.1767195761203766,-0.08486567437648773,0.05594126507639885,0.06200048699975014,-0.08382916450500488,-0.02639363519847393,0.1907869130373001,-0.2144772857427597,-0.2370459884405136,0.005918689537793398,0.061634667217731476,0.13250409066677094,0.057521525770425797,-0.2579818665981293],[-0.0693216323852539,0.1288757473230362,-0.26285916566848755,0.18891902267932892,0.22989597916603088,-0.130154550075531,-0.15297098457813263,0.4706134498119354,-0.20737244188785553,-0.008304250426590443,0.5871353149414062,0.036927737295627594,0.053276177495718,0.026363341137766838,-0.19216018915176392,0.15483316779136658,-0.3807764947414398,-0.17342953383922577,-0.02811131626367569,-0.13655361533164978,0.17668424546718597,-0.04017038270831108,0.17274966835975647,-0.2528284192085266,0.238569438457489,-0.038682971149683,-0.018931135535240173,-0.14084886014461517,0.36529240012168884,0.19449427723884583,0.1303073763847351,0.08685486763715744,-0.128386989235878,0.05875210464000702,-0.012340124696493149,0.10746701061725616,0.2440815269947052,0.14491450786590576,0.17541919648647308,-0.005968985613435507,-0.27179357409477234,0.32201898097991943,0.029600029811263084,-0.14862491190433502,-0.18714570999145508,0.062076449394226074,-0.020285414531826973,-0.015508048236370087,0.011202351190149784,0.050593797117471695,0.08520259708166122,0.15459300577640533,-0.07089275121688843,0.13447222113609314,-0.2624230682849884,0.019986988976597786,0.11290976405143738,-0.013962878845632076,-0.07152578979730606,0.09680613875389099,-0.024353403598070145,-0.27279970049858093,0.18328535556793213,0.2809981107711792],[0.09306371212005615,0.3304961025714874,0.10923560708761215,0.09969969093799591,0.24521297216415405,0.2962680160999298,-0.1043529286980629,-0.042772527784109116,0.17415153980255127,-0.23279838263988495,0.20457978546619415,0.1158745288848877,0.15388596057891846,-0.16231758892536163,-0.01740296371281147,-0.06654315441846848,0.10322343558073044,-0.1559913158416748,-0.31166037917137146,0.2611680328845978,-0.23547977209091187,-0.3064219355583191,-0.3501054048538208,-0.007814310491085052,0.37055379152297974,-0.028193576261401176,-0.043935131281614304,-0.127627894282341,0.09618940204381943,-0.12960095703601837,-0.025339605286717415,-0.07446958124637604,0.07286591082811356,0.11625533550977707,0.012527612037956715,-0.13132134079933167,-0.0014537826646119356,0.26706117391586304,0.005210323259234428,-0.29950079321861267,-0.02294386923313141,-0.36358293890953064,0.17494770884513855,-0.01075648982077837,-0.07242220640182495,0.01924099773168564,0.08774536103010178,-0.011710621416568756,-0.11111476272344589,-0.08850504457950592,-0.18032819032669067,-0.21238619089126587,-0.18301424384117126,-0.13388127088546753,-0.13311007618904114,-0.2572232782840729,0.02974040061235428,0.07852035760879517,0.2555811107158661,-0.22466357052326202,0.2897303104400635,-0.12498663365840912,-0.09330300241708755,0.1795155555009842],[0.02879602275788784,-0.019697459414601326,-0.1669543832540512,0.09718099981546402,0.25904884934425354,0.11353778839111328,0.16634562611579895,0.06907851248979568,0.06798401474952698,0.16860948503017426,-0.12855227291584015,0.29211777448654175,-0.3125499486923218,0.04669319465756416,0.1660139262676239,-0.030856028199195862,-0.12353851646184921,0.0403490774333477,0.1002863273024559,0.3957709074020386,0.032372523099184036,0.07581116259098053,0.00382750085555017,0.2559052109718323,-0.0023492248728871346,-0.4159710705280304,0.24729613959789276,0.07877131551504135,0.20076283812522888,-0.10735352337360382,-0.021487239748239517,0.10559011995792389,0.17188715934753418,0.11459935456514359,0.09063892811536789,0.25971707701683044,0.004001264926046133,-0.0035755448043346405,-0.1636919528245926,-0.17378073930740356,-0.24824494123458862,-0.22227191925048828,-0.008165115490555763,0.17605102062225342,0.07851111888885498,-0.09398159384727478,-0.2846502959728241,0.20094484090805054,0.22898639738559723,-0.24204128980636597,0.058749329298734665,0.16438032686710358,0.008501814678311348,0.2828036844730377,-0.27383774518966675,0.1998787820339203,0.1626041680574417,0.001601963653229177,0.2118128538131714,-0.012813321314752102,-0.2775055170059204,0.1375255286693573,-0.30873197317123413,0.08118561655282974],[0.05912908911705017,0.009837377816438675,0.10996895283460617,-0.08210508525371552,-0.006598899606615305,-0.13605834543704987,-0.19814972579479218,0.2224286049604416,-0.08341672271490097,0.053117841482162476,-0.05328064411878586,-0.028838496655225754,0.26859381794929504,-0.07674071192741394,0.2656269073486328,-0.009954693727195263,0.014676550403237343,-0.11943542957305908,0.18705090880393982,0.054454606026411057,-0.016501445323228836,-0.263874351978302,0.03217986226081848,0.203843355178833,-0.19954578578472137,-0.12992683053016663,0.3068617880344391,0.2472400963306427,0.05624864622950554,-0.32628560066223145,-0.1431315839290619,-0.08667437732219696,-0.05643190070986748,-0.1963530331850052,0.3290582597255707,-0.38055938482284546,-0.2374645173549652,0.23757268488407135,-0.041025083512067795,-0.05773133039474487,-0.09574136137962341,-0.057422664016485214,0.1569506824016571,-0.06786776334047318,0.04638037085533142,-0.4059883952140808,-0.18172457814216614,-0.005788461305201054,0.03426043689250946,0.3191792666912079,0.37311145663261414,0.08360416442155838,0.0559653602540493,-0.08675738424062729,-0.28934141993522644,0.07336289435625076,-0.1698462814092636,-0.1774759739637375,-0.04800306633114815,-0.2053849846124649,0.010837925598025322,-0.3797991871833801,0.12347167730331421,0.09019702672958374],[-0.01891499012708664,-0.18254874646663666,-0.23273047804832458,-0.35869544744491577,-0.043274350464344025,0.0347466804087162,0.35155045986175537,-0.28449079394340515,-0.12504830956459045,-0.180022731423378,0.09837295114994049,-0.15130753815174103,-0.11053401231765747,0.3864460587501526,0.009131280705332756,-0.05008263513445854,-0.22085700929164886,-0.16009221971035004,0.07427501678466797,-0.011703990399837494,-0.030823063105344772,0.05682029202580452,-0.09353147447109222,0.35405364632606506,0.07852693647146225,-0.18956401944160461,0.04660600796341896,-0.09226905554533005,0.15932559967041016,-0.05115919187664986,-0.03315609693527222,-0.03677789866924286,-0.0947292223572731,-0.0340656042098999,-0.22895784676074982,0.17739993333816528,-0.3331143856048584,0.39977386593818665,-0.14069095253944397,0.003852041671052575,-0.2580711543560028,-0.009495477192103863,0.1667020320892334,0.12453458458185196,0.04883531481027603,-0.07214934378862381,0.20346444845199585,0.03240993246436119,-0.03305922821164131,0.10000421106815338,-0.14570923149585724,0.05100671947002411,0.28141337633132935,0.09706089645624161,0.16635236144065857,-0.4369988739490509,-0.1257496178150177,-0.13693735003471375,0.07610116899013519,-0.2418510466814041,-0.07116611301898956,-0.12119057774543762,0.3394295275211334,-0.03711159899830818],[0.2324615716934204,0.04244993254542351,0.1744595468044281,0.06356650590896606,-0.13088494539260864,0.21645201742649078,0.006577541120350361,0.19998839497566223,-0.07998283952474594,-0.17904135584831238,0.0727783739566803,0.09183254092931747,-0.17527130246162415,-0.0038444222882390022,0.3216862380504608,0.1841834932565689,0.24319085478782654,-0.26464352011680603,0.1451912224292755,0.21549224853515625,0.36726370453834534,-0.0010585217969492078,-0.31781435012817383,-0.11041926592588425,0.14460338652133942,-0.0075172437354922295,0.1284724920988083,0.10318070650100708,0.0148621192201972,0.3582155406475067,0.07005031406879425,-0.2793501913547516,0.0302596315741539,-0.0047116209752857685,-0.4863242208957672,-0.18056243658065796,-0.31638309359550476,-0.12210241705179214,-0.1616329699754715,-0.3055420517921448,0.04715040326118469,0.3011307716369629,-0.06929481029510498,0.07086137682199478,0.23874124884605408,-0.14952757954597473,-0.25470831990242004,-0.006680020596832037,0.07514552772045135,-0.24127556383609772,-0.09955013543367386,0.07413855940103531,0.018809828907251358,-0.2568035423755646,-0.10307498276233673,-0.1242697536945343,-0.08474642038345337,-0.10153398662805557,-0.06690171360969543,-0.00694393552839756,-0.29769042134284973,-0.1593477725982666,0.14261886477470398,-0.07458029687404633],[-0.017630351707339287,-0.013809512369334698,-0.22375601530075073,0.07276338338851929,-0.011057413183152676,0.25085771083831787,0.1667424887418747,0.0012798947282135487,0.17373739182949066,0.1532871127128601,0.04525873810052872,-0.0010962362866848707,-0.16627350449562073,-0.05413668230175972,0.19885604083538055,-0.06533107161521912,-0.041213441640138626,0.06450095772743225,0.023129111155867577,-0.09458956122398376,0.20966148376464844,0.21537646651268005,-0.15934978425502777,-0.2715553939342499,0.050879478454589844,-0.23259210586547852,0.1017356738448143,-0.012126829475164413,-0.31057751178741455,0.09849251061677933,0.407252699136734,0.05847417563199997,-0.06776444613933563,-0.06525799632072449,0.10197660326957703,0.022965820506215096,-0.1471361368894577,-0.12951526045799255,0.03341229259967804,0.20793801546096802,-0.09991975128650665,0.03831013664603233,0.2829965054988861,0.07174135744571686,-0.20589087903499603,0.13453561067581177,-0.0006326945731416345,0.09199755638837814,0.17974337935447693,0.1389097422361374,0.21783795952796936,-0.5645287036895752,0.25072816014289856,-0.17653487622737885,-0.0394558347761631,0.2957853078842163,-0.08619894087314606,-0.11669117957353592,0.34973129630088806,-0.21232916414737701,0.37655991315841675,0.009697189554572105,0.15395501255989075,-0.21585848927497864],[-0.03878454864025116,0.15486206114292145,-0.19918213784694672,-0.30604737997055054,-0.4192329943180084,-0.049124520272016525,0.01958984136581421,0.08024702966213226,0.024975361302495003,0.1202332079410553,-0.004054226912558079,-0.02548816055059433,0.05614586919546127,0.2564011812210083,0.09685399383306503,0.02258365973830223,0.21810650825500488,-0.10455276072025299,-0.04887637123465538,-0.1404270976781845,-0.13222351670265198,0.05379744991660118,0.06938187032938004,-0.037818461656570435,-0.02723768912255764,0.1343856006860733,0.0016681515844538808,-0.21811603009700775,-0.10446378588676453,0.0749131366610527,0.02085218019783497,-0.4266335964202881,-0.2003268152475357,-0.5456627011299133,0.21139739453792572,0.11107111722230911,0.05454568937420845,0.32731857895851135,0.35362157225608826,-0.1334778368473053,0.11434373259544373,0.08739966154098511,0.028457973152399063,-0.011341219767928123,-0.11005322635173798,0.14982642233371735,-0.17636413872241974,0.3757510483264923,0.18709592521190643,-0.11598896980285645,-0.008125492371618748,-0.21920432150363922,-0.06627332419157028,0.13167232275009155,-0.135244220495224,-0.05255749821662903,0.2560995817184448,0.17049841582775116,0.05928657203912735,0.057732272893190384,-0.04337368905544281,0.17570634186267853,-0.33283868432044983,-0.4357655942440033],[-0.34471967816352844,-0.019785236567258835,0.315527081489563,-0.08533574640750885,0.15255388617515564,0.1134365126490593,0.007939646020531654,-0.08926904946565628,-0.4035583436489105,-0.2744390368461609,0.2406070977449417,-0.07736869901418686,-0.07205750793218613,-0.4374229609966278,0.1055566817522049,-0.007107160985469818,-0.12937527894973755,0.21151037514209747,-0.25362396240234375,0.19950635731220245,0.19065387547016144,-0.008871500380337238,0.05813143402338028,0.14903277158737183,0.03768153861165047,-0.30511876940727234,-0.30321523547172546,0.09029404073953629,0.1435682475566864,-0.0428079329431057,-0.21073384582996368,0.011220786720514297,-0.4045271873474121,0.2634815275669098,0.02456212416291237,0.411467581987381,-0.2261071503162384,0.07830457389354706,-0.07593398541212082,0.06379178166389465,0.14206545054912567,0.2301589995622635,-0.28150954842567444,-0.010299503803253174,-0.10416173189878464,-0.19590003788471222,-0.11364591866731644,0.15541009604930878,-0.24220594763755798,0.2333451360464096,-0.03440103679895401,-0.16568078100681305,-0.31304749846458435,-0.21687930822372437,-0.36711686849594116,0.03724395111203194,0.05150545388460159,0.027421612292528152,-0.08013486862182617,-0.016962669789791107,-0.16989590227603912,-0.06938641518354416,0.021592125296592712,0.02159169130027294],[0.06503422558307648,-0.2507760226726532,-0.06026037037372589,0.019156869500875473,-0.24406059086322784,-0.3874911367893219,0.03900926932692528,-0.17832837998867035,0.1930554360151291,-0.05476805940270424,0.2817138135433197,0.026957331225275993,0.1464642882347107,0.23516517877578735,0.04729267209768295,-0.17819538712501526,0.031352605670690536,-0.20502112805843353,0.136452317237854,0.1746215522289276,0.108577199280262,-0.20099052786827087,0.0377608984708786,-0.16975727677345276,0.1812344491481781,0.008724675513803959,0.13693326711654663,0.3402346968650818,0.1936672031879425,-0.0068184384144842625,-0.09387935698032379,0.03343987837433815,-0.05828152969479561,0.2635151445865631,0.28991419076919556,0.23238378763198853,0.1752060055732727,-0.30023398995399475,0.2863977551460266,-0.24482683837413788,0.20213988423347473,0.08189211785793304,0.01934611238539219,-0.11167300492525101,-0.1203097552061081,-0.1034754142165184,0.10054227709770203,0.09216726571321487,-0.10996172577142715,-0.1385004073381424,-0.23345868289470673,-0.052366916090250015,0.2273726910352707,-0.08298122137784958,-0.010791150853037834,0.0682162195444107,-0.24572120606899261,-0.2152751386165619,0.048411205410957336,-0.2018994688987732,0.0999518632888794,0.23674334585666656,-0.19841785728931427,-0.17083530128002167],[0.26491206884384155,-0.11653728038072586,-0.27921998500823975,0.08898532390594482,0.01847698539495468,0.28124791383743286,0.1331762820482254,-0.37808501720428467,-0.30729353427886963,-0.3122866451740265,0.11907175928354263,0.24475397169589996,0.044748030602931976,-0.0236663818359375,0.18977700173854828,-0.16344760358333588,-0.08939620107412338,0.011582213453948498,0.1401376724243164,-0.1070912778377533,-0.031259335577487946,-0.1281874030828476,0.07975763082504272,-0.27973416447639465,0.16674458980560303,0.04957956448197365,-0.18964627385139465,-0.2870423495769501,-0.010857434011995792,-0.21586763858795166,-0.12078958749771118,0.21019740402698517,-0.07769327610731125,0.03654157370328903,0.11257148534059525,-0.3370790481567383,0.016723481938242912,-0.08406294882297516,-0.15895280241966248,0.004673709627240896,0.16367584466934204,0.03561791405081749,-0.0621626190841198,0.014842113479971886,0.040181051939725876,-0.17074750363826752,0.16998949646949768,0.03920121118426323,0.036910854279994965,-0.08948492258787155,0.4407660663127899,0.22789281606674194,-0.1459192931652069,-0.13336274027824402,-0.2811321020126343,-0.07756270468235016,0.3036421835422516,-0.027837451547384262,0.06271645426750183,-0.03937758132815361,-0.28522199392318726,0.20648057758808136,0.1668914556503296,-0.06529351323843002],[0.014517330564558506,-0.03672558814287186,0.15824182331562042,0.13680803775787354,-0.25400131940841675,0.09662295132875443,0.06401120871305466,0.07859402149915695,-0.1706024557352066,-0.23564660549163818,0.013698063790798187,-0.03846331685781479,-0.10107623785734177,0.07209078967571259,-0.1323910355567932,0.15899249911308289,0.2810666859149933,-0.22085896134376526,-0.06215059757232666,-0.14316895604133606,0.21070198714733124,0.06013155356049538,-0.090518519282341,0.2073623090982437,-0.2523088753223419,-0.10259811580181122,-0.2185317873954773,-0.27911651134490967,0.2576817274093628,0.029354315251111984,0.14079484343528748,0.31702762842178345,0.48101502656936646,-0.2610225975513458,0.34792131185531616,-0.06582531332969666,0.03857768326997757,-0.21750834584236145,0.1490544080734253,-0.013969163410365582,-0.1532812863588333,-0.024984871968626976,-0.07605480402708054,0.012292281724512577,0.18543660640716553,-0.03874003142118454,0.3594984710216522,0.31120553612709045,-0.07815632224082947,0.049457527697086334,0.018333686515688896,-0.18348607420921326,0.14735251665115356,-0.05888441950082779,-0.01425755675882101,-0.058433808386325836,-0.1725439876317978,-0.12633119523525238,0.20872390270233154,0.023193852975964546,-0.158639594912529,-0.13940763473510742,-0.2456265240907669,0.10629767924547195],[-0.1601584404706955,-0.05966243892908096,0.05403671786189079,-0.01457973662763834,-0.32770776748657227,0.17731551826000214,-0.25075554847717285,0.02793186716735363,-0.16062389314174652,0.30381956696510315,0.04156256094574928,0.2540077865123749,0.10557366162538528,0.2584078311920166,-0.08295851945877075,-0.1020606979727745,-0.07431527972221375,-0.2446097880601883,0.17145422101020813,0.017702557146549225,-0.2812941372394562,0.19201870262622833,-0.06776300072669983,0.11565834283828735,0.008177156560122967,0.014202427119016647,-0.3085477948188782,0.24528399109840393,-0.16261141002178192,-0.27586621046066284,0.20357577502727509,-0.12007832527160645,-0.006200732197612524,0.09476318210363388,-0.21814565360546112,-0.13122041523456573,-0.1035262942314148,-0.1353648602962494,0.5611243844032288,0.351897269487381,-0.3445892930030823,-0.08286451548337936,-0.13566051423549652,0.26639324426651,0.10352560877799988,0.06387580186128616,-0.05202370509505272,-0.048290375620126724,-0.09743980318307877,-0.23252905905246735,-0.09701859205961227,-0.00758815323933959,0.08308710157871246,-0.19697830080986023,-0.10428964346647263,0.03761420026421547,0.15922892093658447,0.014261052943766117,0.05709601193666458,-0.13015714287757874,0.04659362882375717,0.10832470655441284,-0.0541098415851593,0.20022082328796387],[0.2967979609966278,0.26607978343963623,-0.12600845098495483,-0.29338783025741577,-0.19522447884082794,-0.14499379694461823,-0.17473788559436798,0.3369266092777252,-0.23445558547973633,0.3518162965774536,0.30021390318870544,-0.13204514980316162,-0.21486018598079681,0.007733492646366358,8.002140384633094e-05,-0.3515172302722931,-0.03441014513373375,0.04138173907995224,0.02501799166202545,0.22411122918128967,0.009105341508984566,0.19636981189250946,-0.17179617285728455,-0.038232553750276566,-0.016374457627534866,0.06054891273379326,-0.16150298714637756,-0.12283172458410263,0.005347912199795246,0.17105454206466675,-0.12435205280780792,0.14747582376003265,-0.050856705754995346,0.21092718839645386,0.0949060320854187,-0.04819484427571297,0.09046744555234909,0.30137643218040466,-0.13008244335651398,0.049243781715631485,0.23158462345600128,-0.054157137870788574,-0.2755946218967438,0.168204665184021,-0.03762758895754814,0.005081309005618095,0.3274540901184082,-0.09947670996189117,0.18630492687225342,0.21365399658679962,0.06417250633239746,0.030435053631663322,-0.2540542781352997,-0.17373774945735931,0.29410460591316223,0.3060484826564789,-0.25864845514297485,0.07224396616220474,0.06278666853904724,-0.11066742241382599,-0.08611717075109482,0.07370082288980484,-0.17550674080848694,0.15369990468025208],[-0.05006611719727516,0.018726283684372902,0.13890871405601501,-0.3357972502708435,-0.11683758348226547,-0.1290668249130249,-0.10336530953645706,-0.2793332636356354,0.3801652491092682,-0.03399296849966049,0.12519414722919464,0.0638047382235527,-0.07983613014221191,0.08393314480781555,-0.0472806878387928,0.1822969913482666,0.2170073688030243,0.06532372534275055,-0.18843257427215576,-0.0997815653681755,0.08665872365236282,-0.08789081126451492,0.0466705858707428,-0.20908968150615692,-0.16004811227321625,0.16170305013656616,-0.0552988275885582,0.015528709627687931,0.4823656976222992,-0.10902787744998932,0.25716739892959595,0.01232687383890152,0.19155223667621613,0.15643168985843658,-0.3719734251499176,-0.09729044884443283,-0.14646543562412262,0.04983140528202057,-0.2685554027557373,0.09909477829933167,-0.09064931422472,-0.1217798963189125,0.008606502786278725,0.2994656264781952,-0.354114830493927,-0.2000889927148819,-0.14017941057682037,0.2616494297981262,0.16296762228012085,0.21553762257099152,0.12387871742248535,0.23486419022083282,0.147054985165596,-0.144978329539299,-0.2929220497608185,0.0372958704829216,-0.0795867070555687,0.2331041842699051,0.09146907180547714,0.14321264624595642,0.07404857873916626,0.08388183265924454,-0.024803336709737778,0.03727719560265541],[0.23255808651447296,0.03268507495522499,0.159873366355896,-0.10838177800178528,0.027224745601415634,0.08209319412708282,-0.29751816391944885,0.038162026554346085,0.13932472467422485,-0.1520705670118332,0.021586813032627106,0.23497752845287323,0.19966953992843628,-0.03397011384367943,-0.0733036994934082,-0.2681511342525482,-0.23269900679588318,0.3943251669406891,0.21596354246139526,0.0756843164563179,0.13676761090755463,-0.13268348574638367,-0.015439056791365147,0.15806174278259277,-0.3380240201950073,0.24828070402145386,-0.040245044976472855,0.26394543051719666,0.0788978561758995,0.14640717208385468,0.1785629242658615,0.05775264650583267,-0.3186798393726349,-0.21943585574626923,-0.06200183182954788,-0.02270910143852234,-0.0922052413225174,-0.09098561108112335,0.13531918823719025,-0.03178539499640465,-0.03271268680691719,0.07159300893545151,-0.13048526644706726,-0.0889895036816597,-0.05029471963644028,0.13499552011489868,0.16513091325759888,0.1078050434589386,0.28284752368927,-0.02313866652548313,-0.08546467125415802,-0.1674204170703888,-0.013306597247719765,0.2975907623767853,0.13046576082706451,-0.2560729384422302,0.052111051976680756,-0.16866251826286316,0.5851951837539673,0.24106967449188232,-0.04715855047106743,0.04713455215096474,0.018998833373188972,0.029924506321549416],[0.16730797290802002,-0.05127212405204773,0.17700408399105072,-0.10920459032058716,-0.20466867089271545,0.20851628482341766,0.075165756046772,0.027138685807585716,0.15391942858695984,-0.19251812994480133,0.11324487626552582,0.2287636548280716,-0.030126279219985008,0.017077654600143433,0.25903958082199097,-0.31399133801460266,0.2616257667541504,0.23914624750614166,0.06006278842687607,0.004882460460066795,0.07520288974046707,0.13879264891147614,0.3226766586303711,0.019716110080480576,0.3251269459724426,-0.11924277245998383,0.14547139406204224,0.12393718957901001,0.04203151538968086,-0.09437444061040878,0.18513499200344086,0.00803979393094778,0.18039843440055847,-0.16479848325252533,0.06736817210912704,0.11448382586240768,-0.12856817245483398,0.21184280514717102,0.17147080600261688,0.071766696870327,-0.33309873938560486,-0.2053341120481491,0.3710949122905731,-0.15966694056987762,-0.11820065230131149,0.1250695139169693,0.21171937882900238,-0.051367174834012985,-0.12183825671672821,-0.08326359838247299,-0.08083576709032059,0.08197522908449173,-0.25597408413887024,-0.11158894002437592,0.18665866553783417,0.21401700377464294,-0.12262874096632004,-0.0343550443649292,-0.3648461699485779,0.48842665553092957,-0.10921316593885422,-0.020231936126947403,0.06497786194086075,0.04517030343413353],[0.21531234681606293,0.16302597522735596,0.15239518880844116,-0.018590427935123444,0.07644127309322357,0.090891033411026,0.021054208278656006,0.15254998207092285,-0.06704071164131165,0.026267224922776222,-0.25194472074508667,-0.0665048286318779,0.27156832814216614,0.30072176456451416,0.02618926391005516,-0.030954474583268166,0.08574002236127853,0.15118759870529175,-0.04491569846868515,0.05875128135085106,-0.12867708504199982,0.16265739500522614,-0.07417842000722885,-0.11776594072580338,-0.15159834921360016,-0.10501576960086823,-0.05594535544514656,0.06324508786201477,-0.24718882143497467,0.2068675309419632,0.07629107683897018,0.2772570252418518,-0.07087483257055283,0.004801158327609301,-0.029963238164782524,0.13672161102294922,0.7120361328125,0.1511072963476181,0.3059024512767792,-0.20735043287277222,-0.2740371525287628,-0.21796998381614685,-0.13860128819942474,0.1885593831539154,0.07828417420387268,-0.025735244154930115,-0.10069828480482101,0.2401333600282669,-0.004041396547108889,0.19644325971603394,-0.018321095034480095,0.010117455385625362,0.16013944149017334,-0.13689342141151428,-0.1325085163116455,-0.18127399682998657,-0.24431751668453217,0.04112120345234871,-0.08484869450330734,0.094347283244133,0.03050045296549797,0.25705936551094055,0.352182537317276,-0.3765908181667328],[-0.18646401166915894,-0.0008220254676416516,0.06547586619853973,-0.31972751021385193,0.008887476287782192,0.045315828174352646,0.014399738050997257,0.11711962521076202,-0.02368399314582348,-0.21531181037425995,-0.05777451768517494,0.13719876110553741,-0.2455553561449051,-0.20243942737579346,0.05427965149283409,0.17703643441200256,-0.03959799185395241,0.028274595737457275,0.02199380099773407,0.26351049542427063,0.0015091499080881476,-0.33169323205947876,-0.08040208369493484,-0.24660798907279968,0.09991895407438278,-0.0066811516880989075,-0.14210990071296692,-0.04880978912115097,-0.12660543620586395,0.08370949327945709,0.1904127448797226,-0.10912929475307465,-0.17930543422698975,0.370286762714386,0.29068559408187866,-0.09781428426504135,-0.018230637535452843,-0.0825771912932396,-0.13161484897136688,0.2319691926240921,-0.45971164107322693,0.11053797602653503,0.0658235102891922,-0.32396000623703003,0.0565144307911396,0.015908489003777504,-0.10192949324846268,0.1030476912856102,-0.2701084315776825,0.11958848685026169,0.1941840797662735,0.5455620288848877,-0.09790841490030289,0.01118575781583786,0.2803788185119629,-0.19058293104171753,-0.1371777206659317,0.053488731384277344,0.1532205194234848,-0.2212144434452057,-0.1360311657190323,-0.11868567764759064,-0.24049216508865356,-0.20708858966827393],[-0.03748943284153938,0.019290387630462646,0.4330776333808899,-0.011086693033576012,-0.16056083142757416,-0.0481267124414444,0.17950108647346497,0.1825515478849411,-0.12996292114257812,0.18672946095466614,0.0004353424592409283,-0.05864952132105827,0.3015504479408264,0.23740503191947937,0.041617296636104584,0.17096252739429474,-0.04958231747150421,-0.09841964393854141,-0.4189019501209259,0.03443571552634239,0.11847399175167084,0.3400592505931854,-0.14859962463378906,0.024941621348261833,0.16410498321056366,0.07012537121772766,0.14725060760974884,0.13066023588180542,-0.1309618353843689,-0.17080707848072052,-0.0054945857264101505,0.12316153943538666,-0.16830861568450928,-0.38248157501220703,0.10199559479951859,0.2025422751903534,0.12146217375993729,-0.16418056190013885,-0.2638951241970062,-0.03773803263902664,-0.017418615520000458,0.14493823051452637,-0.07709328830242157,-0.009519699960947037,-0.31224626302719116,0.10353285819292068,0.14764182269573212,0.008170779794454575,0.04374055936932564,-0.21401773393154144,0.2933216392993927,0.2935982644557953,-0.19386544823646545,-0.00796857662498951,0.17935243248939514,-0.10192500054836273,0.0934152603149414,-0.1872536540031433,0.16580161452293396,-0.06873173266649246,0.2900359630584717,0.33777502179145813,0.020010408014059067,0.24797017872333527],[0.08224377781152725,-0.12109451740980148,0.13568495213985443,-0.13945256173610687,-0.03379978984594345,-0.0010754918912425637,0.11323818564414978,0.21901735663414001,-0.15186946094036102,0.1259491741657257,-0.16409331560134888,-0.012391818687319756,-0.09664152562618256,0.0012304382398724556,0.21715715527534485,0.019837623462080956,-0.2610630691051483,0.12281295657157898,-0.15157337486743927,0.30921560525894165,0.03462843596935272,-0.28900203108787537,-0.0197676382958889,-0.10133826732635498,0.09051667898893356,0.13695593178272247,-0.15790453553199768,-0.03075227327644825,0.01031146664172411,-0.06577809900045395,0.02640317939221859,-0.22293859720230103,0.14217299222946167,-0.23570476472377777,-0.04516946151852608,0.2705398201942444,0.18392549455165863,-0.16550858318805695,0.27148184180259705,0.22273075580596924,0.5122151970863342,-0.14425908029079437,-0.03056776337325573,-0.06510548293590546,0.05122166499495506,0.6234832406044006,0.29695549607276917,0.03052128478884697,-0.0035708677023649216,0.22055739164352417,0.0619271881878376,0.18510442972183228,0.2367747575044632,0.09208127856254578,-0.3816080689430237,0.08502347022294998,-0.15372206270694733,0.08733151853084564,-0.0519883930683136,-0.004254993516951799,0.030897310003638268,-0.11975334584712982,0.19898129999637604,0.20047743618488312],[-0.1197534129023552,-0.19434678554534912,-0.01723363995552063,0.22275091707706451,-0.022091777995228767,0.03202192112803459,0.23364603519439697,-0.11685746163129807,-0.1926744431257248,-0.10935568809509277,-0.017530202865600586,-0.04849079251289368,0.26027166843414307,0.0008824733085930347,0.13953937590122223,0.16213643550872803,-0.3679642081260681,0.012371866963803768,-0.21879741549491882,0.03279119357466698,-0.007309704553335905,0.048016373068094254,-0.2902092933654785,-0.07607696950435638,-0.32332631945610046,0.09485416859388351,-0.02720746211707592,0.15934017300605774,0.07925266027450562,0.31734633445739746,-0.051033031195402145,-0.09633547067642212,0.10867004096508026,0.07266519963741302,-0.10333766788244247,-0.05030503496527672,-0.29852011799812317,0.23650828003883362,0.30254748463630676,-0.06143724545836449,-0.1798608899116516,-0.33330246806144714,0.08935841917991638,-0.362519234418869,0.0009049098589457572,-0.26073193550109863,0.14497973024845123,-0.005063216667622328,0.3289410471916199,-0.17510974407196045,0.20699051022529602,-0.03858952224254608,0.18315093219280243,-0.1869320422410965,0.13231611251831055,0.15924501419067383,-0.04502193257212639,0.22971488535404205,-0.15799348056316376,0.1765790730714798,0.05525610223412514,0.15080037713050842,-0.28432872891426086,-0.08650458604097366],[-0.25181734561920166,0.00443493714556098,0.34106960892677307,-0.07020218670368195,0.18418605625629425,0.005953618325293064,-0.20669984817504883,-0.3155522048473358,-0.09316670149564743,0.045433927327394485,0.3327605128288269,-0.024626191705465317,0.2823062539100647,0.2829591929912567,0.09511102735996246,-0.06581941992044449,-0.09474462270736694,0.3310692310333252,0.09282030165195465,0.13172312080860138,0.071757972240448,-0.1417405754327774,-0.24549676477909088,0.12315230071544647,0.15638495981693268,0.07789920270442963,0.20192570984363556,-0.38165655732154846,-0.24781166017055511,-0.033386800438165665,0.18435513973236084,-0.12226619571447372,0.398176372051239,0.029309706762433052,0.20605400204658508,-0.13180531561374664,0.04722648113965988,0.16504836082458496,-0.1256992667913437,0.014969868585467339,-0.04152042791247368,0.2376532256603241,0.002955956384539604,-0.000303855660604313,0.06082702800631523,0.06444492191076279,-0.2151828110218048,0.108387291431427,0.13717782497406006,-0.05487055703997612,-0.12421742081642151,-0.051816195249557495,0.42034128308296204,-0.03477412834763527,0.1710062026977539,0.21548344194889069,0.1181277483701706,0.019797340035438538,-0.0842166617512703,-0.005085274577140808,-0.2559569180011749,0.1161547526717186,0.013201511465013027,0.0907435491681099],[-0.05452992767095566,-0.3183930814266205,0.00027025205781683326,-0.12358099967241287,0.2284839153289795,-0.048062413930892944,-0.026824330911040306,-0.2456919550895691,-0.32895007729530334,0.02303670160472393,-0.20347274839878082,-0.045405399054288864,-0.10122840851545334,-0.1637498289346695,-0.32332760095596313,-0.021340753883123398,0.0549091175198555,-0.24020563066005707,-0.02182699553668499,0.2256643921136856,0.05158407986164093,-0.16949960589408875,0.29332250356674194,-0.12713849544525146,0.22200748324394226,-0.020165616646409035,0.10323852300643921,-0.08365194499492645,-0.16377563774585724,-0.06405837833881378,0.2819240093231201,-0.07407599687576294,0.19641205668449402,0.007921679876744747,-0.1359296441078186,-0.2553083002567291,-0.3869713544845581,0.25748127698898315,-0.055401161313056946,-0.23529668152332306,-0.1610320806503296,0.1648048311471939,-0.09931561350822449,-0.19340960681438446,0.03948394954204559,-0.3163822889328003,-0.07692338526248932,0.03087203949689865,-0.046648044139146805,-0.21183618903160095,0.023886462673544884,-0.10353091359138489,-0.24076209962368011,0.20816782116889954,-0.2810317575931549,0.07318803668022156,-0.6525508761405945,0.10765675455331802,0.2724699079990387,0.0673731192946434,-0.06205232813954353,0.29580754041671753,0.1667443811893463,0.11067943274974823]],"b":[0.011667462065815926,-0.005334042012691498,0.00011218467989237979,0.0020613023079931736,-0.019310560077428818,0.014582083560526371,0.0401478111743927,-0.00766340084373951,-0.02592088095843792,-0.015364464372396469,0.004624130669981241,-0.013459351845085621,-0.0005848478758707643,0.008491400629281998,-0.009128814563155174,0.01578492857515812,-0.004493617918342352,0.02048404887318611,-0.014102679677307606,0.00030538206920027733,0.011364075355231762,0.01046991627663374,0.031405188143253326,-0.005542974919080734,0.008656012825667858,0.011227493174374104,-0.004221795592457056,-0.004714848008006811,0.018344959244132042,-0.007950318045914173,0.012820296920835972,-0.005118032451719046,-0.009827842004597187,0.002865204121917486,-0.0022043948993086815,-0.009060547687113285,-0.03159080073237419,0.004692534450441599,-0.0009232271113432944,-0.02531231753528118,-0.0026720494497567415,-0.0021966914646327496,0.007084455341100693,0.024120008572936058,0.010752788744866848,0.014600024558603764,0.002053470816463232,0.027478568255901337,0.031012119725346565,0.026880186051130295,0.021362558007240295,0.003736641025170684,0.008312505669891834,0.003546898253262043,0.028960147872567177,0.0038617888931185007,0.009556766599416733,-0.006311166100203991,-0.0021001817658543587,-0.0011760285124182701,0.0022599701769649982,-0.01252414844930172,-0.0005909579922445118,0.0059450240805745125],"act":"tanh"},{"W":[[0.003614390967413783,-0.042766015976667404,0.1376458704471588,-0.018658997491002083,0.042494211345911026,-0.022309383377432823,0.025755513459444046,-0.11325225979089737,-0.024966243654489517,0.0016270901542156935,0.006380538921803236,-0.057788241654634476,-0.026506109163165092,-0.10085877776145935,0.06657432019710541,0.09996140748262405,0.006155302282422781,-0.08772344142198563,0.0680427998304367,-0.04589713737368584,0.09265327453613281,0.069083571434021,0.03963666781783104,-0.004512406885623932,-0.010284808464348316,0.03421222046017647,0.02688085474073887,-0.12147284299135208,-0.08524143695831299,-0.06311409920454025,0.01670754887163639,-0.09348820894956589,0.0973273366689682,0.016662711277604103,0.0019736899994313717,-0.06204044073820114,-0.03739326447248459,0.1268741488456726,0.031207021325826645,-0.05868972837924957,-0.12086865305900574,-0.007255693431943655,0.022760825231671333,-0.00438338378444314,0.04765787720680237,0.028712183237075806,0.0648253932595253,0.09452899545431137,-0.15150070190429688,0.018617291003465652,-0.019494708627462387,0.03474022075533867,0.05979648604989052,-0.09165655076503754,0.018931033089756966,0.028956957161426544,0.05535675957798958,0.04273536801338196,-0.0726996585726738,-0.023967396467924118,-0.08549769222736359,0.06491977721452713,0.0402785949409008,0.04118496552109718],[0.051743701100349426,-0.033712610602378845,-0.05068609118461609,-0.16536766290664673,-0.04613608121871948,0.11122871190309525,-0.05601448565721512,-0.01193722803145647,-0.10547640174627304,-0.0429733507335186,0.09595667570829391,-0.051910173147916794,-0.018612369894981384,