{"tier":3,"obs_dim":5,"act_dim":2,"layers":[{"W":[[-0.0014893299667164683,-0.07009577006101608,-0.38234081864356995,-0.03082737699151039,0.2835927903652191],[0.29792147874832153,0.2837079167366028,0.09939594566822052,-0.16051837801933289,0.38468658924102783],[0.27861109375953674,0.11321971565485,-0.06928616762161255,-0.2289901077747345,-0.4944353997707367],[0.1927950233221054,0.0787387415766716,-0.1904272437095642,0.06720925867557526,0.013628926128149033],[0.18976286053657532,-0.02014291100203991,-0.03594445064663887,-0.4353969991207123,0.06882944703102112],[-0.03660888597369194,-0.025224946439266205,0.1382897049188614,-0.5233483910560608,-0.26734495162963867],[0.32295045256614685,0.2372758984565735,-0.027321795001626015,0.1303841769695282,0.07893294095993042],[0.037687432020902634,0.2552446722984314,-0.22594834864139557,-0.08439219743013382,0.12114335596561432],[0.015194463543593884,0.1996459662914276,0.08740321546792984,-0.16728779673576355,-0.11498253792524338],[-0.14395280182361603,0.16722619533538818,-0.001959792338311672,0.10004787892103195,0.32932746410369873],[-0.08956179767847061,-0.13394178450107574,0.03331500664353371,0.19357946515083313,0.12216180562973022],[0.053865231573581696,0.20096871256828308,-0.16473327577114105,0.05289808288216591,0.06819002330303192],[0.08183011412620544,-0.17227332293987274,0.0075299181044101715,-0.0636991485953331,-0.0094031672924757],[0.17828382551670074,-0.07674694806337357,-0.32148846983909607,-0.24152296781539917,0.2012595236301422],[-0.14669333398342133,-0.16035601496696472,0.1378723382949829,-0.013292215764522552,0.2908177375793457],[0.14496056735515594,0.19438078999519348,-0.16773618757724762,-0.19668318331241608,0.06616174429655075],[0.05221366882324219,0.09509091079235077,0.22092320024967194,0.08988124877214432,-0.08001618087291718],[0.05244706943631172,-0.04064386710524559,0.1785779893398285,-0.17581093311309814,0.07135945558547974],[0.024503065273165703,-0.06824582070112228,0.36187484860420227,-0.11753091961145401,-0.2590482831001282],[-0.12971432507038116,-0.4401954114437103,-0.10278856009244919,-0.1154770478606224,0.19256067276000977],[-0.44404593110084534,0.12816031277179718,-0.276590496301651,0.08985159546136856,0.08817432075738907],[0.11816181242465973,0.4062279164791107,0.16369543969631195,-0.3752129375934601,0.3832662105560303],[0.056740306317806244,0.06993262469768524,0.01877269521355629,-0.18208704888820648,0.11355993896722794],[-0.32592207193374634,-0.1100311353802681,0.11490024626255035,0.134130597114563,-0.1426205039024353],[-0.06550323218107224,-0.12284927070140839,-0.17224209010601044,0.18111048638820648,-0.25127923488616943],[-0.2800290882587433,0.050333499908447266,-0.09138951450586319,-0.04767836257815361,0.10163580626249313],[0.07350558787584305,-0.05362827703356743,-0.06690582633018494,0.1463463306427002,-0.05877283215522766],[-0.000614459568168968,0.012693120166659355,-0.10319408774375916,-0.1243092492222786,0.04603010043501854],[-0.2524811923503876,0.10915762931108475,0.287942111492157,0.2002629041671753,-0.2663724422454834],[0.20913200080394745,-0.015050617046654224,-0.035324592143297195,0.038902901113033295,-0.28808292746543884],[0.07401572912931442,0.19795754551887512,0.13680613040924072,-0.1690002679824829,0.1793922781944275],[-0.09537907689809799,-0.09609326720237732,-0.1932913213968277,-0.15852615237236023,0.284392386674881],[-0.04240680858492851,0.1702134907245636,-0.10948282480239868,0.3441685736179352,0.04084361717104912],[-0.1391596794128418,-0.07425061613321304,0.3005640208721161,-0.006229102145880461,0.13677553832530975],[0.09338125586509705,-0.19835324585437775,0.08103520423173904,0.25662046670913696,0.18257121741771698],[-0.033939432352781296,0.11487147212028503,-0.05151527747511864,0.23183585703372955,0.04686044901609421],[0.42305007576942444,0.32644498348236084,0.042630862444639206,0.001331547275185585,-0.24272210896015167],[-0.10285365581512451,-0.04632312431931496,0.2074761539697647,-0.11937152594327927,-0.0032562657725065947],[0.27236199378967285,-0.14706696569919586,-0.0574069619178772,-0.04998048394918442,-0.1306362748146057],[-0.3861193060874939,-0.08324047178030014,0.14773118495941162,-0.42606112360954285,-0.18756547570228577],[0.09458797425031662,-0.40245863795280457,0.2922784984111786,0.21753764152526855,0.11864009499549866],[-0.21250364184379578,-0.07664614915847778,-0.27107319235801697,0.15348376333713531,-0.1804807335138321],[0.34369751811027527,-0.12474384903907776,0.14526551961898804,0.2575392723083496,0.04812530055642128],[0.0929950475692749,-0.36519792675971985,0.0009854946983978152,0.07293665409088135,-0.1528695821762085],[0.2550411820411682,0.051322564482688904,0.18820229172706604,-0.058346621692180634,0.06488081067800522],[-0.07624378800392151,-0.2117576003074646,-0.12320127338171005,0.4560812711715698,-0.06744188815355301],[0.013775831088423729,-0.2095780372619629,0.20667527616024017,-0.05814341455698013,-0.04060017317533493],[-0.12315381318330765,0.3266153037548065,0.01145671121776104,0.055600326508283615,-0.18684124946594238],[-0.3771815299987793,0.05206571891903877,-0.343927264213562,-0.2565237283706665,0.09632056951522827],[0.14253073930740356,-0.4249214231967926,-0.23856104910373688,0.11781042069196701,0.2698712944984436],[0.11272493004798889,-0.071872778236866,-0.43466508388519287,-0.10729476809501648,0.19458481669425964],[-0.08917085826396942,0.28436821699142456,-0.020734084770083427,-0.05959413945674896,0.3408980667591095],[0.031063180416822433,0.03928382694721222,0.3667663335800171,0.1727716624736786,-0.07355514168739319],[-0.02275991067290306,-0.004949490074068308,0.10073143243789673,0.1580054610967636,0.2443270981311798],[0.41616177558898926,-0.4052555561065674,-0.07525864988565445,-0.007712785620242357,-0.06476800888776779],[0.1387423574924469,-0.01571975089609623,-0.2770134210586548,0.16142039000988007,0.14611725509166718],[-0.12273654341697693,0.04698272421956062,-0.30537575483322144,-0.08077128976583481,0.18492044508457184],[0.24807746708393097,-0.0072715310379862785,-0.09422922879457474,0.181721493601799,-0.21926242113113403],[-0.35888200998306274,0.21240557730197906,-0.30149462819099426,-0.07872672379016876,0.06625203788280487],[0.14676129817962646,0.20720864832401276,-0.30367401242256165,-0.1012330874800682,-0.32560721039772034],[0.1400848776102066,0.2593107223510742,0.10064266622066498,0.29607975482940674,0.12435366958379745],[-0.1957314908504486,0.00592023553326726,-0.21985630691051483,0.18883287906646729,0.14174695312976837],[0.024466518312692642,0.1747751384973526,0.23534885048866272,0.07644610852003098,0.0011358775664120913],[0.012480196543037891,-0.24327804148197174,-0.0037698193918913603,-0.008036893792450428,0.19954784214496613]],"b":[0.02757241204380989,0.025470206514000893,-0.012089598923921585,0.02872915379703045,0.016574416309595108,-0.022542687132954597,0.01169648114591837,0.016486411914229393,-0.0031334874220192432,0.024067463353276253,0.005126329604536295,0.012590134516358376,0.0009608372929506004,0.03556316718459129,0.01218803133815527,0.014691239222884178,-0.028272878378629684,-0.018511300906538963,-0.016622208058834076,0.009040412493050098,0.015837449580430984,0.001368572935461998,-0.0069093769416213036,-0.010544044896960258,-0.0010240451665595174,-0.00828725378960371,0.01909148506820202,-0.003551905509084463,-0.03822503611445427,-0.013231158256530762,0.01080049853771925,0.02326981909573078,0.003471297211945057,-0.01841103658080101,0.009215815924108028,0.016469532623887062,0.002821094123646617,-0.025636855512857437,0.0160837322473526,-0.040373582392930984,0.0032332218252122402,0.009056741371750832,0.03363632783293724,-0.001576835522428155,0.00977562740445137,-0.0039213793352246284,-0.024463742971420288,-0.028177743777632713,-0.0047301314771175385,0.02090824395418167,0.028058160096406937,0.023101769387722015,-0.020805826410651207,0.023536428809165955,0.0181780606508255,0.025367096066474915,0.02365610934793949,-0.01599190942943096,0.018232306465506554,-0.002588068600744009,-0.0048231217078864574,0.01482306607067585,-0.018222006037831306,0.023619208484888077],"act":"tanh"},{"W":[[0.1323118507862091,0.3394855856895447,-0.016644075512886047,0.04790706932544708,-0.21427838504314423,0.06210384517908096,0.028127484023571014,0.007694575469940901,0.14374816417694092,-0.010926562361419201,0.07516829669475555,0.19594448804855347,-0.3199623227119446,-0.06553018093109131,-0.11189786344766617,-0.1382780224084854,-0.01011741440743208,0.2309630662202835,0.13378261029720306,-0.04326013848185539,-0.3918609619140625,0.21205049753189087,0.22590500116348267,0.19102181494235992,0.12861031293869019,-0.28382793068885803,-0.1188981831073761,-0.09020110219717026,0.16276876628398895,-0.26301655173301697,0.24639269709587097,0.05345788970589638,0.2924935817718506,0.1257651150226593,-0.234255850315094,0.4109629988670349,0.14267666637897491,-0.11508001387119293,-0.08734305202960968,0.05456797406077385,-0.012540594674646854,0.1969839185476303,0.05221135541796684,-0.08885021507740021,-0.044413331896066666,-0.11930333077907562,-0.08346796035766602,-0.08889437466859818,0.10532032698392868,-0.2213398516178131,-0.11180936545133591,-0.3253316581249237,0.07665789127349854,0.17289847135543823,-0.1468358188867569,-0.2433444708585739,-0.2886553704738617,0.10805899649858475,0.24080149829387665,-0.013065590523183346,-0.288735568523407,-0.06316185742616653,-0.05560259148478508,0.15011723339557648],[-0.10886816680431366,-0.1197189912199974,-0.09606269747018814,0.32020866870880127,-0.16074031591415405,-0.032513201236724854,0.13080373406410217,-0.05350190028548241,0.33545801043510437,-0.11528287082910538,-0.3671528995037079,-0.014758649282157421,-0.24343639612197876,-0.10679043084383011,0.10417501628398895,0.09734880179166794,0.056368861347436905,0.24329873919487,-0.18440786004066467,-0.03719468042254448,0.008333638310432434,0.2920967638492584,-0.15629686415195465,-0.14514485001564026,-0.0057041640393435955,-0.34408995509147644,0.10425124317407608,0.2784639298915863,0.2388467937707901,0.13228382170200348,-0.06395144015550613,-0.03499903157353401,-0.25401774048805237,-0.3335774540901184,-0.2957913875579834,-0.2654861807823181,0.14637742936611176,-0.02044404111802578,-0.20240382850170135,-0.10760410875082016,0.15451665222644806,0.04461348056793213,-0.16654373705387115,-0.22172823548316956,0.2629207372665405,-0.10627985000610352,0.0024689538404345512,-0.10832394659519196,-0.2291722148656845,0.011883442290127277,-0.02931096777319908,-0.09764011949300766,-0.14392776787281036,0.0760166347026825,-0.20839986205101013,0.16769929230213165,-0.12120973318815231,0.12425145506858826,-0.17426195740699768,0.07167965918779373,0.13789215683937073,-0.04728955030441284,-0.3821219801902771,-0.05557379871606827],[-0.3728412091732025,-0.2106867879629135,0.32986748218536377,-0.07566307485103607,-0.061470307409763336,-0.12510570883750916,-0.27576807141304016,-0.11734917014837265,0.0569143146276474,0.15868794918060303,0.11315641552209854,-0.014734935946762562,-0.1857830286026001,0.3904116153717041,-0.10718238353729248,-0.029252586886286736,-0.1393454670906067,0.06014085188508034,0.20540007948875427,0.05013337731361389,0.157331645488739,0.3052467703819275,0.1023358479142189,-0.09531226754188538,0.20037825405597687,-0.19764991104602814,-0.12385289371013641,0.06530416011810303,0.032799236476421356,0.12747156620025635,-0.02094232849776745,0.23307129740715027,0.15023483335971832,-0.1582518219947815,0.049913108348846436,-0.28965163230895996,-0.010151417925953865,-0.004880421794950962,0.17176605761051178,0.12323474884033203,0.025055453181266785,0.155854269862175,0.17030131816864014,0.1419750601053238,0.21229805052280426,0.14345571398735046,0.2977306842803955,-0.0014224961632862687,0.30221444368362427,0.30613479018211365,-0.2432498037815094,-0.1592274159193039,0.27553561329841614,0.09676973521709442,0.18817350268363953,0.06389497965574265,0.04267045110464096,0.05196208879351616,-0.18492405116558075,-0.33154523372650146,-0.2602469325065613,-0.0053365398198366165,-0.027329731732606888,0.08240974694490433],[0.18788056075572968,0.19340354204177856,-0.12384294718503952,0.06261342018842697,0.43221890926361084,0.09543385356664658,-0.0639878436923027,-0.17467525601387024,-0.1455242782831192,0.09023658186197281,-0.08967515826225281,-0.2188708782196045,0.12262137979269028,-0.0011416171910241246,-0.11974236369132996,-0.3388526737689972,-0.01045602560043335,-0.08559860289096832,0.05304807052016258,0.29780372977256775,0.11766067147254944,0.0692022293806076,-0.04806473106145859,0.3840741515159607,0.21249006688594818,0.07241500914096832,-0.0066688829101622105,0.15276369452476501,0.34411492943763733,0.06131672114133835,0.2644716203212738,-0.3876652121543884,-0.17146168649196625,0.034302905201911926,0.144522562623024,-0.22806020081043243,0.22981062531471252,-0.1328115463256836,-0.15428024530410767,0.17779603600502014,-0.035322405397892,0.12990018725395203,-0.1959276646375656,0.021712474524974823,-0.1942894011735916,0.14190299808979034,0.09622436761856079,-0.373227596282959,0.0732649564743042,-0.013298294506967068,-0.07398883998394012,-0.248821422457695,0.2092076987028122,-0.02751285769045353,0.20696690678596497,0.006293853744864464,-0.17889796197414398,-0.1611383557319641,-0.1543901115655899,-0.10243654251098633,0.09964954107999802,0.049395885318517685,-0.16750667989253998,-0.1408609002828598],[0.07957922667264938,0.31693363189697266,0.32647621631622314,-0.09794554114341736,-0.09165509045124054,-0.2317388355731964,-0.19812576472759247,0.07870624959468842,0.22529888153076172,0.398450642824173,-0.0324111133813858,0.016901032999157906,0.09180623292922974,-0.00822334922850132,-0.1577397882938385,-0.06920424103736877,-0.21376599371433258,-0.17034168541431427,-0.22552669048309326,0.007640089374035597,-0.35956114530563354,0.11478850245475769,0.10659082978963852,-0.08450542390346527,0.10143326222896576,-0.05812101811170578,-0.1297614723443985,0.05822572857141495,0.03989377245306969,0.18588505685329437,0.4535718262195587,0.07403860986232758,-0.14356061816215515,0.08094815909862518,0.09891382604837418,-0.039445970207452774,0.23410971462726593,0.17835192382335663,-0.04185892641544342,-0.2636374533176422,-0.007394745480269194,-0.1116700991988182,-0.022231755778193474,-0.1427590698003769,0.07161897420883179,-0.3371291756629944,-0.20622745156288147,0.3110099732875824,-0.09452459216117859,0.2030191272497177,-0.02350214123725891,0.2055656462907791,-0.020696379244327545,-0.2790050506591797,0.07343416661024094,0.3163641095161438,-0.19645032286643982,0.028932195156812668,0.12458324432373047,-0.017242595553398132,0.15294092893600464,-0.03389113023877144,0.0909881591796875,-0.3286118507385254],[0.03200443834066391,-0.04890516400337219,-0.21770189702510834,0.10244997590780258,0.09055505692958832,0.10173720121383667,0.0012329233577474952,0.21912744641304016,-0.17369316518306732,-0.18043193221092224,-0.04732190817594528,0.13781142234802246,0.19831472635269165,0.023567263036966324,-0.16130182147026062,0.3613257110118866,0.022603457793593407,-0.2149573713541031,0.015629349276423454,0.28493356704711914,-0.04535067453980446,0.2365402728319168,0.16415677964687347,-0.04594771936535835,-0.3674564063549042,0.10317269712686539,-0.16693367063999176,0.22481200098991394,-0.06591922789812088,0.30968376994132996,-0.06891223043203354,0.18655192852020264,0.05533255264163017,-0.07656339555978775,0.27346593141555786,0.2960287928581238,0.18677979707717896,-0.2611583173274994,-0.054701343178749084,0.05824426934123039,0.07398758083581924,0.1908155232667923,-0.016485746949911118,-0.12372384965419769,0.041245006024837494,0.08059815317392349,-0.16002702713012695,0.05342300608754158,0.23757371306419373,0.12232815474271774,0.03191809728741646,0.24972406029701233,-0.11160092800855637,0.163750559091568,0.36991456151008606,0.2872273027896881,-0.306890070438385,0.11019247770309448,0.16513961553573608,0.10413479804992676,-0.10282113403081894,-0.12139269709587097,-0.3061652183532715,0.2514229416847229],[0.13192139565944672,0.10113905370235443,0.29281720519065857,0.016796758398413658,-0.2008213996887207,0.007284068502485752,0.02342621237039566,0.35555291175842285,-0.1870644986629486,-0.08239467442035675,0.02334105595946312,0.22205762565135956,-0.07122016698122025,-0.20641322433948517,-0.09646812081336975,0.27458450198173523,-0.20337490737438202,0.022664757445454597,0.12593762576580048,-0.0011659322772175074,0.030389506369829178,0.010341394692659378,0.08419794589281082,-0.014203013852238655,-0.03940878435969353,0.2050776183605194,-0.3080894649028778,0.4074070453643799,0.296329528093338,-0.02762095257639885,-0.01647517830133438,-0.20493149757385254,-0.21150745451450348,-0.0599505715072155,0.016941474750638008,-0.15789327025413513,0.029719153419137,0.16813552379608154,-0.4541383683681488,-0.14099439978599548,-0.1138555109500885,0.07980171591043472,-0.04169127345085144,-0.21977123618125916,0.06983097642660141,-0.020136207342147827,0.43718981742858887,-0.016033712774515152,0.12013650685548782,0.04879559203982353,0.16813760995864868,0.13695724308490753,0.007204784080386162,-0.10648767650127411,-0.2545674741268158,-0.1838250756263733,0.12290626019239426,-0.3053925335407257,0.04649006575345993,0.10337885469198227,-0.28013187646865845,0.0696193054318428,0.3104501962661743,0.17603018879890442],[0.049578338861465454,-0.16065625846385956,-0.1314520537853241,0.18716493248939514,-0.008662390522658825,-0.12348750233650208,-0.0359383225440979,0.40837305784225464,-0.01525792945176363,0.2755720019340515,0.24150365591049194,0.05859478935599327,-0.05628319829702377,-0.12028522789478302,0.24256372451782227,0.07988597452640533,-0.02187163196504116,-0.11419785022735596,0.09390520304441452,-0.09234699606895447,0.1649724543094635,-0.12971220910549164,0.28126096725463867,0.1623278707265854,0.13345003128051758,0.04903978109359741,-0.12057768553495407,0.2804678678512573,-0.060983240604400635,0.10204014182090759,0.14221511781215668,-0.09830255061388016,0.3838046193122864,-0.10862989723682404,0.021627865731716156,-0.1343262791633606,-0.09625569730997086,-0.43196341395378113,0.18245258927345276,-0.016867514699697495,0.27055954933166504,0.05842549726366997,-0.27330318093299866,0.09636957943439484,-0.015327689237892628,0.25985655188560486,-0.07422933727502823,0.27433112263679504,-0.3671625256538391,0.05050034075975418,0.3431033194065094,-0.27930501103401184,0.21214589476585388,0.13288021087646484,-0.19096589088439941,0.11702505499124527,-0.009500470012426376,0.08867532759904861,0.06349111348390579,-0.07682362198829651,0.08355716615915298,-0.0030313062015920877,0.067928247153759,-0.1402415782213211],[-0.21300241351127625,-0.056450508534908295,0.01515512727200985,0.2898005247116089,-0.1406279355287552,0.05776341259479523,0.2005099356174469,-0.20272891223430634,0.2554405629634857,0.16940002143383026,0.18141107261180878,-0.3215496242046356,0.21178466081619263,0.2777572572231293,0.08183019608259201,0.01035692635923624,0.06628964841365814,-0.23451147973537445,0.23250119388103485,0.29108408093452454,-0.11360720545053482,-0.002869641175493598,-0.03980123996734619,-0.14265982806682587,-0.34117183089256287,-0.04414678364992142,-0.1701512485742569,0.14030052721500397,0.19773726165294647,-0.10051727294921875,0.1277730017900467,-0.31986722350120544,-0.10483468323945999,-0.0015859970590099692,-0.19494235515594482,-0.008038459345698357,-0.05882232263684273,-0.3054087162017822,0.03449191525578499,-0.08794866502285004,-0.04242170229554176,-0.4233424663543701,0.08671613037586212,0.22355927526950836,0.02517816238105297,-0.20213571190834045,0.25519630312919617,0.10449982434511185,0.06972194463014603,-0.32597073912620544,-0.0829579308629036,0.07612214237451553,0.07578308135271072,-0.10805277526378632,-0.10221023112535477,-0.06460797786712646,-0.26704323291778564,0.21047867834568024,0.06656594574451447,-0.05509283393621445,0.061074767261743546,0.03780582547187805,0.20788060128688812,0.23872357606887817],[0.2132473886013031,-0.15120907127857208,-0.02297431044280529,0.07729846984148026,0.26100775599479675,0.03924969211220741,0.04745204746723175,0.09888017922639847,0.25232696533203125,0.02929081581532955,-0.1993279755115509,-0.059864357113838196,-0.08897678554058075,0.07691647112369537,-0.3162280023097992,0.028928572311997414,-0.08304493874311447,0.022433986887335777,-0.07007327675819397,-0.057767052203416824,0.19904175400733948,0.1854676753282547,0.2375524640083313,0.09372605383396149,0.03822072595357895,-0.2635437548160553,0.27460047602653503,0.008587691932916641,0.11329913884401321,-0.10423853248357773,0.09483878314495087,0.2996966242790222,-0.0054864236153662205,0.1197136864066124,0.30758702754974365,-0.16271518170833588,0.03229428082704544,0.0514063835144043,0.11982342600822449,-0.24932844936847687,0.09803539514541626,0.09199541807174683,-0.17722004652023315,0.542794942855835,-0.007955649867653847,-0.1923677623271942,0.20523019134998322,0.08447638154029846,-0.07196637243032455,-0.32075032591819763,0.24395176768302917,0.07869703322649002,-0.3078601360321045,-0.011288370005786419,0.15286555886268616,-0.02466338872909546,-0.02181481197476387,-0.08097626268863678,0.012387416325509548,0.3748881220817566,-0.23526856303215027,0.08526662737131119,0.22114992141723633,0.15470315515995026],[0.24159947037696838,0.03809119760990143,-0.023310108110308647,-0.27453386783599854,0.1468580961227417,0.17570361495018005,0.22094610333442688,-0.04062659665942192,0.1510566920042038,0.30052924156188965,-0.23394998908042908,-0.01742938719689846,-0.09909608215093613,0.13415947556495667,-0.10393478721380234,0.5308622717857361,-0.3551107943058014,0.21904908120632172,0.2943410575389862,-0.05493215471506119,0.2073463797569275,0.20508204400539398,-0.007262983359396458,-0.03568458557128906,-0.04136648029088974,0.259441614151001,0.0007525242399424314,0.07493780553340912,0.05962468311190605,-0.1646360158920288,0.061362117528915405,-0.24180829524993896,0.09506220370531082,0.07403434067964554,0.09446316212415695,0.18822389841079712,0.15658774971961975,0.2489439696073532,0.1329137086868286,0.01702149771153927,-0.05070968344807625,-0.24409286677837372,-0.00017152469081338495,0.09770552814006805,0.2327294945716858,0.03221527114510536,-0.2837303578853607,-0.14648151397705078,0.1164918914437294,0.0462610200047493,-0.05019066482782364,0.1390978991985321,0.11650659143924713,0.23227311670780182,-0.4008030295372009,0.06731574237346649,-0.09522736817598343,0.21305698156356812,-0.2270260602235794,0.10085275024175644,0.061654094606637955,-0.17960621416568756,0.05746942013502121,-0.21202409267425537],[0.3172522783279419,0.2752038538455963,-0.14235588908195496,-0.18621845543384552,-0.19062066078186035,-0.16251668334007263,-0.057589899748563766,-0.31326985359191895,-0.05236606299877167,-0.09445994347333908,-0.2776619791984558,-0.2915111780166626,0.13311867415905,-0.16689598560333252,0.40767422318458557,0.06100642308592796,-0.055965691804885864,0.004947337321937084,0.20219819247722626,-0.034413959830999374,0.25055935978889465,0.04581189528107643,-0.03759268298745155,-0.03848603740334511,0.06486726552248001,-0.41896530985832214,-0.1867205798625946,-0.1257995367050171,-0.36295366287231445,0.2782597541809082,-0.007326929364353418,-0.06937675178050995,0.06382670253515244,-0.14243385195732117,0.179878368973732,0.009032761678099632,-0.012932902202010155,-0.12294352054595947,0.06850090622901917,-0.17966273427009583,-0.2478538453578949,0.10169181227684021,0.035791222006082535,-0.0900145173072815,0.06413756310939789,0.14819584786891937,0.31479158997535706,0.027211841195821762,0.1370600163936615,-0.13695910573005676,0.09750783443450928,0.05301818624138832,-0.13367921113967896,0.22735145688056946,-0.06215038150548935,0.18119798600673676,-0.15840117633342743,-0.10851234197616577,0.2600295841693878,-0.0663452073931694,-0.10280048102140427,0.09609182924032211,0.19112606346607208,-0.19831150770187378],[-0.1300806701183319,-0.018223438411951065,-0.08042407780885696,0.15733222663402557,0.09260106086730957,-0.04037788510322571,0.01861707679927349,-0.09756164252758026,0.42978009581565857,-0.02597389556467533,0.013089681044220924,-0.09901483356952667,-0.09301372617483139,-0.13744792342185974,-0.06801207363605499,0.0046707154251635075,-0.05582622066140175,-0.24249638617038727,0.06432291120290756,0.034118909388780594,0.2443053126335144,-0.024825185537338257,0.21213442087173462,0.160243421792984,-0.3231624960899353,0.1481245756149292,-0.3244575262069702,-0.04807034879922867,-0.013286110945045948,-0.14919720590114594,-0.08479031920433044,0.10647889971733093,0.09581627696752548,0.04742801561951637,0.09070128202438354,0.08915632963180542,0.2507576048374176,0.20771077275276184,0.010692443698644638,-0.10021651536226273,0.04640226811170578,0.13364513218402863,-0.17330433428287506,-0.28015047311782837,-0.33383074402809143,-0.1111380085349083,0.19775041937828064,-0.05245215818285942,0.18033964931964874,-0.05907708778977394,-0.10476229339838028,-0.21284303069114685,-0.3540816903114319,-0.19588425755500793,-0.18389113247394562,0.14186188578605652,0.4662378132343292,0.19019991159439087,0.05586063116788864,-0.22517351806163788,-0.06726637482643127,-0.3996674716472626,-0.006904643960297108,-0.2572295367717743],[0.13947224617004395,0.48990872502326965,-0.17840595543384552,-0.024062752723693848,-0.009454037062823772,-0.1743195652961731,0.20547400414943695,0.1470360904932022,-0.008378589525818825,0.13935486972332,0.11338580399751663,0.07236215472221375,0.339404821395874,0.026892296969890594,-0.1970428228378296,-0.21066905558109283,0.1189049780368805,-0.0860571339726448,0.0015420025447383523,-0.05031513795256615,0.33343225717544556,0.3057101368904114,0.2531794309616089,-0.3037486970424652,-0.05613356828689575,-0.08930614590644836,-0.13944850862026215,0.017331939190626144,0.10538315773010254,-0.053280990570783615,0.012867821380496025,0.14035798609256744,-0.06589792668819427,-0.07200105488300323,0.14621248841285706,-0.06276396661996841,-0.40133869647979736,-0.1339324414730072,-0.07366491109132767,0.09810429811477661,-0.08361891657114029,0.1071329340338707,0.1725422888994217,-0.018677951768040657,0.19326859712600708,-0.035454411059617996,0.021970495581626892,-0.22864380478858948,-0.2732923924922943,0.062035154551267624,-0.1672046035528183,0.17724061012268066,0.112355075776577,-0.02336513064801693,-0.08173491805791855,-0.2091420292854309,0.38693463802337646,0.3478044271469116,0.10655933618545532,0.25654664635658264,0.01082903053611517,-0.04271373152732849,-0.18580633401870728,-0.13879325985908508],[0.2032400369644165,-0.09633307158946991,0.14591968059539795,-0.03467053920030594,0.1752290576696396,-0.33971014618873596,-0.10573546588420868,-0.27945348620414734,0.1318851262331009,-0.12389975041151047,-0.14188551902770996,0.04785587638616562,-0.2734515070915222,0.19376958906650543,0.13492973148822784,-0.022180946543812752,0.17638923227787018,0.05449972301721573,0.1870686113834381,-0.01689707487821579,-0.35734567046165466,-0.038914382457733154,0.2194579392671585,-0.23491927981376648,-0.392198771238327,0.059516843408346176,-0.13162730634212494,0.06362669169902802,0.04738232120871544,0.15849828720092773,0.013994507491588593,-0.12406978011131287,0.0941806435585022,-0.13301461935043335,0.016066845506429672,0.11986440420150757,-0.21591761708259583,0.20606538653373718,-0.2809145748615265,0.2579936683177948,0.1751091480255127,0.29644453525543213,0.11063632369041443,0.28137004375457764,-0.15706586837768555,0.10247839242219925,0.10206789523363113,0.10963427275419235,0.07280747592449188,-0.044618748128414154,0.07483401894569397,-0.15603190660476685,0.188304603099823,-0.06802317500114441,0.03930145502090454,-0.02206066995859146,-0.005858330056071281,-0.0812632218003273,-0.09673760086297989,0.40105611085891724,0.38671377301216125,-0.01792924664914608,0.0524836927652359,-0.22976312041282654],[0.026633430272340775,0.0542767159640789,0.01844903454184532,-0.084752157330513,-0.3445783257484436,-0.0788469910621643,0.26515328884124756,-0.13193389773368835,0.17473097145557404,-0.041563913226127625,0.19873669743537903,-0.1530734896659851,-0.26833030581474304,-0.10415397584438324,0.04107140377163887,0.02896857261657715,-0.25572216510772705,-0.33459219336509705,-0.19212695956230164,-0.27069514989852905,0.09354449063539505,0.0217234306037426,0.17539618909358978,0.12403912097215652,-0.06413540989160538,0.17994193732738495,0.08959101885557175,-0.004485733341425657,0.024527257308363914,-0.10181593149900436,-0.33279353380203247,0.03514232113957405,0.15773017704486847,0.3328903019428253,-0.01740974187850952,-0.04722638055682182,-0.006142887752503157,-0.32557955384254456,-0.14923037588596344,-0.039410561323165894,-0.25392889976501465,0.2836090624332428,0.09214811772108078,0.1777055710554123,0.23260822892189026,-0.15540798008441925,0.0014725248329341412,-0.3254094123840332,0.13680380582809448,0.13444024324417114,0.3581794202327728,0.11311417818069458,0.06552334129810333,-0.08603303879499435,0.23712317645549774,0.07119988650083542,-0.15391290187835693,-0.08507425338029861,-0.1323988437652588,-0.15812215209007263,0.32714441418647766,0.16202566027641296,-0.15141387283802032,-0.05108364298939705],[0.07673093676567078,0.28494009375572205,0.2451503574848175,0.17132307589054108,0.06031302362680435,-0.06097257882356644,-0.08705787360668182,0.053810469806194305,-0.2510339021682739,0.23001515865325928,-0.09947212040424347,-0.2805807292461395,-0.26724326610565186,-0.09324638545513153,-0.14528150856494904,0.06515345722436905,-0.2881929576396942,-0.032095931470394135,-0.1309276670217514,0.20814397931098938,-0.15850083529949188,-0.1493179053068161,0.13242121040821075,-0.3553915023803711,0.18319861590862274,0.010896113701164722,-0.032357532531023026,-0.09905002266168594,-0.010387489572167397,-0.19478847086429596,-0.4208999276161194,-0.004363071173429489,-0.3156946301460266,-0.14449292421340942,0.06889810413122177,0.15024933218955994,-0.11706392467021942,-0.1880071610212326,0.21479280292987823,0.0013415273278951645,0.41639378666877747,-0.10201726853847504,-0.05043971166014671,0.12882287800312042,-0.05519968643784523,0.15556101500988007,0.014401174150407314,-0.016491567716002464,0.22668808698654175,-0.25029656291007996,0.2287861555814743,0.09134580940008163,-0.02812945283949375,0.07569008320569992,-0.06359843164682388,0.006920456886291504,0.15462417900562286,-0.10871512442827225,0.22019366919994354,-0.15447910130023956,-0.04300191253423691,-0.025739500299096107,-0.4229556620121002,-0.11444047838449478],[0.09957420080900192,0.07447606325149536,-0.30763402581214905,-0.08515927940607071,0.17454670369625092,-0.10866452753543854,-0.19468843936920166,-0.10218718647956848,-0.1000773161649704,-0.0031711882911622524,0.025472255423665047,-0.023642171174287796,-0.13947412371635437,0.09427125006914139,-0.03990330547094345,0.33342525362968445,-0.01540062204003334,0.08400599658489227,-0.1483086496591568,-0.23467814922332764,0.2585640549659729,-0.031058046966791153,0.10387466102838516,-0.030730921775102615,-0.06763552129268646,-0.07069482654333115,0.02047155611217022,-0.2714269459247589,0.06514892727136612,0.2189965695142746,0.04631912335753441,-0.18158729374408722,-0.21595342457294464,0.1687995046377182,-0.35942065715789795,0.07262735813856125,0.2367560863494873,-0.04585108160972595,0.21066676080226898,0.09091551601886749,0.07144772261381149,0.10277348756790161,-0.2083550989627838,-0.00041153503116220236,-0.06890057772397995,-0.3129937946796417,0.1904851347208023,0.07674963027238846,0.10424695909023285,0.26149147748947144,0.02962438575923443,0.051034167408943176,0.4168510437011719,-0.4244324266910553,-0.23592275381088257,0.1187514215707779,0.12996692955493927,0.11949777603149414,0.3383312523365021,0.16875864565372467,-0.06624281406402588,0.14460378885269165,-0.10181109607219696,0.3377830982208252],[0.007036260794848204,-0.31336504220962524,-0.0231473371386528,-0.32510286569595337,0.2924351394176483,0.07603095471858978,-0.041126690804958344,0.039506394416093826,-0.08154589682817459,0.09240493178367615,0.14296545088291168,0.01077363546937704,-0.022311972454190254,-0.02335500158369541,0.061485614627599716,-0.050463199615478516,-0.045785967260599136,-0.11134661734104156,-0.29506486654281616,-0.06444238871335983,-0.022251741960644722,0.1359678953886032,0.3759475350379944,-0.40461573004722595,-0.29150959849357605,0.13082709908485413,0.23109489679336548,-0.26291561126708984,0.1145225390791893,0.02448827214539051,0.2454504668712616,-0.14038582146167755,-0.17957185208797455,-0.18545036017894745,-0.1272219717502594,-0.08114533126354218,-0.23634755611419678,-0.17329426109790802,-0.13043822348117828,-0.19670040905475616,-0.4283740818500519,0.13398364186286926,-0.23430468142032623,-0.12068598717451096,0.02223297953605652,-0.06935777515172958,-0.1122334897518158,0.0802963525056839,0.19521383941173553,-0.061043377965688705,0.00793282687664032,-0.11333926767110825,-0.16619083285331726,0.10612717270851135,-0.2956361770629883,-0.1397760510444641,-0.22051537036895752,-0.09660656005144119,-0.035650234669446945,-0.15026769042015076,-0.3586873412132263,-0.16483990848064423,-0.08109180629253387,-0.20237256586551666],[-0.0631655603647232,0.1963292509317398,0.13777996599674225,0.1751214861869812,-0.23139688372612,0.07712091505527496,0.15004324913024902,0.002112234476953745,-0.22259628772735596,0.3056253492832184,0.11185836791992188,0.13956546783447266,-0.06550657004117966,-0.31141263246536255,0.12404269725084305,0.05235976725816727,0.38362422585487366,0.07440710067749023,0.04074808582663536,0.35187309980392456,0.24570605158805847,-0.17946434020996094,0.34325355291366577,-0.028321590274572372,0.001226913882419467,-0.28851163387298584,0.05540691688656807,0.06967142969369888,-0.04408900812268257,0.30891963839530945,-0.2298462837934494,-0.07164730131626129,-0.08659427613019943,0.054761454463005066,-0.25941404700279236,-0.0379059873521328,0.1591523438692093,0.3323726952075958,0.04326777532696724,0.07874429225921631,-0.23449791967868805,0.04924686253070831,-0.08849810063838959,0.4184378385543823,-0.03927849605679512,-0.020749585703015327,-0.31184250116348267,-0.03386261686682701,0.16557611525058746,-0.028924157842993736,-0.07341405749320984,-0.08163909614086151,-0.04683591425418854,-0.20513610541820526,0.09438546001911163,0.0023886049166321754,-0.11018828302621841,0.06857118010520935,-0.2766708731651306,0.047048505395650864,-0.1061255931854248,-0.19393108785152435,0.1337442249059677,-0.07013343274593353],[0.09833735972642899,-0.25499916076660156,-0.12383715063333511,0.0753021389245987,0.005445045884698629,-0.09457673132419586,-0.38849809765815735,-0.0025509216357022524,0.06272953748703003,-0.22654475271701813,0.27372974157333374,-0.21527506411075592,-0.007224127184599638,-0.23002105951309204,0.012912480160593987,-0.054861366748809814,0.08660471439361572,-0.13818848133087158,-0.14076624810695648,-0.1295759528875351,-0.04601249098777771,-0.3451882600784302,-0.03963572904467583,0.16800425946712494,0.1146942675113678,-0.13748763501644135,-0.24015671014785767,0.12031695246696472,-0.24711903929710388,-0.15189628303050995,-0.06312838941812515,-0.3364095091819763,0.09544926136732101,0.05471673235297203,0.2146359533071518,-0.1613382250070572,-0.07003577053546906,0.1594162881374359,-0.2273992896080017,-0.1618644744157791,0.24598464369773865,-0.0031062522903084755,0.22856159508228302,0.3104088306427002,0.10066964477300644,-0.06887966394424438,-0.11634159833192825,-0.08616920560598373,0.09564544260501862,0.055527087301015854,-0.2983194589614868,0.22220969200134277,0.12931297719478607,0.06854525953531265,-0.08765605837106705,-0.05649103596806526,-0.19407102465629578,0.2923268973827362,-0.15577484667301178,0.12096364796161652,-0.4122811555862427,0.10281095653772354,-0.3408963978290558,-0.12418075650930405],[0.41101762652397156,0.08437888324260712,0.37544769048690796,0.3649280071258545,-0.17439574003219604,0.1978263556957245,-0.09562186896800995,0.03692011907696724,0.06658605486154556,0.1181749701499939,-0.13344816863536835,0.06760562211275101,-0.08928845077753067,0.05824712663888931,-0.15694104135036469,0.11978630721569061,0.36343708634376526,-0.22847308218479156,0.2094290554523468,-0.5624451637268066,0.32895922660827637,-0.0839836522936821,-0.16125985980033875,-0.09316149353981018,0.0057337600737810135,0.029353586956858635,0.1902197003364563,-0.12498847395181656,-0.013722867704927921,-0.08992023766040802,0.3380173146724701,-0.088147833943367,-0.015140466392040253,-0.22391675412654877,0.06504487991333008,0.2261064499616623,-0.08767835795879364,-0.20462670922279358,-0.12768343091011047,0.16626814007759094,-0.08699394017457962,-0.24529939889907837,-0.030938679352402687,-0.08954567462205887,-0.0009686046396382153,-0.05951116979122162,0.05014121159911156,0.13766025006771088,0.227706640958786,0.12514346837997437,0.009200360625982285,-0.10057768225669861,-0.14647766947746277,-0.156546950340271,0.16003312170505524,0.0725490003824234,0.003277345560491085,-0.05800899863243103,-0.15363237261772156,0.012681231833994389,-0.0811261236667633,-0.13805335760116577,-0.21143200993537903,0.016893096268177032],[-0.009280268102884293,-0.01938316598534584,0.037048231810331345,0.16155214607715607,-0.4040200412273407,0.10109338909387589,-0.16733035445213318,0.020878935232758522,-0.04956652969121933,-0.1374373733997345,-0.07229962199926376,-0.26292645931243896,-0.007511811796575785,-0.03072434663772583,0.052591100335121155,-0.11578290164470673,0.022306248545646667,0.1569461077451706,-0.214994877576828,0.3167053759098053,0.06505895406007767,0.17555901408195496,-0.054281461983919144,-0.0991397574543953,-0.11980205774307251,0.12915122509002686,0.06459364295005798,-0.032863520085811615,0.17932181060314178,0.10693138837814331,0.32743600010871887,-0.18986035883426666,0.47244781255722046,-0.06770601868629456,0.07442133128643036,0.12212765961885452,-0.08927678316831589,0.16696809232234955,0.20615154504776,-0.28762656450271606,-0.1906426101922989,-0.013841562904417515,0.006602624896913767,0.1904403418302536,-0.3041573762893677,-0.1716412603855133,-0.04636436700820923,-0.11072121560573578,-0.027893755584955215,0.20809227228164673,0.2935502827167511,0.2175944596529007,0.20946650207042694,0.28688299655914307,-0.0016514527378603816,0.04944607987999916,0.4278050363063812,-0.2278837412595749,0.0239543654024601,0.05644112825393677,-0.03902347385883331,-0.07797864824533463,-0.29188036918640137,0.09375622868537903],[0.2230481654405594,0.2473256140947342,0.1318347454071045,0.115651436150074,0.17103850841522217,-0.10235865414142609,0.015303506515920162,0.15968643128871918,0.13578641414642334,-0.4088672697544098,0.38428211212158203,0.0017600158462300897,0.2714032530784607,0.062175434082746506,0.13694828748703003,0.12809382379055023,-0.23442701995372772,0.18673895299434662,-0.08854209631681442,0.09259501844644547,0.1958245187997818,0.06218363344669342,-0.019261397421360016,-0.3022175431251526,-0.164388045668602,0.02364710532128811,0.20474040508270264,0.12348977476358414,-0.2976395785808563,-0.16911081969738007,0.22295087575912476,0.13457490503787994,0.15793262422084808,-0.10764090716838837,-0.2429230660200119,0.057973701506853104,0.19161376357078552,-0.008116358891129494,0.07721026986837387,-0.2513068914413452,0.24678407609462738,-0.02571832202374935,0.06153807416558266,0.20065666735172272,0.13406138122081757,0.24925515055656433,-0.010372116230428219,-0.3377850353717804,-0.008089639246463776,0.07812242209911346,-0.1269981861114502,-0.13048629462718964,-0.0401485338807106,-0.37679409980773926,0.019081974402070045,0.012745777145028114,-0.12395760416984558,-0.38692161440849304,0.07355751842260361,-0.09982672333717346,0.04417908191680908,-0.1354043334722519,-0.027281994000077248,-0.049798864871263504],[0.028132637962698936,-0.04896539822220802,0.09772690385580063,0.13553035259246826,0.17580701410770416,-0.40117448568344116,0.37861567735671997,0.031728167086839676,-0.15664319694042206,0.06838753819465637,0.22773784399032593,-0.151921346783638,-0.008283993229269981,-0.1019246056675911,-0.14581342041492462,-0.05930103361606598,-0.06913448870182037,0.06455296277999878,0.2844814658164978,-0.045246925204992294,-0.14511403441429138,-0.03190306946635246,-0.29086047410964966,0.4489652216434479,-0.11266693472862244,-0.06355246901512146,0.00434869946911931,-0.18156851828098297,0.05902303755283356,0.18170066177845,-0.0864044651389122,-0.04410143569111824,-0.24093593657016754,-0.12611360847949982,-0.1764710396528244,0.21032719314098358,-0.2001531720161438,-0.0023611693177372217,0.33391061425209045,-0.2800806760787964,0.036049291491508484,0.25293126702308655,0.2743624746799469,0.12120220810174942,-0.15319103002548218,-0.009266877546906471,0.2169272005558014,0.07221367210149765,-0.2555909752845764,0.4284049868583679,0.04020388051867485,0.08210279792547226,-0.10931844264268875,0.13544751703739166,0.041031476110219955,-0.10031459480524063,-0.2347089648246765,-0.018755165860056877,-0.24987858533859253,-0.009988347999751568,-0.11430670320987701,-0.25982147455215454,-0.12626215815544128,-0.04686454311013222],[-0.1283755749464035,0.18821801245212555,-0.17382287979125977,0.10661990940570831,0.23108750581741333,0.10020202398300171,0.1422751545906067,-0.25590598583221436,0.0074838753789663315,-0.06070849299430847,0.28440165519714355,0.18751424551010132,-0.09059199690818787,-0.10912871360778809,0.002454142551869154,0.08610807359218597,0.25529271364212036,0.21620552241802216,0.05608890578150749,-0.07645702362060547,-0.142376109957695,0.32013681530952454,0.07628422975540161,-0.007106037810444832,0.24024397134780884,0.16201618313789368,0.12113095074892044,0.4602685570716858,-0.23573093116283417,-0.29442906379699707,0.06706921011209488,-0.04965425282716751,-0.023059241473674774,0.18949106335639954,-0.0510764941573143,-0.13580472767353058,-0.17796173691749573,0.05855436250567436,0.08562757819890976,0.20193448662757874,-0.2387954145669937,-0.12259185314178467,-0.17988908290863037,0.06147304177284241,0.019931912422180176,-0.22874993085861206,0.3051132261753082,0.3601912260055542,0.22416521608829498,0.1129310354590416,0.011926576495170593,0.24363377690315247,-0.148715078830719,0.07641350477933884,-0.1051495224237442,0.24553295969963074,0.01789451390504837,-0.24181194603443146,0.2689431309700012,0.05301403999328613,0.021326398476958275,-0.1751810908317566,-0.20366372168064117,-0.25351956486701965],[0.24206769466400146,0.014234923757612705,0.33794093132019043,-0.0463988296687603,0.40009409189224243,0.06764987111091614,-0.17972086369991302,0.05355796590447426,0.1551249921321869,-0.1381901651620865,0.1428188979625702,0.07465775310993195,-0.2938236892223358,0.028369015082716942,0.0877595841884613,-0.16449588537216187,-0.034954734146595,0.11546571552753448,0.058295514434576035,0.062278274446725845,0.026263460516929626,0.1395285278558731,-0.3847666382789612,-0.26565882563591003,0.005300212651491165,0.02421303652226925,-0.16459766030311584,0.2229463905096054,0.018965715542435646,0.4234399199485779,-0.1538935899734497,-0.04768073558807373,-0.01572096161544323,0.4066818952560425,-0.16819633543491364,0.07296774536371231,0.11808431148529053,-0.37232863903045654,-0.0838397666811943,0.08247047662734985,-0.2369169145822525,-0.19883258640766144,0.05794557183980942,0.10273900628089905,-0.030402030795812607,-0.12631911039352417,-0.16042529046535492,-0.11568689346313477,-0.14545157551765442,0.047545578330755234,0.1968114823102951,-0.026442836970090866,-0.28317809104919434,0.07309576869010925,0.014321214519441128,0.026524890214204788,0.2629810571670532,0.28707316517829895,0.13362544775009155,0.011790168471634388,-0.2440868765115738,-0.025027332827448845,0.11143874377012253,-0.09265176951885223],[0.12299401313066483,-0.19574500620365143,0.22870084643363953,0.06600020080804825,0.00508102448657155,0.06382916122674942,0.21029751002788544,-0.1806258261203766,-0.012739461846649647,-0.21359491348266602,0.22077491879463196,0.02603556588292122,-0.20001161098480225,-0.3178723156452179,-0.04017670825123787,0.05472410470247269,0.08006304502487183,0.07027307152748108,0.17305192351341248,-0.15955720841884613,-0.04077136516571045,0.039493221789598465,0.1575547307729721,0.0843435600399971,-0.08252737671136856,0.16872067749500275,-0.2939586341381073,-0.0947762206196785,0.28157123923301697,0.074590303003788,0.23145000636577606,0.13811561465263367,-0.09637860953807831,-0.4009377360343933,-0.0373852476477623,-0.2558172643184662,0.14131490886211395,-0.12419670820236206,0.47704023122787476,0.13102379441261292,-0.007954594679176807,-0.04415525496006012,-0.05169864371418953,-0.05368431285023689,0.048536159098148346,-0.13661198318004608,-0.3401273190975189,-0.18524475395679474,0.09909427911043167,-0.17431731522083282,-0.30088117718696594,0.2540932297706604,-0.06393957138061523,0.024589721113443375,0.044737257063388824,0.04951521381735802,0.1305764764547348,-0.1133323535323143,0.2119104415178299,0.10959324985742569,0.047864921391010284,0.4236088991165161,0.14144468307495117,-0.1879192441701889],[-0.07359151542186737,-0.12709201872348785,-0.0747380256652832,0.1887880116701126,0.11982168257236481,0.12817443907260895,0.16617414355278015,0.2167413979768753,-0.3538329005241394,-0.1557091474533081,0.05132382735610008,-0.16310641169548035,-0.35352614521980286,-0.008605930022895336,-0.03899747505784035,0.06440068781375885,0.3046164810657501,0.018782399594783783,-0.1503254473209381,0.10639083385467529,-0.09775067865848541,-0.09400218725204468,-0.18411533534526825,-0.06261298805475235,0.14907969534397125,-0.14559106528759003,-0.017424939200282097,-0.08960679918527603,0.20800712704658508,0.23648254573345184,0.24357903003692627,0.19992506504058838,0.17013363540172577,0.2942993938922882,0.2942443788051605,0.2328457087278366,-0.15215575695037842,0.036820560693740845,0.04648982733488083,-0.3218400478363037,0.0035009600687772036,0.02388906106352806,-0.04030489921569824,-0.02090272307395935,0.31629306077957153,0.2101861834526062,0.3144429922103882,-0.09392840415239334,0.23777446150779724,-0.019865229725837708,-0.15440282225608826,0.02262665145099163,0.05838349089026451,-0.2370491325855255,-0.1782042533159256,-0.09784548729658127,-0.05795172229409218,0.26381489634513855,-0.05242562294006348,-0.14285382628440857,0.3554043173789978,0.04466069117188454,0.10285397619009018,-0.2591386139392853],[0.08093926310539246,-0.17331340909004211,-0.16051983833312988,0.011500568129122257,-0.22148080170154572,0.21615494787693024,-0.24144187569618225,-0.30454021692276,-0.23546305298805237,-0.13776704668998718,0.1490328460931778,0.03994540125131607,0.038323625922203064,0.1769140362739563,-0.17792972922325134,-0.24096035957336426,-0.14908115565776825,0.033578649163246155,0.2908145785331726,-0.24379046261310577,-0.11400755494832993,-0.10052261501550674,0.21265563368797302,-0.017061514779925346,0.23569399118423462,0.06491829454898834,0.32195693254470825,0.353869765996933,0.17903177440166473,0.2364860624074936,-0.13902969658374786,-0.029529351741075516,-0.0530402697622776,-0.11694017052650452,0.003780311206355691,0.050888098776340485,0.05920986458659172,-0.00617157993838191,0.17609885334968567,-0.27061548829078674,-0.09917047619819641,0.14366447925567627,0.3938041031360626,-0.1147727444767952,-0.11674146354198456,0.18104013800621033,-0.024319816380739212,-0.042691219598054886,-0.16474246978759766,-0.3823562562465668,0.06959732621908188,0.10136391967535019,0.06648008525371552,-0.3425990045070648,-0.09536676853895187,0.22855256497859955,-0.011644295416772366,0.18802599608898163,-0.05876675248146057,0.010139997117221355,0.027500124648213387,-0.32050931453704834,-0.019131088629364967,-0.02146461419761181],[-0.19860242307186127,0.025469781830906868,-0.17292574048042297,0.2878490686416626,-0.0035349822137504816,0.04508364200592041,0.13898426294326782,-0.1257728934288025,-0.04785032197833061,-0.006943512707948685,-0.16227543354034424,-0.1770346760749817,0.16412627696990967,-0.018435530364513397,-0.15572719275951385,-0.10831856727600098,0.012147855944931507,0.13389475643634796,0.057099297642707825,-0.18291252851486206,-0.35997241735458374,-0.04609731212258339,-0.0267330352216959,-0.33880892395973206,0.21639056503772736,0.1827288568019867,-0.35695207118988037,-0.38126328587532043,0.11630390584468842,0.0012186698149889708,-0.18830186128616333,-0.0902334600687027,0.28907397389411926,0.029002439230680466,0.05479580909013748,0.013391228392720222,0.3092149794101715,-0.24676571786403656,-0.08030078560113907,0.12281778454780579,-0.14088691771030426,0.09228894114494324,-0.19440604746341705,0.1942165642976761,0.21181045472621918,0.1270245760679245,0.03399021551012993,0.07682929933071136,-0.27190399169921875,0.11777441948652267,-0.16326086223125458,0.028333062306046486,-0.027932651340961456,-0.2358492910861969,-0.09005747735500336,0.21934477984905243,-0.0172592680901289,-0.26999741792678833,-0.3352208137512207,0.20263691246509552,-0.32255271077156067,-0.143766388297081,0.17383036017417908,-0.04938416928052902],[-0.06235398352146149,0.154755100607872,0.06581775844097137,0.1239902451634407,-0.017283577471971512,0.15815381705760956,0.04482947289943695,0.10785076022148132,0.4660699963569641,0.0018437056569382548,0.09074606001377106,0.022677961736917496,-0.12892746925354004,0.0804673507809639,-0.20081624388694763,-0.0962870717048645,-0.019201911985874176,0.35410383343696594,-0.23006954789161682,-0.06437588483095169,0.08206168562173843,-0.1662425845861435,0.2287852168083191,0.002928131725639105,-0.234869122505188,0.1467345803976059,-0.043975863605737686,-0.04109826683998108,-0.10212884843349457,0.2732158303260803,0.03860112652182579,-0.3434918522834778,-0.08032404631376266,0.10140828788280487,0.07999683171510696,0.10089457780122757,0.08962966501712799,0.2721610367298126,0.2809043824672699,0.2312823086977005,-0.23987984657287598,-0.01792573742568493,0.04515242949128151,-0.21503476798534393,0.1517438292503357,0.4160969853401184,0.2913815975189209,0.22416438162326813,-0.2652727961540222,-0.2113606333732605,0.031129496172070503,0.11169376224279404,-0.027766555547714233,-0.00831613875925541,0.19206832349300385,-0.15931683778762817,-0.17770999670028687,0.04230719432234764,-0.06995284557342529,-0.10658416152000427,-0.11522120237350464,0.33009037375450134,-0.21433135867118835,-0.06588484346866608],[0.27547329664230347,-0.41879886388778687,-0.16715021431446075,0.18460947275161743,0.06913068890571594,-0.18379250168800354,0.08907119929790497,-0.059927910566329956,-0.18468816578388214,0.2661695182323456,0.043299753218889236,0.2536472976207733,-0.1751498579978943,0.045410461723804474,0.06096670776605606,-0.16826285421848297,-0.13868330419063568,-0.1400793045759201,0.26313158869743347,0.08913103491067886,0.21885700523853302,0.09860303997993469,-0.06482520699501038,-0.34104806184768677,0.03290799260139465,-0.16696089506149292,-0.14395560324192047,-0.11222268640995026,0.07766817510128021,-0.1348261535167694,-0.22246481478214264,-0.12143969535827637,0.3655847907066345,0.19717562198638916,-0.030444534495472908,-0.05375675857067108,-0.11231185495853424,0.3677801191806793,0.01529526337981224,-0.11619932949542999,0.0506521612405777,-0.15974397957324982,-0.15165677666664124,-0.3194573223590851,-0.056483276188373566,-0.0809042900800705,0.002693702233955264,-0.1430327296257019,-0.21834099292755127,-0.0053043975494802,-0.018164608627557755,0.16893024742603302,0.010442348197102547,-0.15041083097457886,0.3503943383693695,-0.08476484566926956,-0.2706165909767151,-0.20738333463668823,0.27267107367515564,-0.08955899626016617,-0.02394830994307995,0.028475960716605186,-0.1941198706626892,-0.018566856160759926],[0.07907865196466446,-0.006127313710749149,0.25157538056373596,0.2506524920463562,0.04469653591513634,0.4513833224773407,-0.022705383598804474,-0.17444933950901031,-0.20756959915161133,-0.26334890723228455,-0.22944121062755585,0.3940128684043884,0.01985524408519268,-0.1801930069923401,0.03482919558882713,-0.26413512229919434,-0.2957818806171417,0.0819997489452362,-0.0020103929564356804,0.09759023040533066,0.1069515272974968,0.10953647643327713,0.2425311654806137,-0.008866026997566223,-0.1444651335477829,0.028640389442443848,-0.06447727233171463,-0.20569740235805511,-0.2150295078754425,-0.04346378892660141,-0.16096286475658417,0.026415161788463593,-0.028711488470435143,-0.02458835020661354,0.17182697355747223,-0.12595157325267792,0.2099861204624176,-0.18809597194194794,0.025639211758971214,-0.11484168469905853,0.016179179772734642,-0.14541637897491455,0.12166862189769745,0.1254381537437439,-0.1475268006324768,-0.28735190629959106,0.23320528864860535,0.2995404005050659,-0.15011735260486603,0.25735023617744446,-0.15470708906650543,-0.09246936440467834,0.19459481537342072,0.0318312793970108,-0.2024683803319931,-0.25318261981010437,-0.2343035787343979,0.2117958962917328,-0.1389932483434677,-0.02760510891675949,0.2918456792831421,0.03837834298610687,-0.010636312887072563,-0.10348276793956757],[-0.13351111114025116,-0.06742681562900543,0.018198126927018166,0.18783240020275116,0.07456780970096588,-0.30654841661453247,-0.08972634375095367,0.02922155149281025,0.11975713819265366,-0.017609672620892525,0.06290964037179947,-0.0056716082617640495,0.015299363061785698,-0.3374573886394501,0.49098268151283264,-0.10899151861667633,-0.1725507229566574,0.1686825007200241,-0.1777481883764267,-0.09475855529308319,0.16168707609176636,0.2145092934370041,-0.009721199050545692,-0.1432834416627884,0.36497148871421814,0.2535006105899811,0.10443785041570663,0.00617769081145525,0.21875067055225372,-0.22267070412635803,-0.06339515745639801,-0.039632316678762436,-0.13673518598079681,-0.20156361162662506,0.2120732069015503,0.43722546100616455,-0.13975763320922852,0.058540571480989456,-0.023118333891034126,-0.0064383866265416145,-0.10435864329338074,0.0732971727848053,-0.08583381026983261,0.09284177422523499,-0.3350955843925476,0.1924472600221634,0.049331311136484146,-0.046193208545446396,0.082551009953022,0.058622851967811584,-0.1278100311756134,0.12897896766662598,0.06800590455532074,-0.05772647634148598,0.25881680846214294,0.14960406720638275,-0.19610363245010376,0.42246949672698975,-0.05542723089456558,0.0014276402071118355,0.023946432396769524,0.08857107162475586,0.26503124833106995,0.24849356710910797],[0.019126681610941887,-0.030117018148303032,-0.24408023059368134,-0.005068585742264986,-0.2910146713256836,-0.0734960287809372,-0.33565691113471985,0.14167740941047668,-0.23899434506893158,-0.019503112882375717,0.07981425523757935,-0.016081321984529495,-0.2523975670337677,0.13600721955299377,0.18330912292003632,0.15616679191589355,-0.017358817160129547,-0.08199013024568558,-0.1271800398826599,0.08491406589746475,0.2587362229824066,0.20938728749752045,-0.10367760062217712,0.1387813538312912,-0.11904440075159073,0.09613225609064102,-0.2475890964269638,-0.13796433806419373,0.3171228766441345,-0.2612638771533966,-0.012091482989490032,0.10093045234680176,-0.3100799024105072,0.250352144241333,0.05361815541982651,-0.01846802420914173,-0.00710834888741374,-0.01185545977205038,0.03586410731077194,0.0015658863121643662,-0.18548010289669037,-0.0909958928823471,0.42181071639060974,0.28062164783477783,-0.0704699233174324,0.26176682114601135,-0.06054046377539635,0.23325611650943756,-0.26986631751060486,-0.04726177453994751,-0.2700774371623993,-0.33421629667282104,-0.22658434510231018,0.011238597333431244,-0.004024395253509283,0.2197737842798233,-0.08864244818687439,-0.25753727555274963,0.08639529347419739,0.12358389049768448,0.0708523839712143,0.02692585065960884,-0.15402427315711975,-0.12929831445217133],[0.1932101845741272,0.06844308227300644,0.1019311174750328,-0.11098954826593399,-0.020580971613526344,0.2948739230632782,0.032380543649196625,0.016828805208206177,0.29105639457702637,0.12006092071533203,0.13158515095710754,-0.14490345120429993,0.10513969510793686,0.1889754980802536,0.5445154309272766,-0.20813606679439545,0.20730240643024445,0.21035556495189667,0.042968910187482834,-0.038247980177402496,0.0543394573032856,0.0756034180521965,-0.13808713853359222,0.09023340046405792,-0.03198173642158508,0.15439653396606445,-0.25967052578926086,0.0030777493957430124,0.1974511742591858,-0.02104402333498001,-0.18571580946445465,0.38581374287605286,-0.17023299634456635,0.10286746919155121,0.18937940895557404,-0.1366092413663864,0.05469728633761406,0.011133735999464989,0.15721085667610168,-0.12458479404449463,0.0914970263838768,0.08386020362377167,-0.17971554398536682,-0.2432413548231125,0.08709269762039185,-0.013343986123800278,-0.15789999067783356,0.23139245808124542,0.2820097804069519,-0.012001576833426952,0.22640186548233032,0.08229455351829529,0.2449030727148056,-0.22106245160102844,-0.10395662486553192,-0.28951239585876465,-0.1537231206893921,-0.14161059260368347,-0.05830121785402298,0.29638922214508057,-0.13427051901817322,-0.24163612723350525,-0.2150694727897644,0.029530268162488937],[-0.060374218970537186,-0.15490975975990295,-0.2188398241996765,0.22303666174411774,-0.286405086517334,-0.23401466012001038,-0.0002262963098473847,0.11040134727954865,0.006867875345051289,-0.34723323583602905,0.06798329204320908,-0.19412381947040558,0.21021638810634613,-0.13806049525737762,-0.11963300406932831,-0.005478120408952236,-0.26555299758911133,0.3235875964164734,0.4603233337402344,-0.17777694761753082,-0.017408600077033043,-0.024451347067952156,0.07514050602912903,-0.1355597972869873,-0.03243264555931091,-0.034518737345933914,0.11866482347249985,-0.1534418761730194,0.11571560800075531,0.18111389875411987,0.18580231070518494,0.08442304283380508,-0.3704374134540558,0.40503206849098206,0.008772237226366997,-0.11318624764680862,0.06939685344696045,0.04513612389564514,-0.2319442331790924,0.1525394469499588,0.058790016919374466,-0.1481098085641861,-0.22641846537590027,0.07955814898014069,0.0009090506937354803,-0.05134746432304382,-0.16215874254703522,0.24883075058460236,0.16959157586097717,-0.09400751441717148,0.03756694123148918,-0.07631932199001312,0.21408767998218536,0.19603528082370758,0.25757408142089844,-0.2474290430545807,0.09157664328813553,0.0740836039185524,-0.040384020656347275,-0.21591535210609436,0.03383433073759079,-0.15852956473827362,0.016805781051516533,-0.2607656717300415],[0.24784508347511292,0.10832570493221283,0.026021737605333328,0.18197600543498993,-0.09421300888061523,-0.22196003794670105,-0.25898903608322144,-0.23461996018886566,0.034125518053770065,0.11984821408987045,0.022709107026457787,0.1887899786233902,-0.08557389676570892,0.2363375872373581,-0.24449734389781952,0.3357276916503906,0.2895476818084717,0.2719918489456177,-0.13583239912986755,0.25256583094596863,0.18894171714782715,-0.07909969240427017,-0.22204792499542236,6.917440623510629e-05,-0.015157393179833889,0.27795305848121643,-0.017023900523781776,-0.15472625195980072,-0.11685693264007568,-0.2309602051973343,0.00975183304399252,0.15048925578594208,0.02975456602871418,-0.0017494625644758344,-0.07117191702127457,-0.29082709550857544,0.0074532004073262215,-0.2659214735031128,-0.18433715403079987,-0.20032715797424316,-0.06036734953522682,0.43657398223876953,-0.15957842767238617,-0.016858285292983055,-0.1922282576560974,0.10976578295230865,-0.11121685057878494,0.038080185651779175,-0.12344691157341003,-0.15414924919605255,0.010533242486417294,0.46693137288093567,0.02866797335445881,0.1060776561498642,-0.03180795535445213,-0.12330988049507141,-0.09181605279445648,0.14371763169765472,0.058766912668943405,-0.3204748034477234,0.06416342407464981,-0.09634321928024292,0.15656955540180206,-0.03731376305222511],[-0.09275033324956894,-0.1423957645893097,0.3485255241394043,-0.18034400045871735,0.11737245321273804,0.11444570869207382,0.15252430737018585,0.24709726870059967,0.21671129763126373,-0.17537222802639008,-0.2900065779685974,0.06010065972805023,0.015759611502289772,-0.2646300792694092,-0.003692969214171171,-0.053252264857292175,0.28506895899772644,-0.03660270571708679,0.2614142894744873,-0.01189001090824604,-0.14042672514915466,0.22904598712921143,0.20160464942455292,0.021781159564852715,0.09953683614730835,-0.12882620096206665,-0.07884594798088074,-0.3419455289840698,-0.07234906405210495,-0.18074074387550354,0.0948377251625061,-0.4116884768009186,-0.1348171979188919,0.343123197555542,-0.1803601235151291,-0.3349548876285553,-0.014698751270771027,-0.07905634492635727,0.044082432985305786,-0.23401564359664917,0.012958838604390621,0.06625443696975708,0.1834869384765625,-0.014456762932240963,0.004642598796635866,0.4210185706615448,-0.05448180064558983,0.03889365494251251,0.0355481393635273,-0.06489232182502747,-0.014260707423090935,0.1369025856256485,0.1692064106464386,-0.09033552557229996,0.09713762253522873,0.2710668742656708,0.10150179266929626,0.08748073875904083,0.10650667548179626,0.02661147154867649,0.1671069860458374,-0.2829178273677826,-0.07020559906959534,0.24395819008350372],[0.06462031602859497,0.12554527819156647,0.11273680627346039,-0.2593572735786438,-0.004330701194703579,-0.45540347695350647,-0.06110428646206856,0.08250291645526886,-0.013144169934093952,-0.4645751416683197,-0.12044201046228409,0.032948315143585205,0.02074424736201763,0.006609850563108921,-0.26464787125587463,-0.1648666262626648,0.2773483097553253,-0.3063535988330841,0.17956849932670593,0.061274465173482895,0.08088632673025131,0.09123335778713226,-0.0903441458940506,-0.15109506249427795,0.11570388078689575,0.11839824914932251,-0.09217867255210876,0.23389478027820587,0.028980392962694168,-0.1306299865245819,-0.19675670564174652,-0.10547757148742676,0.006007909309118986,-0.013402325101196766,-0.020784500986337662,0.16624115407466888,0.17136605083942413,0.0963837206363678,0.3862699270248413,-0.19443008303642273,-0.22854244709014893,0.0097107058390975,-0.36363646388053894,0.014800447039306164,0.16447538137435913,-0.16257959604263306,-0.10229696333408356,0.3268927037715912,-0.02890540286898613,-0.22904673218727112,-0.07938724011182785,-0.22978006303310394,0.12661075592041016,0.030649784952402115,-0.13113680481910706,-0.09056030213832855,-0.07675795257091522,0.008049212396144867,-0.3433389961719513,-0.11095083504915237,0.10804317891597748,0.16018950939178467,-0.12838266789913177,0.15312518179416656],[-0.3107246160507202,0.29486191272735596,-0.1715310662984848,0.004087583627551794,0.2912428081035614,-0.01698945462703705,0.019374195486307144,0.15041910111904144,-0.04361846297979355,-0.18124963343143463,0.16486844420433044,-0.03275308385491371,-0.26256299018859863,0.3312892019748688,-0.037629637867212296,-0.037855882197618484,0.11794727295637131,0.16833488643169403,0.32849687337875366,-0.016528556123375893,0.1316518783569336,-0.018153389915823936,0.19322647154331207,0.025985112413764,0.01818612590432167,-0.12877020239830017,-0.16840437054634094,-0.21850526332855225,-0.06692903488874435,-0.1680242121219635,0.02956545352935791,0.09399406611919403,-0.03340866044163704,-0.390151709318161,0.12873555719852448,-0.03501994162797928,0.1116817444562912,0.10128828138113022,-0.3590697646141052,-0.23978112637996674,-0.1936134546995163,-0.29666969180107117,0.07814589887857437,-0.022934339940547943,-0.14250154793262482,-0.0334484726190567,-0.27413254976272583,-0.04930901899933815,0.005660025402903557,0.14789214730262756,0.5757395625114441,0.12939390540122986,-0.08528131991624832,-0.12736569344997406,-0.0748903900384903,0.1632853001356125,-0.06961648166179657,0.050368472933769226,-0.015276593156158924,-0.09655174612998962,0.027384350076317787,0.2924771308898926,-0.09407069534063339,0.007858924567699432],[-0.1388416737318039,0.3190601170063019,-0.12810204923152924,0.18792025744915009,0.17413818836212158,-0.14078767597675323,-0.28023067116737366,0.10660436004400253,-0.024627335369586945,0.35181623697280884,-0.030122485011816025,0.17979085445404053,-0.12073200196027756,-0.2120135873556137,0.12615816295146942,-0.3656986653804779,-0.04833122342824936,0.1297059953212738,0.30040961503982544,-0.08228910714387894,0.09858294576406479,-0.032982271164655685,-0.07745498418807983,0.07710547745227814,-0.41543102264404297,0.31000596284866333,0.32075223326683044,-0.08976278454065323,-0.0033253540750592947,0.17326733469963074,-0.06822041422128677,0.059193093329668045,0.13951776921749115,0.14732280373573303,-0.003250428009778261,-0.049237627536058426,-0.07888434827327728,-0.06283632665872574,-0.1146935299038887,-0.3167085647583008,0.16431479156017303,0.03410225361585617,0.03259237855672836,-0.03446035087108612,0.2971792221069336,-0.08185772597789764,-0.01826743222773075,0.0030864940490573645,0.23480358719825745,-0.19965465366840363,-0.26033440232276917,0.09482637047767639,-0.028028203174471855,0.18547724187374115,-0.14215132594108582,0.31709352135658264,0.09734603017568588,-0.18848606944084167,-0.0831555500626564,0.025366727262735367,0.018536534160375595,0.23573464155197144,-0.039207715541124344,0.22449582815170288],[0.05234561488032341,-0.04671589657664299,0.1167384460568428,0.20001794397830963,0.15551377832889557,-0.137058824300766,0.21206332743167877,0.11059779673814774,0.01459500752389431,0.029700590297579765,0.11502871662378311,0.12726488709449768,0.1328519582748413,-0.0040761977434158325,-0.031154349446296692,0.01606757938861847,-0.29265493154525757,-0.024271972477436066,-0.1368180811405182,0.032013602554798126,0.06113496050238609,0.035001035779714584,-0.30434226989746094,-0.02192935347557068,-0.2406783550977707,-0.5913312435150146,0.19535040855407715,0.08274529129266739,0.1316455602645874,-0.21231593191623688,-0.037216611206531525,-0.043631039559841156,0.1720373034477234,0.06479248404502869,0.20829664170742035,-0.03463565558195114,0.11993922293186188,-0.11585090309381485,-0.010373889468610287,0.3047366440296173,-0.27010342478752136,0.23825374245643616,0.16155722737312317,-0.15865477919578552,-0.2458486109972,0.12432190030813217,-0.26335421204566956,0.34719517827033997,0.27774739265441895,-0.13920433819293976,0.033368274569511414,0.21696236729621887,0.1558365672826767,-0.16511170566082,-0.37378019094467163,0.16693422198295593,0.18558011949062347,-0.12877236306667328,-0.1028653085231781,-0.012406677938997746,-0.03306969255208969,0.20270848274230957,-0.05164073035120964,-0.06606447696685791],[0.3133683502674103,-0.06503985077142715,0.018321309238672256,0.00729522155597806,0.14376486837863922,-0.44277751445770264,0.13719399273395538,-0.3275257647037506,-0.2848612666130066,0.12646906077861786,-0.08834674209356308,-0.24572579562664032,-0.06850716471672058,-0.14985094964504242,0.08996637910604477,0.09692628681659698,-0.11516568809747696,0.23565484583377838,-0.17020578682422638,0.1425633579492569,-0.08996642380952835,-0.17089523375034332,0.2937845289707184,0.11738553643226624,-0.055057838559150696,0.08832686394453049,0.006827722769230604,0.16022989153862,-0.06367836147546768,-0.13484452664852142,0.19001612067222595,0.2820473909378052,0.22865740954875946,0.05047529190778732,-0.023076267912983894,-0.19375737011432648,0.10767366737127304,-0.13337664306163788,-0.09849579632282257,-0.09349540621042252,-0.24378134310245514,-0.37895944714546204,0.15834948420524597,-0.20851437747478485,0.1487886607646942,0.21714957058429718,-0.0012824517907574773,0.17704983055591583,0.025665247812867165,0.07985159009695053,0.012175806798040867,-0.10233750194311142,-0.15219782292842865,-0.11288438737392426,0.14578361809253693,-0.10835044831037521,0.2378866821527481,0.20181642472743988,-0.15066193044185638,0.09542986750602722,-0.02675767056643963,-0.027577968314290047,-0.2562055289745331,0.41539454460144043],[-0.08046858012676239,0.16412149369716644,0.16164985299110413,0.30072763562202454,0.11581411957740784,0.048406682908535004,-0.12376052141189575,0.12103233486413956,-0.08461341261863708,-0.10969074815511703,-0.10529519617557526,-0.22791849076747894,-0.023501986637711525,0.00547146238386631,0.18718811869621277,0.35337623953819275,-0.18290381133556366,-0.014532345347106457,0.18234287202358246,0.06677330285310745,-0.10287567973136902,0.24860337376594543,0.027864333242177963,-0.005647968500852585,0.10611443221569061,0.17861701548099518,-0.04710518568754196,-0.10751761496067047,-0.2738476097583771,0.1344912350177765,0.19673430919647217,-0.04974750801920891,0.041718389838933945,0.14476227760314941,0.16358377039432526,-0.27593985199928284,-0.41843515634536743,0.1633780300617218,0.15698952972888947,0.3307591378688812,-0.10097398608922958,0.28616246581077576,0.07197491079568863,-0.20069460570812225,0.009140967391431332,-0.44046729803085327,-0.1957201063632965,-0.10197275876998901,-0.1671205759048462,-0.27921366691589355,0.07223149389028549,-0.14912359416484833,-0.20045097172260284,-0.3257334232330322,-0.17780213057994843,-0.05317503586411476,-0.13483193516731262,0.045010313391685486,-0.16939398646354675,-0.07610723376274109,-0.02336975559592247,-0.001282988814637065,-0.08299349993467331,0.23480752110481262],[-0.034007478505373,0.31158754229545593,-0.20518355071544647,-0.05948392674326897,0.13954733312129974,0.1850185990333557,-0.28747326135635376,-0.03793948143720627,0.21779148280620575,-0.17545928061008453,-0.04401274770498276,0.021888718008995056,0.14797142148017883,-0.35505780577659607,-0.17940787971019745,0.2324856072664261,-0.10800524055957794,-0.10010303556919098,0.07276058197021484,0.09092463552951813,-0.055848244577646255,-0.1264096051454544,-0.16911083459854126,-0.06776363402605057,0.06985674053430557,0.0007739018765278161,0.06820107996463776,-0.14058685302734375,0.5569151043891907,0.026451684534549713,-0.19192999601364136,-0.02195405215024948,0.409261554479599,-0.13529819250106812,-0.3316163718700409,-0.3263765275478363,-0.26812508702278137,0.06946533918380737,0.15887320041656494,-0.029136663302779198,0.019528819248080254,-0.07194005697965622,0.19042234122753143,-0.037928350269794464,0.003163668792694807,0.10411854088306427,0.04146922379732132,0.29313042759895325,0.22637854516506195,0.1386743187904358,0.13132140040397644,-0.15220306813716888,-0.10738115012645721,-0.08315929025411606,0.2398533672094345,-0.15708163380622864,-0.1818467080593109,0.20252206921577454,-0.04606926068663597,0.09311412274837494,0.03643364831805229,0.01972248964011669,0.08448410779237747,-0.1732027679681778],[-0.05438130721449852,-0.11544791609048843,0.13497769832611084,0.5127266645431519,0.16200344264507294,-0.09237269312143326,-0.39237385988235474,-0.0018234315793961287,-0.06828315556049347,0.04794439300894737,-0.21464401483535767,0.05182843282818794,0.3053470849990845,0.08755931258201599,0.12846161425113678,-0.04938137158751488,0.05792427808046341,-0.2617948055267334,0.07706942409276962,-0.05136623978614807,-0.1035860925912857,-0.06963229179382324,0.13321426510810852,0.02573615498840809,-0.08017454296350479,0.01654333807528019,0.04895855113863945,0.027585946023464203,0.021307313814759254,-0.30903229117393494,0.08251142501831055,0.21002767980098724,-0.1497967541217804,0.1431615650653839,-0.27099373936653137,0.0701715424656868,0.24261131882667542,0.2198251634836197,0.23905178904533386,0.10984104871749878,-0.3323691785335541,0.12917277216911316,0.01255792286247015,-0.054710544645786285,0.35594674944877625,0.15523174405097961,0.023377923294901848,-0.2904220223426819,0.060384590178728104,0.18245013058185577,0.3893466889858246,0.09759602695703506,-0.04425607994198799,0.23928534984588623,-0.21448315680027008,-0.097015380859375,-0.02873113937675953,0.12170492857694626,0.20678727328777313,0.16759313642978668,0.002195082837715745,0.10034064203500748,0.042269885540008545,-0.16535966098308563],[-0.06889819353818893,-0.028954559937119484,0.05489422380924225,-0.023561401292681694,0.22280527651309967,0.0459030345082283,-0.23063033819198608,0.0005169686046428978,0.23923343420028687,0.020265275612473488,-0.13237883150577545,-0.15255728363990784,0.04814576730132103,-0.25666314363479614,0.06649389117956161,0.4128064215183258,0.3919008672237396,0.08341509103775024,0.16664274036884308,-0.003312914865091443,-0.18529033660888672,-0.032303586602211,0.30854976177215576,-0.025625312700867653,-0.08076541870832443,-0.20630112290382385,0.19288666546344757,0.13562169671058655,0.19062720239162445,-0.05162864550948143,-0.2390252947807312,0.16614697873592377,-0.0703180804848671,0.1834944635629654,0.14695362746715546,0.20382213592529297,-0.017399515956640244,-0.2030535638332367,0.05223491042852402,-0.08328910917043686,-0.08918055146932602,-0.22365033626556396,0.20450711250305176,-0.23181401193141937,-0.17840279638767242,-0.20490457117557526,0.08591524511575699,-0.16243423521518707,-0.375647634267807,0.033488381654024124,-0.18855056166648865,-0.005730196367949247,0.4412000775337219,-0.0067481365986168385,0.09192012995481491,-0.048710837960243225,-0.00858717318624258,-0.3141317665576935,-0.25202295184135437,-0.21757571399211884,-0.1386827975511551,0.09210751950740814,0.10052784532308578,-0.20669393241405487],[0.1772492378950119,-0.22733773291110992,0.06814967095851898,-0.0008199632284231484,-0.15199357271194458,-0.168782040476799,0.026041291654109955,0.010029261931777,0.25151827931404114,0.05931103974580765,0.016907386481761932,0.23493626713752747,0.3602156341075897,0.09972786903381348,0.10862978547811508,0.1606631726026535,0.050936371088027954,0.040321290493011475,0.2072809487581253,0.2379981428384781,-0.23361584544181824,0.02561844326555729,0.04545406997203827,0.29092085361480713,0.27364739775657654,0.15054026246070862,0.2653646171092987,-0.22748315334320068,0.14577169716358185,0.2702946662902832,-0.287688285112381,-0.03561685234308243,0.09019261598587036,-0.10302218794822693,0.24024172127246857,0.06972723454236984,-0.050451841205358505,-0.010109411552548409,-0.18696236610412598,-0.08138615638017654,-0.15468339622020721,-0.0590597540140152,-0.09002509713172913,0.33579111099243164,0.03977413848042488,0.11046542227268219,0.03946438804268837,-0.049657974392175674,0.027091778814792633,0.12752079963684082,-0.13401299715042114,-0.12876763939857483,-0.20480382442474365,-0.24537762999534607,-0.25859490036964417,-0.08434859663248062,0.13561561703681946,0.017812691628932953,0.3643564283847809,-0.20084282755851746,0.010774917900562286,0.3060186803340912,-0.40880581736564636,-0.014723851345479488],[0.07913876324892044,0.04681316763162613,-0.41374489665031433,0.29350653290748596,0.09849681705236435,-0.014639852568507195,0.17623616755008698,-0.029041090980172157,0.3313941955566406,0.014714166522026062,-0.4099549353122711,0.028761601075530052,-0.34809941053390503,-0.04848022758960724,-0.10408927500247955,-0.12267337739467621,-0.09616215527057648,-0.3484129309654236,-0.0728730633854866,0.012766161933541298,0.03296750783920288,0.026448635384440422,-0.04313964396715164,-0.06650596112012863,0.10975072532892227,0.1875673085451126,-0.04308534041047096,0.24983325600624084,-0.2603650987148285,0.2007119506597519,0.09450246393680573,0.18076832592487335,-0.1653064638376236,-0.08759061992168427,-0.016943326219916344,-0.02175508253276348,-0.17460286617279053,0.020452626049518585,0.02196275256574154,-0.09606779366731644,-0.17558926343917847,-0.04400856792926788,0.23017098009586334,0.1416030377149582,-0.08001522719860077,0.22354695200920105,-0.3690584599971771,0.0804782509803772,0.15001197159290314,0.2336634248495102,-0.06919726729393005,0.06346400827169418,0.21639643609523773,-0.12606306374073029,-0.16051211953163147,-0.31286004185676575,0.04119636490941048,-0.2877809405326843,0.2520648241043091,-0.19411751627922058,-0.14897224307060242,-0.028139766305685043,0.15987960994243622,0.16573433578014374],[-0.0591251477599144,-0.1374495029449463,0.00841050036251545,0.03700663149356842,0.05129656940698624,-0.08936548233032227,-0.10419593751430511,0.47210344672203064,-0.11622561514377594,0.2057979851961136,-0.2915082573890686,-0.36062341928482056,0.09502129256725311,0.14715434610843658,-0.11907003074884415,-0.059767816215753555,0.12185613811016083,0.321611225605011,-0.10404500365257263,-0.23502075672149658,0.09558142721652985,0.43111446499824524,0.10944262892007828,0.14201737940311432,-0.027832601219415665,0.12966619431972504,-0.023717807605862617,0.1744595170021057,-0.22058264911174774,-0.024799101054668427,-0.2323351800441742,-0.22837872803211212,0.20318184792995453,-0.13979744911193848,-0.29001176357269287,0.032516591250896454,0.23043601214885712,-0.17467433214187622,-0.025935929268598557,-0.030260246247053146,-0.0910472720861435,0.0041483063250780106,0.17430825531482697,-0.12690848112106323,-0.10156401246786118,-0.2356983721256256,-0.08094388991594315,0.10549984127283096,0.32152941823005676,-0.10143638402223587,-0.09791853278875351,0.0997975766658783,-0.19110968708992004,-0.2310405969619751,0.07596620172262192,-0.3729165494441986,0.011701018549501896,-0.056485433131456375,0.1699647456407547,0.11843675374984741,0.15283344686031342,0.06824766099452972,0.11579433083534241,-0.305543452501297],[-0.04888193681836128,0.12120111286640167,0.123629629611969,0.22389209270477295,0.17949509620666504,-0.04256168007850647,0.05837549641728401,0.14080987870693207,0.12155389040708542,-0.09496316313743591,0.27852699160575867,-0.049800463020801544,-0.2643851935863495,0.13514848053455353,0.08866376429796219,0.21456244587898254,-0.12374021112918854,-0.2983090281486511,-0.04752085730433464,0.13597622513771057,-0.02630196139216423,0.028468409553170204,-0.043207280337810516,0.13250568509101868,0.19904549419879913,0.049865491688251495,0.2800479233264923,-0.28805503249168396,-0.11610789597034454,0.1265234351158142,-0.1465369462966919,-0.0940212830901146,0.02436448074877262,-0.2956128716468811,0.03736739605665207,-0.08508360385894775,0.29215800762176514,0.05846201628446579,-0.16668817400932312,-0.043808434158563614,-0.3290431499481201,-0.1040252074599266,4.7148674639174715e-05,-0.2015906125307083,0.23370638489723206,-0.15341629087924957,0.06110494211316109,0.13346993923187256,-0.0883975476026535,-0.3010154962539673,-0.18668368458747864,-0.05103303864598274,0.37524527311325073,0.24066340923309326,0.18428556621074677,-0.09226685762405396,0.15160706639289856,-0.024687612429261208,0.1706310212612152,0.44407418370246887,0.052180297672748566,-0.38332557678222656,0.08359003067016602,-0.09622467309236526],[0.04698421061038971,-0.10040917247533798,0.07123425602912903,0.09142287820577621,0.14734244346618652,0.24505779147148132,-0.03173070028424263,0.026495032012462616,0.047697436064481735,0.18236427009105682,0.0016698098042979836,0.08484185487031937,0.2334987223148346,-0.06513427942991257,-0.207516148686409,0.17060407996177673,-0.2527991533279419,0.06751766800880432,-0.07810870558023453,-0.15207190811634064,-0.011454200372099876,0.10780217498540878,-0.13541027903556824,0.11893671751022339,0.02329782024025917,-0.016985272988677025,-0.46704307198524475,0.03865069895982742,-0.2815806567668915,0.07752694934606552,0.02439020201563835,0.3662354350090027,-0.048167210072278976,-0.042565733194351196,-0.4485794007778168,0.15374481678009033,-0.33276596665382385,0.07559502869844437,-0.17981630563735962,-0.2815573215484619,-0.3773961067199707,-0.05456788092851639,-0.2580444812774658,0.08735271543264389,-0.1759541928768158,0.04741402342915535,0.04949571192264557,-0.05755695700645447,0.09655897319316864,-0.37223145365715027,-0.006990153808146715,-0.11728957295417786,0.31142759323120117,-0.017531169578433037,0.07446081936359406,0.22067120671272278,0.10412806272506714,-0.027021922171115875,-0.12376978248357773,0.15060295164585114,0.08936342597007751,0.20116157829761505,-0.24728842079639435,-0.07828791439533234],[0.1168798878788948,0.17940202355384827,-0.054103560745716095,0.08347389847040176,0.13596419990062714,-0.019257282838225365,-0.24181795120239258,0.07701968401670456,-0.039854925125837326,0.04314939305186272,0.10556226968765259,0.11574183404445648,0.05223725363612175,0.004158216994255781,-0.014075365848839283,0.05776669457554817,0.03274459391832352,0.09290970861911774,-0.2276608645915985,-0.5416960120201111,-0.33392053842544556,0.1743154376745224,-0.017338832840323448,0.1149367243051529,-0.2973359525203705,-0.28156718611717224,-0.2312488704919815,0.011616443283855915,0.1430143266916275,0.11069776117801666,-0.21976181864738464,-0.13439488410949707,0.02070949412882328,-0.14688174426555634,0.25220420956611633,-0.22358712553977966,0.02135823853313923,0.15631525218486786,0.15693651139736176,0.0604407973587513,-0.21656662225723267,-0.28678372502326965,-0.2170678824186325,0.21167075634002686,0.034725409001111984,0.03705347701907158,-0.04200282320380211,-0.18706919252872467,0.019248053431510925,-0.06894014775753021,-0.03385051712393761,0.03084430657327175,-0.03016962856054306,0.09761136770248413,-0.027827100828289986,-0.1468029022216797,0.0019589290022850037,-0.05898192524909973,0.04680866375565529,-0.3452766239643097,0.3266794979572296,-0.4379206895828247,0.1142645850777626,0.330600380897522],[0.05545009300112724,0.24045135080814362,-0.14149802923202515,0.0863012745976448,-0.07182800024747849,0.09071547538042068,-0.09195602685213089,-0.10659752786159515,-0.08595781028270721,-0.006805187091231346,0.1240815669298172,0.12213853001594543,-0.11169062554836273,0.3006128668785095,0.3132810592651367,0.1974899172782898,-0.14005576074123383,-0.3859323263168335,0.05052812397480011,-0.07741490751504898,-0.22732947766780853,0.3893826901912689,0.16516686975955963,0.05885551869869232,0.050879959017038345,-0.13451921939849854,0.0952870100736618,-0.016983479261398315,-0.1050276905298233,0.06343056261539459,0.059430208057165146,-0.1152164489030838,-0.030730674043297768,0.14829644560813904,-0.18328861892223358,0.021167658269405365,0.049615319818258286,-0.06879254430532455,0.044199854135513306,-0.22799979150295258,0.1934172660112381,-0.0441150926053524,-0.2977258563041687,-0.09777528792619705,-0.24538485705852509,0.3175361156463623,-0.03764277696609497,0.03709905222058296,0.04221770539879799,0.09535473585128784,-0.13071276247501373,0.33781376481056213,-0.28195106983184814,0.025201784446835518,0.08771359920501709,-0.3119218051433563,0.32536330819129944,0.007472900673747063,-0.44904375076293945,0.1097843125462532,-0.06315790116786957,0.29799070954322815,-0.01902518980205059,-0.06639304012060165],[0.3933697044849396,0.017354756593704224,-0.12117740511894226,-0.19697992503643036,-0.026653001084923744,0.22626060247421265,-0.12213296443223953,0.5511146783828735,0.1201457604765892,-0.02452915720641613,-0.06658012419939041,-0.3293493688106537,-0.21904830634593964,0.06986260414123535,0.11764251440763474,-0.19428758323192596,-0.1581476926803589,-0.04778444766998291,0.25836172699928284,0.16667857766151428,-0.11540134251117706,-0.24086318910121918,0.10818026959896088,-0.04415006935596466,-0.030715040862560272,-0.0482056550681591,0.08611572533845901,0.04622107371687889,-0.014931254088878632,-0.14261534810066223,0.009656109847128391,0.3171688914299011,0.030539151281118393,-0.1603691428899765,-0.29667070508003235,-0.07616642862558365,0.012662360444664955,0.03906923532485962,-0.054172810167074203,0.3527747094631195,-0.2860659956932068,0.0667901560664177,-0.24063481390476227,0.07766371220350266,-0.11281757801771164,-0.07407765090465546,0.22083422541618347,0.04566997289657593,-0.08436809480190277,0.13557283580303192,-0.31377100944519043,0.4382164478302002,-0.10472500324249268,0.0011415992630645633,-0.11382530629634857,0.16044333577156067,-0.022566022351384163,0.05246211960911751,-0.043166011571884155,-0.10347476601600647,0.17036961019039154,-0.059758346527814865,-0.06916067749261856,0.10747098177671432],[0.12442716211080551,0.0754198431968689,0.19237864017486572,0.029164744541049004,0.2032921463251114,0.09174276888370514,0.2476683259010315,-0.08155251294374466,-0.1366918683052063,-0.04332064837217331,0.04568621888756752,-0.2803041636943817,0.16092653572559357,-0.06763690710067749,0.08705854415893555,0.01040215790271759,0.23696866631507874,-0.2623877227306366,-0.13296929001808167,-0.28247982263565063,0.09704643487930298,0.3373863101005554,0.0746346190571785,-0.03657875955104828,0.08045552670955658,0.2072007954120636,0.025292066857218742,-0.08097600191831589,0.2198835015296936,0.2306172251701355,-0.029203476384282112,0.24139031767845154,0.18465948104858398,0.04726846143603325,-0.2865723669528961,-0.03354082256555557,0.2773180902004242,0.4089888334274292,-0.31603318452835083,0.17485612630844116,0.2663067579269409,-0.033463481813669205,0.24477222561836243,0.12060070037841797,-0.09890882670879364,0.03994010016322136,0.07905957847833633,0.27272114157676697,-0.16324113309383392,-0.24931742250919342,0.048143528401851654,0.13532912731170654,0.10606075823307037,0.23317714035511017,-0.22369161248207092,0.05372695252299309,-0.09981957077980042,0.029204024001955986,0.04656372219324112,-0.38271233439445496,-0.10676432400941849,0.08463523536920547,-0.046439602971076965,0.049602728337049484],[-0.17180436849594116,0.07365508377552032,-0.10051905363798141,-0.14015986025333405,-0.006874414626508951,-0.3610144555568695,0.11105063557624817,0.26033180952072144,0.02559497579932213,-0.06993971019983292,-0.3431355953216553,0.5465425252914429,-0.02187514118850231,0.07722235471010208,0.24113835394382477,0.035607170313596725,-0.020434947684407234,-0.06447814404964447,-0.11397456377744675,-0.06081799417734146,-0.009046655148267746,-0.12099765241146088,-0.03783348575234413,0.034710049629211426,0.06617517024278641,0.14236226677894592,-0.09080077707767487,-0.0787767693400383,0.052000585943460464,0.14233055710792542,0.2551545798778534,0.1405879110097885,0.08484045416116714,-0.008026478812098503,-0.10119928419589996,-0.14515937864780426,0.16042804718017578,-0.16946130990982056,0.16660702228546143,0.2073056548833847,-0.025030283257365227,-0.322918564081192,0.16712014377117157,0.11162359267473221,-0.20260940492153168,-0.1667761355638504,0.2900603413581848,-0.24686670303344727,0.17557384073734283,-0.3879956901073456,0.13762614130973816,0.2904200851917267,0.06106961891055107,-0.10148206353187561,-0.04806247353553772,-0.04506503418087959,-0.11749797314405441,-0.011757912114262581,-0.21451064944267273,0.014046268537640572,-0.19477427005767822,-0.23166534304618835,-0.23042745888233185,-0.24874626100063324],[0.017129845917224884,-0.13421480357646942,-0.11797013878822327,-0.1828306019306183,-0.22338660061359406,0.011449559591710567,-0.20814119279384613,-0.057302653789520264,-0.04343894496560097,0.1273656189441681,0.1470976024866104,-0.07178608328104019,-0.18030065298080444,-0.5157052278518677,-0.19985932111740112,-0.1060931533575058,0.12504394352436066,-0.1009153425693512,0.14926975965499878,0.17991936206817627,-0.22251316905021667,0.547393262386322,-0.32368186116218567,0.09475351125001907,-0.31191056966781616,0.06385435163974762,0.19743803143501282,-0.14150911569595337,-0.25939807295799255,-0.07862584292888641,0.020602699369192123,0.08931661397218704,-0.061980996280908585,-0.1926504671573639,0.07922089099884033,-0.026608435437083244,0.15738144516944885,0.04404343292117119,-0.005585737992078066,0.25478166341781616,0.0459103025496006,-0.19568632543087006,-0.09060824662446976,0.06710635870695114,0.11805731803178787,0.21263788640499115,0.17681282758712769,-0.06817647069692612,-0.1418384462594986,-0.08691167086362839,0.28682294487953186,-0.023868586868047714,0.2401503026485443,-0.38188982009887695,-0.04840406775474548,-0.07892034202814102,-0.04466177895665169,0.18046675622463226,-0.1033647432923317,0.023063765838742256,-0.17198209464550018,0.008171163499355316,0.08176843076944351,-0.12168767303228378],[0.4135218858718872,0.004861901514232159,-0.011395761743187904,0.24097152054309845,-0.1864740252494812,-0.2235836237668991,0.05899246409535408,0.11374001204967499,0.01665312796831131,-0.24148139357566833,0.05463049188256264,-0.02871815674006939,0.02325054071843624,0.314258337020874,-0.2002248615026474,-0.1692778766155243,0.050933875143527985,0.04292413964867592,-0.30857589840888977,0.18409287929534912,-0.00418994203209877,0.16557759046554565,0.23250137269496918,0.21644452214241028,0.002747779944911599,0.09750659018754959,0.08967527002096176,-0.15056705474853516,-0.06958790868520737,0.07239970564842224,-0.3005760908126831,0.0547846183180809,0.010095524601638317,0.1240025982260704,-0.06845869868993759,-0.13023485243320465,-0.39207130670547485,0.006484667770564556,0.07136736065149307,0.07098014652729034,0.12388695776462555,-0.37971237301826477,-0.07014437764883041,-0.29819124937057495,-0.12732991576194763,0.08058667182922363,-0.04302555322647095,-0.19003552198410034,0.25126245617866516,0.1587422788143158,0.04742587357759476,-0.07223048806190491,0.07232410460710526,0.10510943084955215,-0.2131756693124771,0.482033371925354,-0.1583983451128006,0.013212688267230988,-0.10185448080301285,0.11329704523086548,-0.18290524184703827,0.05417553335428238,0.3271704912185669,-0.06446833163499832],[0.4159195125102997,0.0036703082732856274,-0.3586484491825104,0.11734772473573685,-0.04320139065384865,0.052981048822402954,0.24823832511901855,0.27521976828575134,-0.005062785465270281,0.24474559724330902,0.14785879850387573,0.0991038978099823,0.05417174473404884,0.09951489418745041,0.10140049457550049,0.09503389149904251,0.14529716968536377,0.036890480667352676,-0.025945056229829788,-0.023777903988957405,-0.34944331645965576,-0.027094632387161255,-0.14457657933235168,-0.4226262867450714,0.03972022607922554,0.1436537653207779,0.03157994523644447,-0.011177935637533665,-0.19797088205814362,-0.12481575459241867,-0.015606716275215149,-0.026203492656350136,-0.13854247331619263,-0.06614948064088821,0.13458018004894257,-0.2822122573852539,0.29024264216423035,0.10856751352548599,0.19849315285682678,-0.2404383271932602,-0.049806248396635056,0.22365112602710724,0.3421367406845093,0.0019420379539951682,-0.18583783507347107,-0.15332584083080292,0.1534915566444397,-0.10451490432024002,0.19458311796188354,0.06909429281949997,0.10602336376905441,-0.38019272685050964,0.032790038734674454,0.20546668767929077,0.21133899688720703,0.17883899807929993,0.1802002638578415,0.19780407845973969,-0.11433348804712296,-0.1078767329454422,-0.02589147910475731,0.2937525510787964,0.003921657335013151,0.035070840269327164],[0.3376797139644623,-0.242815300822258,-0.3046764135360718,0.064900703728199,0.13549508154392242,0.014085698872804642,-0.19977447390556335,-0.01129914540797472,0.17326760292053223,0.046534985303878784,0.1914292424917221,0.20736950635910034,0.0973113551735878,-0.07559329271316528,0.03927451744675636,-0.06604686379432678,-0.014418110251426697,0.052806828171014786,-0.13477542996406555,0.32496723532676697,0.12782230973243713,0.12599046528339386,0.1577928513288498,0.08787144720554352,0.2905401289463043,-0.091178759932518,-0.25438299775123596,-0.20326866209506989,-0.012143409810960293,-0.004651529714465141,0.08182048797607422,-0.09688762575387955,-0.12502403557300568,-0.1481914222240448,-0.13308635354042053,0.3560508191585541,-0.04924033209681511,-0.06845620274543762,-0.04642556607723236,0.12225832045078278,0.13950034976005554,0.04157938435673714,0.30219975113868713,-0.051660023629665375,0.44578874111175537,-0.22284916043281555,0.005308013409376144,0.14553964138031006,0.14068470895290375,-0.09502169489860535,0.26282453536987305,0.1992584764957428,-0.14236003160476685,0.019947079941630363,0.012864298187196255,0.014577249996364117,0.30014923214912415,-0.2644701302051544,-0.34590959548950195,-0.2448570430278778,0.23318591713905334,-0.07307292520999908,0.11417888849973679,0.12568223476409912],[-0.1510249525308609,-0.11887480318546295,0.010202296078205109,-0.04779844358563423,-0.06517384946346283,-0.11793357133865356,-0.1631917506456375,-0.01838366501033306,0.22645393013954163,0.17425976693630219,0.3399733603000641,-0.09822989255189896,0.043018076568841934,-0.24836339056491852,-0.3152305483818054,0.029693178832530975,0.08176497370004654,-0.05122266709804535,0.09180351346731186,-0.008295955136418343,0.11595089733600616,-0.003199963830411434,0.025622686371207237,-0.30755695700645447,0.28664594888687134,-0.027174996212124825,-0.03361796215176582,-0.09088556468486786,-0.11179220676422119,0.25804269313812256,0.04737243801355362,0.13388557732105255,0.004156091250479221,0.15319453179836273,0.08552349358797073,-0.07530342042446136,0.21262024343013763,-0.06798198074102402,-0.0018786930013448,0.08208965510129929,-0.012223873287439346,-0.1109348013997078,0.11163391917943954,-0.16320191323757172,-0.3970998525619507,0.13377447426319122,0.10078443586826324,-0.18771950900554657,0.11101469397544861,0.05035143345594406,-0.014855289831757545,-0.011799211613833904,-0.20822006464004517,0.24477766454219818,-0.4038284718990326,-0.21117272973060608,-0.2761087417602539,-0.205267995595932,-0.1199973076581955,0.38885697722435,0.41703706979751587,-0.009077665396034718,-0.09545654058456421,0.2645159661769867]],"b":[-0.01560118142515421,-0.008625389076769352,-0.009655517525970936,-0.020066842436790466,0.013298111036419868,0.024004148319363594,-0.01138518936932087,0.009502443484961987,-0.01634729653596878,0.017469655722379684,0.0010181334801018238,0.021308770403265953,-0.010352798737585545,0.023960338905453682,-0.020871352404356003,0.016179334372282028,0.01905609294772148,0.004235218279063702,-0.007368960417807102,-0.02385053038597107,-0.008369899354875088,1.0825126082636416e-05,0.016631029546260834,0.029505955055356026,0.016019875183701515,-0.008527697063982487,0.007044114172458649,-0.01220620609819889,-0.007442686706781387,-0.006285697687417269,-0.021339576691389084,-0.015178604982793331,0.015288925729691982,-0.018652379512786865,-0.0004999060183763504,0.0034158737398684025,-0.013382474891841412,-0.023616492748260498,0.02188188023865223,-0.013054579496383667,-0.02059062197804451,0.028451796621084213,0.020800642669200897,0.012636842206120491,0.02516194060444832,-0.007931465283036232,-0.024220682680606842,0.016104163601994514,-0.014278288930654526,0.006322888191789389,0.024955833330750465,-0.004795372951775789,0.002972993766888976,0.003947749733924866,-0.010808506980538368,0.0215741153806448,0.0018949208315461874,-0.02123802900314331,4.988271393813193e-05,-0.02417406253516674,0.014949396252632141,0.03402199596166611,0.02461251989006996,-0.015596766024827957],"act":"tanh"},{"W":[[-0.05504286661744118,-0.0584910549223423,0.06591401994228363,0.049427580088377,-0.08484421670436859,-0.01283780112862587,-0.08492284268140793,0.0578264519572258,-0.03456312045454979,-0.05128876492381096,-0.08482091873884201,0.01949130743741989,-0.07537975907325745,-0.04215691238641739,0.01860286109149456,0.044612448662519455,0.02877214550971985,-0.07333249598741531,-0.08566445112228394,0.0065402560867369175,0.08216910809278488,-0.0711832270026207,0.029110567644238472,-0.0007038248004391789,0.08782756328582764,-0.08598073571920395,-0.06877478212118149,-0.06324107944965363,0.06559160351753235,0.0588507354259491,0.0069319200702011585,-0.04013197869062424,0.0431731753051281,-0.018787650391459465,0.066998690366745,0.06155044957995415,-0.07004434615373611,-0.0033975704573094845,-0.005412758328020573,-0.029901981353759766,-0.022011809051036835,-0.042079370468854904,-0.0011991094797849655,-0.05988181382417679,0.03854317218065262,-0.07029590755701065,0.02716417796909809,-0.05787172168493271,-0.00683938292786479,0.064199298620224,-0.029418054968118668,-0.0871642529964447,-0.06952030211687088,-0.0704893171787262,-0.05749611184000969,-0.024116026237607002,-0.06873086839914322,-0.048081256449222565,-0.06780806183815002,0.007969394326210022,0.03202628716826439,0.044455356895923615,0.0034887732472270727,0.006071457173675299],[-0.04775166139006615,-0.04914558306336403,-0.03077763319015503,-0.04403654858469963,0.00037873099790886045,0.07628756016492844,-0.0065650660544633865,0.03816327825188637,-0.06980530172586441,0.03319277986884117,-0.01698208786547184,0.060034915804862976,0.004042588174343109,0.05607319250702858,-0.0611097477376461,0.04975340515375137,0.07284249365329742,0.02526025101542473,0.004975674208253622,-0.06617682427167892,-0.009560119360685349,-0.004602292086929083,0.06472169607877731,0.0703621655702591,-0.006112460978329182,0.002083316445350647,0.008846142329275608,-0.03605211153626442,-0.019168242812156677,-0.04310639202594757,-0.08450215309858322,-0.05296894162893295,0.04995060712099075,-0.07294052839279175,0.023005520924925804,0.026864586398005486,-0.014570523053407669,-0.07793255895376205,0.08250684291124344,-0.07419584691524506,-0.06903573870658875,0.058117903769016266,0.05348445102572441,0.046982284635305405,0.06112892925739288,-0.022333649918437004,-0.06488160789012909,0.03570282459259033,-0.08629132062196732,0.03518546745181084,0.07265125960111618,-0.009788082912564278,-0.03644806891679764,0.023933852091431618,-0.04592708870768547,0.05959348753094673,0.029600782319903374,-0.04902026057243347,-0.012577369809150696,-0.07139039039611816,0.07117763161659241,0.06569597125053406,0.078245609998703,-0.03489779308438301]],"b":[-0.015305313281714916,0.04166622832417488],"act":"none"}]}