{"tier":5,"obs_dim":9,"act_dim":2,"layers":[{"W":[[-0.32447677850723267,-0.14323307573795319,0.1713591068983078,0.09051091223955154,0.28171423077583313,0.37604063749313354,0.20332249999046326,-0.04721187427639961,-0.516254723072052],[-0.09113716334104538,-0.15531380474567413,-0.07037847489118576,0.05040859803557396,0.03414412587881088,0.14486050605773926,0.21954667568206787,-0.025099555030465126,0.348663330078125],[-0.03433401510119438,0.0664239376783371,0.16095790266990662,0.15830013155937195,-0.15690499544143677,0.1214882954955101,-0.00030729486024938524,-0.17935024201869965,0.18980905413627625],[-0.0344291552901268,0.24250249564647675,0.004790886305272579,0.08364220708608627,0.045091412961483,0.16602040827274323,-0.5102023482322693,-0.15419480204582214,-0.03861376270651817],[0.09725727140903473,0.0841381624341011,-0.19366315007209778,-0.14819331467151642,-0.052174512296915054,-0.3997265100479126,-0.054480794817209244,0.2773444354534149,-0.18777932226657867],[-0.053990114480257034,-0.012195208109915257,-0.14271831512451172,0.18664810061454773,-0.1116136908531189,0.33866432309150696,-0.08350323140621185,-0.01626492477953434,-0.10847427695989609],[-0.3158835470676422,0.10489509254693985,-0.11532317847013474,-0.31814974546432495,-0.16234362125396729,-0.08868763595819473,0.22728340327739716,0.020624525845050812,-0.008541627787053585],[0.12045692652463913,-0.25264474749565125,0.08526641130447388,0.1607346087694168,-0.22689545154571533,0.3523322343826294,0.06549714505672455,-0.0704292356967926,0.24589747190475464],[0.18567195534706116,0.23953767120838165,0.03907398506999016,-0.09355023503303528,0.23700353503227234,-0.3624328076839447,-0.08499041944742203,-0.35321301221847534,-0.04346025362610817],[-0.16311435401439667,-0.1731957495212555,0.09292018413543701,-0.012273619882762432,-0.15354079008102417,0.12453638762235641,-0.28721994161605835,0.07923722267150879,0.0038195832166820765],[-0.21627801656723022,-0.13544882833957672,-0.033295705914497375,-0.21078264713287354,0.20083224773406982,-0.133802592754364,0.17525987327098846,-0.18303996324539185,-0.03651432320475578],[-0.03924073278903961,-0.027014603838324547,-0.1843813806772232,0.07308422774076462,-0.020800523459911346,-0.25844356417655945,0.17435158789157867,0.25374189019203186,-0.032649580389261246],[0.2894528806209564,0.31431737542152405,-0.15177397429943085,0.15131910145282745,0.09880409389734268,-0.18055298924446106,0.1847590059041977,0.2302895188331604,-0.13413308560848236],[0.1705230325460434,-0.1213732585310936,-0.1419050246477127,0.09262446314096451,0.03766965493559837,0.04185083135962486,-0.1459631621837616,-0.15675505995750427,0.04571964591741562],[-0.038636256009340286,-0.23876485228538513,0.03721415996551514,-0.192064106464386,-0.20274367928504944,0.031700607389211655,-0.04432256519794464,-0.20859649777412415,0.17357192933559418],[-0.007669415790587664,0.07096180319786072,-0.33066630363464355,0.013075628317892551,0.16126976907253265,-0.10737312585115433,0.17890281975269318,0.06741853058338165,-0.30879464745521545],[0.040624506771564484,-0.0800032839179039,-0.23014742136001587,0.35976216197013855,-0.07575999200344086,0.3265398144721985,-0.4246674180030823,-0.10153926908969879,-0.2301313281059265],[0.11009449511766434,-0.017413226887583733,0.12059338390827179,-0.0784999281167984,-0.11289069801568985,-0.08532308042049408,-0.25136464834213257,-0.4128012955188751,0.03334888815879822],[0.02217124216258526,-0.13753587007522583,-0.1302720308303833,-0.10497482866048813,-0.2848784625530243,-0.17864271998405457,-0.02229856140911579,0.1090528592467308,-0.5906875729560852],[0.19973276555538177,-0.25145822763442993,-0.24802207946777344,-0.0126378508284688,-0.13382866978645325,0.5183627009391785,-0.1059921383857727,-0.0755634754896164,-0.049506381154060364],[0.19836683571338654,0.12813487648963928,0.3730701506137848,-0.07585819065570831,-0.14829587936401367,-0.07009270042181015,-0.21330702304840088,-0.020859412848949432,0.410943865776062],[0.1982264369726181,-0.3602166175842285,0.1445542871952057,-0.11254386603832245,-0.1440216451883316,-0.06834165006875992,-0.2181919813156128,-0.13563339412212372,0.3230174779891968],[-0.1785351186990738,0.09121699631214142,-0.14157900214195251,0.23515623807907104,-0.1398775279521942,-0.14363767206668854,-0.22433747351169586,0.00906620267778635,-0.080045185983181],[-0.6001042723655701,0.05936378240585327,-0.13140438497066498,0.03149612620472908,-0.2879737615585327,-0.10652010887861252,0.14269401133060455,0.12592047452926636,0.030261896550655365],[-0.036960747092962265,0.3653031289577484,-0.0381777361035347,0.043163497000932693,-0.3196954131126404,-0.20987264811992645,0.37510406970977783,-0.1720348596572876,0.19594983756542206],[0.07534105330705643,-0.27241429686546326,-0.005921488162130117,0.04598141461610794,0.06576068699359894,0.08491507172584534,-0.28689950704574585,0.013537188060581684,0.021342527121305466],[0.08755180239677429,0.04241989180445671,-0.08786715567111969,-0.14826790988445282,-0.32122471928596497,-0.06962279230356216,-0.16721150279045105,-0.09644200652837753,-0.03702434152364731],[0.04019070789217949,0.13967499136924744,-0.23246139287948608,-0.21431617438793182,-0.1938038170337677,-0.25420570373535156,0.11154317855834961,0.27912071347236633,0.011129505932331085],[-0.05388816446065903,-0.07707125693559647,0.24222764372825623,0.059931088238954544,0.047302402555942535,0.11975354701280594,-0.27386602759361267,-0.2104763686656952,0.2776440382003784],[0.0131105687469244,0.005284647922962904,0.049052655696868896,0.08834002166986465,0.15659087896347046,0.41744136810302734,-0.3607216477394104,0.1720465123653412,0.19981563091278076],[-0.14168579876422882,0.11743923276662827,0.14236629009246826,-0.2125653475522995,-0.015463558956980705,-0.11216414719820023,-0.09316137433052063,0.05712008476257324,-0.16433748602867126],[-0.14009365439414978,0.22880105674266815,0.14065711200237274,-0.5251936912536621,-0.49926263093948364,0.14222553372383118,0.0951264277100563,-0.3462364077568054,0.21530450880527496],[-0.2953762114048004,-0.2081640511751175,-0.014823662117123604,-0.14612530171871185,0.2083490490913391,0.1082250326871872,-0.2936548888683319,0.17799735069274902,0.1775745004415512],[-0.007683806587010622,0.008783534169197083,-0.08392800390720367,0.056247275322675705,-0.3015991449356079,0.07739467173814774,0.16201837360858917,-0.18390803039073944,0.24155689775943756],[0.06780499219894409,-0.0317143052816391,-0.3081924617290497,-0.04070327803492546,-0.007818060927093029,0.038802143186330795,-0.11387549340724945,0.37833741307258606,0.07446923851966858],[-0.3338596224784851,-0.07773929089307785,0.21047593653202057,-0.157196044921875,-0.047933369874954224,-0.1661309152841568,-0.04470003396272659,0.13399755954742432,0.12749363481998444],[-0.1518031358718872,-0.03704966977238655,0.09531710296869278,0.19128362834453583,-0.1111074760556221,0.03671978786587715,0.05942178890109062,-0.14963115751743317,0.12075965851545334],[0.36688870191574097,-0.20575737953186035,0.195969358086586,0.2138260006904602,-0.20748445391654968,0.3574967682361603,0.09150901436805725,-0.1780979484319687,0.01906076818704605],[-0.02302798070013523,0.23586468398571014,0.21336768567562103,0.23812444508075714,-0.10580933839082718,-0.19320811331272125,0.20377899706363678,-0.2222607582807541,0.30748578906059265],[-0.3235897421836853,-0.17363983392715454,0.34457406401634216,-0.06280915439128876,0.028808992356061935,0.08806798607110977,-0.12484625726938248,0.22381377220153809,-0.06128481775522232],[0.2685145139694214,-0.15322206914424896,0.12655363976955414,-0.053765442222356796,-0.062191370874643326,0.21712256968021393,-0.027815578505396843,0.2940438389778137,-0.4105253219604492],[0.3123099207878113,-0.23013396561145782,-0.17945648729801178,-0.004890001378953457,-0.0490567646920681,0.3269755244255066,-0.062384579330682755,0.25059112906455994,0.001631398918107152],[0.12377520650625229,0.023607712239027023,-0.06494901329278946,-0.20684079825878143,0.3283653259277344,0.014509663917124271,0.05156650021672249,0.07736929506063461,-0.03333555534482002],[-0.15976659953594208,0.2725348472595215,0.3131358027458191,0.12204798310995102,-0.19812007248401642,0.12270833551883698,-0.010068897157907486,0.03767711669206619,0.2532428801059723],[0.24138788878917694,-0.5775200724601746,0.1988334357738495,-0.011648683808743954,-0.4234035611152649,-0.2430548071861267,-0.14711639285087585,-0.193696066737175,0.17984938621520996],[-0.2058047652244568,-0.023031137883663177,-0.15992312133312225,-0.0679725855588913,-0.21683552861213684,-0.04829968512058258,0.09204783290624619,-0.16603514552116394,0.41936519742012024],[0.14364619553089142,0.00032285822089761496,-0.10068944096565247,-0.06380569189786911,-0.10537119954824448,0.08569194376468658,0.026301342993974686,-0.2706291675567627,0.027140917256474495],[0.13619501888751984,0.002667700406163931,-0.12207399308681488,0.3748110234737396,0.1247682049870491,-0.05146292597055435,0.06257106363773346,0.0725216343998909,0.02315371297299862],[-0.4153013229370117,-0.1512921005487442,-0.3093056082725525,0.24711959064006805,-0.14921796321868896,0.06869841367006302,-0.25009095668792725,0.11084585636854172,0.12742692232131958],[-0.14963220059871674,0.07874246686697006,0.029032740741968155,0.2724890410900116,-0.05761416256427765,-0.009428327903151512,-0.22246797382831573,-0.39517414569854736,0.21030059456825256],[0.08206477016210556,-0.11296696960926056,-0.15921279788017273,0.12178193032741547,0.0003798204124905169,0.016115188598632812,-0.183069109916687,-0.38344988226890564,0.4131937623023987],[0.3458777666091919,0.14554929733276367,-0.024434400722384453,-0.4910206198692322,0.025766732171177864,0.02000914141535759,0.28030693531036377,-0.09601087123155594,0.14702916145324707],[0.2070958912372589,-0.028921179473400116,-0.04981306940317154,-0.1604575663805008,0.02161223068833351,-0.316966712474823,0.07668356597423553,0.04545439034700394,-0.08292949199676514],[-0.07628219574689865,-0.06354521214962006,0.2540881335735321,-0.1315329521894455,0.23406852781772614,-0.2827065885066986,0.3146461248397827,-0.06214581057429314,-0.24008536338806152],[0.21200677752494812,0.2596096992492676,-0.14724208414554596,0.04445569962263107,-0.1380496621131897,-0.11591490358114243,0.08263972401618958,0.30366289615631104,-0.05304921790957451],[-0.23632267117500305,0.13859914243221283,-0.30484554171562195,-0.07431583106517792,0.12442631274461746,0.002433517249301076,-0.11517288535833359,0.2056272178888321,-0.15562187135219574],[-0.0165267251431942,0.10048939287662506,0.22010429203510284,0.037362921983003616,0.2042692005634308,0.03167666867375374,-0.05745610222220421,0.1502947062253952,0.2403586357831955],[-0.19120122492313385,-0.0019813457038253546,-0.04574757069349289,-0.4255916476249695,0.10311940312385559,-0.21554690599441528,0.5062302947044373,-0.21592900156974792,0.13698317110538483],[0.031804293394088745,-0.3848065733909607,-0.2699207663536072,-0.07898539304733276,0.3478997051715851,-0.1293131560087204,-0.17005890607833862,0.42299047112464905,0.08227115124464035],[0.16155382990837097,0.09567279368638992,0.08035032451152802,-0.04838794469833374,-0.04266966134309769,-0.30254635214805603,0.4524228572845459,-0.03652673959732056,0.06622958928346634],[-0.22377024590969086,-0.07696977257728577,-0.11362559348344803,-0.24078711867332458,0.01311466470360756,0.14333276450634003,-0.07237870246171951,-0.31755903363227844,0.10167654603719711],[0.3664937913417816,0.06358198076486588,-0.15196676552295685,0.04999615252017975,0.05684691667556763,0.22211326658725739,-0.10183402895927429,0.21831247210502625,-0.04204431176185608],[0.00385025842115283,0.02107205055654049,-0.24593883752822876,-0.022331420332193375,0.20426174998283386,0.10364364087581635,0.15457980334758759,0.14304295182228088,-0.15096211433410645],[0.06651580333709717,0.030818721279501915,0.5401889681816101,0.10197584331035614,-0.043434854596853256,0.006065819412469864,-0.07578179985284805,-0.12582474946975708,0.5160914659500122]],"b":[-0.01161883119493723,-0.05695028975605965,0.00031273727654479444,0.049590375274419785,0.010517347604036331,-0.014343729242682457,-0.03027351200580597,-0.005685373675078154,0.0530480332672596,-0.0015007860492914915,0.0029349657706916332,-0.020729048177599907,-0.00877499021589756,0.01948743686079979,0.004702269099652767,0.00266257650218904,0.014035970903933048,0.0324733667075634,0.03943420946598053,0.0067914812825620174,0.0016689730109646916,0.01949298195540905,0.01333636324852705,-0.035956140607595444,-0.01257998589426279,0.002468744060024619,0.00470680883154273,-0.02250145934522152,0.0006588572287000716,-0.02196555957198143,0.004327751696109772,-0.01050661038607359,-0.04245993494987488,-0.02103457786142826,-0.02451457642018795,-0.00671341409906745,0.005295304581522942,0.027112791314721107,-4.349574737716466e-06,-0.048612505197525024,-0.025443004444241524,-0.0027742250822484493,-0.00130803557112813,-0.033086199313402176,0.05000726133584976,-0.016189193353056908,0.03078288398683071,0.022907542064785957,-0.012423788197338581,0.020447636023163795,0.019616039469838142,0.021409235894680023,0.033870305866003036,0.02524576708674431,0.002461441559717059,-0.01714889332652092,0.0007982036331668496,-0.010050889104604721,0.005456455983221531,0.002228459808975458,0.002686556428670883,0.004742358811199665,-0.025737140327692032,0.005781123414635658],"act":"tanh"},{"W":[[-0.20941603183746338,-0.08754617720842361,-0.042369961738586426,0.0979914665222168,0.06362488120794296,0.31350934505462646,-0.02150607481598854,0.24710199236869812,0.16992677748203278,0.004332493059337139,0.042890869081020355,-0.0545179657638073,0.07236676663160324,0.27317625284194946,-0.037975843995809555,-0.09039855748414993,0.08292458206415176,-0.221256822347641,-0.07789789885282516,0.2751776874065399,0.21387477219104767,0.11790734529495239,0.060456156730651855,0.18972937762737274,0.18958567082881927,0.15013042092323303,0.018006574362516403,-0.3254542052745819,-0.07647482305765152,0.08012265712022781,-0.0836537703871727,-0.3623931407928467,0.3747132122516632,0.16126789152622223,-0.18701747059822083,-0.11101706326007843,-0.3286210000514984,0.007612915709614754,0.37471505999565125,0.04304889589548111,-0.02997034415602684,-0.056849155575037,-0.03389592468738556,0.023448972031474113,0.01774117909371853,-0.12821334600448608,-0.035329222679138184,-0.09778140485286713,0.3571518659591675,0.21505042910575867,-0.17556342482566833,-0.014089209027588367,-0.25257235765457153,-0.3638688921928406,-0.07444590330123901,-0.15902088582515717,-0.23013676702976227,-0.21381400525569916,-0.07539739459753036,0.28961068391799927,0.17077183723449707,0.2097015529870987,-0.2040713131427765,-0.023067805916070938],[-0.38981959223747253,-0.24127523601055145,-0.1616562455892563,0.05846518278121948,0.04733474925160408,0.3334946036338806,0.03237946704030037,-0.1587040275335312,-0.007551273796707392,0.2523825466632843,-0.05039210617542267,-0.19872231781482697,0.19108082354068756,0.021099364385008812,-0.20754210650920868,0.02212635427713394,0.2362423837184906,0.1888086050748825,0.17395584285259247,-0.1229376494884491,0.2568744421005249,0.06305600702762604,-0.03058767504990101,0.24764250218868256,0.07173953950405121,0.023998746648430824,0.0400189571082592,0.34846439957618713,0.10581452399492264,0.12752440571784973,0.11493227630853653,0.13157902657985687,0.3354414403438568,0.08986067026853561,-0.018183257430791855,0.14205825328826904,0.03642046079039574,0.04044624790549278,0.0486726313829422,-0.025743018835783005,0.298900842666626,-0.396898478269577,0.1378326565027237,-0.13558505475521088,0.005389802623540163,-0.05795153230428696,-0.008909789845347404,0.19388242065906525,0.03962105140089989,-0.07435905933380127,-0.25425153970718384,0.0682680681347847,0.0791281908750534,-0.06945625692605972,0.08153095841407776,0.008905265480279922,0.20065303146839142,0.4206449091434479,-0.0221859160810709,-0.36003413796424866,-0.04656468704342842,-0.12476637214422226,0.024926766753196716,-0.10776444524526596],[-0.019190708175301552,0.03024640493094921,-0.0499018058180809,0.05136214196681976,0.025070764124393463,-0.2725050747394562,0.059205181896686554,0.1523749679327011,-0.06043644994497299,-0.11307743191719055,0.024164525792002678,0.008190806955099106,-0.08977308124303818,-0.06796829402446747,-0.009898772463202477,-0.3156428635120392,-0.29899221658706665,-0.12396454066038132,0.4254927337169647,-0.20645387470722198,0.0699014738202095,0.22769464552402496,-0.05798735097050667,0.30726516246795654,-0.0874008759856224,0.15640410780906677,0.4161207675933838,-0.023168880492448807,0.16572895646095276,-0.36562320590019226,-0.25296932458877563,0.15876080095767975,0.11341499537229538,-0.1027691662311554,-0.18048731982707977,-0.03862450271844864,-0.16555339097976685,0.08121616393327713,-0.2394304722547531,0.06134265288710594,0.0020609695930033922,0.11412406712770462,0.34629613161087036,0.043437618762254715,-0.16514261066913605,0.12046410143375397,0.24342522025108337,0.016535436734557152,0.036874253302812576,0.20880010724067688,0.0656246766448021,0.04789767041802406,0.13811540603637695,-0.29261845350265503,0.220133438706398,0.15782614052295685,-0.025401756167411804,0.3111223578453064,0.11715419590473175,0.2642126977443695,-0.12515820562839508,-0.12841591238975525,-0.16393671929836273,0.12550945580005646],[-0.14206339418888092,0.20228338241577148,0.049449555575847626,0.0031311381608247757,0.08313607424497604,-0.30779531598091125,0.13055643439292908,0.12092750519514084,0.4341483414173126,0.02562536671757698,-0.02786482311785221,0.07167576998472214,-0.056451745331287384,0.01257831696420908,0.12509366869926453,0.023542579263448715,-0.05822635442018509,0.08309410512447357,0.20503586530685425,-0.16022025048732758,0.03729851543903351,0.40588489174842834,-0.05032828822731972,0.015100591816008091,0.15300482511520386,-0.052582915872335434,-0.04921719804406166,0.22821038961410522,0.008008752018213272,0.04134885594248772,-0.021200105547904968,-0.05247131362557411,0.1054917573928833,-0.040333256125450134,-0.008531175553798676,-0.032525431364774704,-0.023038538172841072,0.23113839328289032,0.21480616927146912,-0.4020968973636627,0.09662148356437683,-0.23286530375480652,-0.09824073314666748,-0.24132855236530304,0.0585562139749527,-0.21675944328308105,-0.04794168472290039,0.1859150230884552,-0.5168711543083191,0.21155434846878052,0.3201063275337219,0.06552314013242722,0.34593841433525085,0.1829446703195572,-0.24017611145973206,-0.10504939407110214,0.017520278692245483,-0.07167240232229233,-0.20736823976039886,0.2782624065876007,0.006248611491173506,-0.28251975774765015,-0.256233811378479,-0.182479590177536],[-0.21244153380393982,-0.2072097212076187,-0.08416872471570969,0.09896419197320938,0.13659346103668213,-0.06145259737968445,0.0326261892914772,0.2944094240665436,0.0603330172598362,0.09388704597949982,0.08349500596523285,-0.3801550269126892,-0.10881068557500839,-0.30297020077705383,-0.24231073260307312,-0.09439869225025177,0.17548000812530518,0.19640161097049713,-0.09325432032346725,-0.07188185304403305,-0.24253353476524353,0.07681290805339813,0.18955683708190918,-0.1655881702899933,-0.27700701355934143,0.3225914239883423,0.3202379643917084,-0.0852828249335289,0.13902431726455688,0.048479851335287094,-0.08375845104455948,-0.28656378388404846,0.09983687102794647,0.017661821097135544,-0.16134057939052582,-0.1024017482995987,0.20360764861106873,0.2846757173538208,-0.013554300181567669,0.1818012297153473,0.18795041739940643,0.05317525938153267,-0.172347754240036,0.06547582894563675,-0.12199917435646057,0.13709871470928192,-0.051656920462846756,-0.24833008646965027,0.07193642109632492,0.12237191200256348,0.14946357905864716,-0.1207781508564949,-0.05006907880306244,0.1458532065153122,-0.10228921473026276,0.10028360784053802,0.07853468507528305,-0.32597941160202026,0.06429514288902283,-0.32166773080825806,0.5531814098358154,0.04430866241455078,-0.042184650897979736,0.20921044051647186],[-0.2166220247745514,-0.003490663366392255,0.16776065528392792,0.15742196142673492,-0.1318228393793106,-0.1605616807937622,-0.1512882262468338,0.12940040230751038,0.18088556826114655,0.034016162157058716,0.3411841094493866,-0.3496452569961548,-0.3397308886051178,0.2475300282239914,-0.0840383917093277,0.36408713459968567,0.06446761637926102,0.18180687725543976,0.31146949529647827,-0.02258959226310253,0.009601159021258354,-0.032605040818452835,0.08602812141180038,-0.09035851061344147,-0.10980574041604996,-0.04591604694724083,0.07089222967624664,-0.2722223699092865,0.11692014336585999,0.12494032084941864,-0.2503664791584015,0.1597699522972107,-0.34901806712150574,0.1612796187400818,0.2586923837661743,-0.1683802753686905,0.029294533655047417,0.03446492552757263,0.04880154877901077,-0.25004419684410095,0.050533320754766464,-0.2598380148410797,-0.06295572221279144,0.4850252866744995,0.274626225233078,-0.01838075928390026,0.12432439625263214,0.21014121174812317,0.006533551029860973,-0.02698865532875061,0.0310282651335001,0.09206382930278778,-0.22762556374073029,-0.2920854687690735,0.17324498295783997,-0.08635402470827103,-0.1244802176952362,0.03600448742508888,-0.15924601256847382,-0.06485580652952194,-0.05160010606050491,0.136005237698555,-0.10188116133213043,0.22675836086273193],[0.1376609355211258,0.020285574719309807,-0.0006792792119085789,-0.12740111351013184,0.06265559792518616,0.20346663892269135,0.009312448091804981,0.504519522190094,-0.18859921395778656,0.08539805561304092,-0.10831928253173828,0.3544805645942688,-0.15516667068004608,-0.100967638194561,-0.14498551189899445,-0.02516149915754795,0.1371341347694397,-0.14098277688026428,-0.016344480216503143,0.069142647087574,-0.113536536693573,-0.014762462116777897,0.25347134470939636,0.06125447899103165,-0.2553989589214325,0.19925808906555176,0.0921611413359642,0.05438336357474327,0.13907359540462494,0.09102864563465118,0.02377656102180481,-0.11453991383314133,-0.09669390320777893,-0.15422099828720093,0.18741950392723083,-0.06362240761518478,0.2918941378593445,0.0815555602312088,0.0037916977889835835,-0.3343508839607239,0.19127891957759857,0.022698264569044113,0.08228040486574173,0.1515621542930603,-0.02483273111283779,-0.19409410655498505,0.04743671417236328,-0.1710953414440155,0.11033337563276291,0.21874642372131348,-0.09564358741044998,-0.06462304294109344,-0.22944849729537964,-0.359683632850647,-0.10495840758085251,-0.20880678296089172,0.42762595415115356,-0.06652483344078064,-0.09985195100307465,-0.033163413405418396,-0.08771513402462006,0.10282715409994125,0.5149544477462769,-0.4105363190174103],[-0.19900380074977875,-0.06898950785398483,0.2503165602684021,-0.4054166376590729,0.08579817414283752,-0.3217337131500244,0.08818215876817703,-0.05897662043571472,0.12059332430362701,0.00617870781570673,0.14978057146072388,0.13026860356330872,0.23242555558681488,0.11743613332509995,-0.029007133096456528,0.01871006190776825,-0.12075468897819519,-0.3331105709075928,0.14753656089305878,-0.2623175084590912,0.13014626502990723,-0.36847344040870667,-0.12472895532846451,0.1464323103427887,0.11247939616441727,-0.19189265370368958,-0.12969069182872772,0.016986466944217682,-0.12531238794326782,0.04176916927099228,0.09359989315271378,-0.3386938273906708,0.20588189363479614,-0.38718730211257935,0.020741254091262817,-0.007120123598724604,0.3136226236820221,-0.2680369019508362,-0.2311648279428482,0.3848598897457123,-0.01947769522666931,-0.4472882151603699,0.013343839906156063,0.05657719448208809,0.06083660200238228,-0.05102885141968727,-0.10383304208517075,-0.060584455728530884,-0.2739469110965729,0.21250730752944946,0.10454575717449188,0.047599926590919495,0.011009667068719864,-0.05730048567056656,0.16681897640228271,0.17987221479415894,0.04499555006623268,0.04474938288331032,-0.0441783182322979,0.08116374164819717,0.1340547353029251,-0.0011279497994109988,0.24447250366210938,0.12792938947677612],[0.007567622233182192,-0.14802484214305878,-0.08539779484272003,0.01890222355723381,0.10967882722616196,-0.10631950944662094,-0.029329435899853706,0.17474499344825745,-0.32385921478271484,0.08588069677352905,0.19805268943309784,0.07145053893327713,-0.36087772250175476,0.009183594025671482,0.4281201660633087,-0.10879901051521301,0.09989644587039948,0.09614807367324829,-0.2281206101179123,-0.2587907612323761,0.32449811697006226,0.1402083933353424,0.15383605659008026,-0.12860794365406036,0.23028916120529175,0.17294630408287048,0.1792382299900055,0.13314449787139893,-0.04273900017142296,0.13784795999526978,0.32518941164016724,0.13711446523666382,-0.03629223257303238,0.07669063657522202,-0.15818363428115845,-0.024986622855067253,0.3090876340866089,-0.2427048683166504,0.0009946348145604134,0.009786930866539478,-0.22786372900009155,-0.18831521272659302,-0.043994396924972534,0.2563367187976837,-0.19777722656726837,0.2456669956445694,-0.0861704871058464,0.018181482329964638,-0.006545166950672865,0.18908895552158356,0.044757504016160965,-0.10290472209453583,0.029637765139341354,-0.19456958770751953,-0.13620209693908691,-0.11354783922433853,-0.2406228631734848,-0.07662887871265411,-0.46784302592277527,-0.015831274911761284,-0.22325316071510315,-0.12189500778913498,-0.4711909592151642,0.08338194340467453],[0.07307223975658417,-0.10115380585193634,0.2374008148908615,-0.1515781134366989,0.5690162181854248,-0.16477295756340027,-0.24251829087734222,-0.15267378091812134,-0.11309051513671875,-0.28639504313468933,-0.0465715266764164,0.09095371514558792,-0.08892993628978729,-0.2082938849925995,-0.2143208235502243,0.1907065212726593,0.11260708421468735,0.2874978482723236,0.08570832014083862,0.022742947563529015,-0.20766671001911163,-0.18864986300468445,-0.06919652223587036,0.0844535157084465,0.0077251712791621685,-0.020305629819631577,0.1561417281627655,0.17264309525489807,-0.24975532293319702,0.18709561228752136,0.2781418561935425,-0.003993592690676451,-0.18919000029563904,-0.16361886262893677,-0.3627399504184723,0.20199677348136902,-0.23945379257202148,-0.1705893874168396,0.13833199441432953,-0.08609567582607269,0.23488280177116394,0.008486962877213955,-0.23253801465034485,-0.2860916554927826,-0.07498302310705185,-0.03731778264045715,-0.193476140499115,0.11239279806613922,0.006016198080033064,0.011315545067191124,0.0822027251124382,0.06830581277608871,-0.04118742048740387,-0.18527279794216156,0.2831476628780365,-0.09740045666694641,-0.07773751765489578,0.24291063845157623,0.2091417759656906,0.3876970410346985,-0.012799665331840515,-0.016865454614162445,0.13930359482765198,0.04333649203181267],[-0.13203854858875275,-0.05573412403464317,0.20773564279079437,0.18137133121490479,-0.30923402309417725,0.026588506996631622,-0.2637833058834076,0.02240348421037197,0.033403415232896805,-0.0516461618244648,-0.23962707817554474,-0.1440526396036148,-0.2233368158340454,-0.061341650784015656,-0.09670540690422058,-0.17570920288562775,-0.3102589547634125,-0.4069008231163025,-0.1853557974100113,0.19978421926498413,-0.0868263691663742,-0.04380074143409729,-0.11561968177556992,0.13517214357852936,0.3293355107307434,0.17387358844280243,0.17446927726268768,0.12795193493366241,0.08066818118095398,0.09379412978887558,0.274161696434021,0.06043590232729912,-0.18415731191635132,-0.08272846043109894,-0.21259713172912598,-0.15894363820552826,0.041053157299757004,0.08971990644931793,-0.17964552342891693,-0.24950724840164185,0.021116236224770546,-0.06727869063615799,-0.12076743692159653,0.08962932974100113,0.1261732280254364,-0.08260247856378555,-0.021134406328201294,0.014388254843652248,-0.23262321949005127,-0.11376045644283295,-0.014019417576491833,0.3183801770210266,0.12279067933559418,0.08954364061355591,0.29030880331993103,0.14496032893657684,-0.11797545850276947,0.013023685663938522,-0.10741489380598068,-0.04470719397068024,0.23951268196105957,0.3207390010356903,-0.1630529761314392,-0.3441010117530823],[0.18556664884090424,-0.2325492650270462,-0.007165026850998402,-0.10551302134990692,0.10409623384475708,0.16020841896533966,-0.2900657057762146,0.3687017261981964,0.09209349751472473,-0.015605668537318707,0.0486970879137516,-0.0787690207362175,0.17013736069202423,0.07873300462961197,-0.0998559296131134,-0.08820584416389465,-0.11238958686590195,0.2277451604604721,-0.22703541815280914,0.24309632182121277,0.02456914447247982,0.13963636755943298,-0.27190977334976196,-0.056174904108047485,0.08984221518039703,0.12346531450748444,0.10643228888511658,0.07934515178203583,-0.16283446550369263,-0.04451718181371689,-0.0627099871635437,-0.3358938992023468,0.13747578859329224,-0.169557586312294,0.439670205116272,-0.06162339448928833,0.30423590540885925,0.184390127658844,-0.3355422914028168,-0.043656714260578156,0.19224539399147034,0.2190193235874176,-0.11304114758968353,-0.22681008279323578,0.10858579725027084,0.2566300630569458,0.19309107959270477,0.3262512683868408,0.09770994633436203,-0.2783278226852417,0.04819931462407112,0.29408738017082214,-0.14505602419376373,-0.09220000356435776,-0.1263531744480133,-0.002792343497276306,-0.08109865337610245,0.060374051332473755,-0.18299081921577454,0.09981591999530792,-0.19373805820941925,0.04543309658765793,-0.04097309336066246,0.2102871686220169],[-0.03638121485710144,-0.09151406586170197,0.06945007294416428,0.3041231632232666,-0.19867044687271118,-0.08316885679960251,-0.37230172753334045,0.0034360254649072886,-0.14873191714286804,0.26508989930152893,0.16771237552165985,-0.014077907428145409,-0.13249939680099487,0.2894229590892792,0.304673969745636,-0.37133023142814636,-0.09142565727233887,0.09040679782629013,0.18790921568870544,0.24259769916534424,-0.051731910556554794,0.22419951856136322,-0.19735471904277802,-0.3748091459274292,0.12998999655246735,0.026299288496375084,-0.016746025532484055,0.24184074997901917,-0.22280754148960114,-0.1413068026304245,-0.16576184332370758,-0.15953584015369415,-0.07990797609090805,-0.03161017596721649,-0.023735811933875084,0.09581898152828217,-0.15715359151363373,0.1872202754020691,0.0529392771422863,0.08186398446559906,0.0031817432027310133,-0.29167625308036804,-0.29240015149116516,0.08136401325464249,-0.018062720075249672,0.19204968214035034,-0.16418658196926117,-0.24513766169548035,0.15369689464569092,0.054575659334659576,-0.01578674465417862,-0.04373021051287651,0.14010784029960632,-0.19566325843334198,0.07824647426605225,-0.1407615840435028,0.15310737490653992,-0.08749884366989136,0.1934019923210144,-0.1527535617351532,-0.002854634542018175,-0.11358487606048584,0.37803444266319275,-0.042960599064826965],[0.027409862726926804,0.04213428869843483,0.052197616547346115,0.13047407567501068,-0.108295738697052,0.12361779063940048,-0.12996049225330353,0.1111692264676094,0.28045353293418884,0.09022895991802216,0.16566072404384613,-0.09405425190925598,-0.4014386236667633,0.0768810585141182,0.17424197494983673,-0.40724703669548035,0.016657225787639618,-0.00434690248221159,-0.30389198660850525,0.15875624120235443,-0.021793952211737633,-0.1650221049785614,0.13832765817642212,0.04798458144068718,-0.09289275854825974,0.011083525605499744,-0.184866800904274,0.06557919830083847,0.4960174560546875,0.16091136634349823,0.08407753705978394,-0.09837472438812256,0.3440287411212921,0.20144560933113098,0.15892745554447174,0.2928142845630646,-0.24060101807117462,0.08048304915428162,-0.11473977565765381,-0.12249815464019775,0.04236844927072525,0.20098097622394562,-0.0925779640674591,0.12110840529203415,-0.010919558815658092,0.03551127016544342,0.01446127612143755,0.00819381419569254,-0.08913581818342209,0.3149462938308716,0.37856531143188477,-0.09135552495718002,-0.6085314154624939,-0.040781084448099136,0.30123287439346313,-0.18104194104671478,0.07188425958156586,-0.06870948523283005,0.05075252056121826,-0.26036930084228516,-0.11245562136173248,-0.32407045364379883,-0.12727171182632446,0.22090083360671997],[-0.08740156143903732,0.3204781115055084,0.16815194487571716,0.08391541242599487,-0.04415595531463623,-0.26755279302597046,0.15294809639453888,0.1961139738559723,0.03682490065693855,0.39260607957839966,-0.20009784400463104,-0.04522641375660896,0.12105559557676315,0.0827433243393898,0.11186380684375763,-0.29957810044288635,0.07353632897138596,-0.02265244722366333,-0.16680395603179932,-0.05965513736009598,0.2227368801832199,-0.029536928981542587,0.012861538678407669,0.19292712211608887,0.20869779586791992,0.16408421099185944,-0.07016727328300476,-0.1384446918964386,-0.13814325630664825,0.2709065079689026,0.03162740543484688,0.18832074105739594,-0.2942918837070465,0.25834667682647705,0.12090998142957687,-0.27700960636138916,0.21609747409820557,0.20738457143306732,0.23511411249637604,-0.025683239102363586,0.3283063769340515,0.11772472411394119,-0.13450653851032257,0.025627147406339645,0.08156628906726837,0.31820157170295715,0.029360977932810783,-0.1340537667274475,-0.04638168588280678,-0.03310869261622429,-0.04775725305080414,-0.3254642188549042,-0.09490399807691574,-0.0699450671672821,0.21596910059452057,-0.11467594653367996,-0.23851291835308075,0.2641793489456177,0.01780443638563156,0.11323019117116928,0.24013854563236237,-0.36515873670578003,-0.05565541237592697,0.24659910798072815],[-0.09178188443183899,0.4981968104839325,0.09178275614976883,0.030951565131545067,-0.09376532584428787,0.21879467368125916,-0.2585272490978241,-0.015197087079286575,-0.16906419396400452,-0.19745604693889618,0.0892518162727356,0.1298050731420517,-0.10785846412181854,0.272431343793869,-0.022968890145421028,0.1667911559343338,0.17827758193016052,-0.14767353236675262,0.07126554101705551,0.013636531308293343,-0.28057941794395447,0.038123659789562225,0.23872584104537964,0.11141332983970642,0.16741570830345154,0.314630925655365,0.029280997812747955,0.15749546885490417,0.04543237388134003,-0.03252072259783745,0.025616904720664024,0.15374474227428436,0.27426624298095703,0.0724979043006897,-0.001508113811723888,0.1278100162744522,0.14315946400165558,0.033481720834970474,-0.15541696548461914,0.2299497127532959,0.36658069491386414,0.2445726841688156,0.03925640136003494,-0.017978934571146965,0.2874695658683777,-0.0718962773680687,-0.27105167508125305,0.029650583863258362,0.23293156921863556,-0.2667866051197052,0.275940865278244,-0.13714616000652313,-0.018064526841044426,-0.39311012625694275,-0.23995085060596466,0.24467040598392487,0.026323968544602394,-0.3858317732810974,-0.030927909538149834,-0.2224012315273285,0.09281452000141144,-0.12279947102069855,-0.01120536495000124,0.14582933485507965],[-0.23063068091869354,0.0031604329124093056,0.11711891740560532,-0.13386835157871246,0.13127712905406952,-0.038940299302339554,-0.09410929679870605,-0.07658342272043228,0.14119112491607666,-0.2707693576812744,0.010733812116086483,-0.049893543124198914,-0.10604200512170792,-0.18606360256671906,-0.030453070998191833,-0.13074134290218353,0.17156392335891724,-0.29163625836372375,0.05744633823633194,0.1907281130552292,0.3372446298599243,0.1893952339887619,-0.006830198224633932,-0.2853985130786896,0.14238521456718445,-0.14291329681873322,-0.19891364872455597,-0.020337313413619995,-0.2645023465156555,0.202462837100029,-0.21038755774497986,0.3342761695384979,0.0860828086733818,0.2402518391609192,0.2571694254875183,0.08070773631334305,0.09753421694040298,-0.02773960866034031,-0.1773504614830017,-0.2465379387140274,0.12043605744838715,0.19400285184383392,0.05617006495594978,0.10703027993440628,-0.38809970021247864,0.2166243940591812,-0.03372596949338913,0.15166321396827698,0.0882934108376503,0.20064200460910797,0.007218764163553715,0.10704106092453003,0.18932604789733887,-0.0731639489531517,-0.04350755736231804,-0.050196290016174316,0.34690073132514954,-0.18023446202278137,0.1648358702659607,0.11575400084257126,0.2528737783432007,0.19444535672664642,0.003935287240892649,0.15829837322235107],[-0.25033989548683167,0.3240339756011963,0.1341678649187088,-0.393489807844162,0.22822122275829315,0.32562291622161865,-0.015191014856100082,0.04590306058526039,0.0524863637983799,0.01740771345794201,0.014063799753785133,-0.03154078125953674,-0.28500086069107056,0.00846097618341446,0.1393813043832779,-0.11965956538915634,-0.22803330421447754,0.18949973583221436,-0.43891096115112305,-0.030625661835074425,0.20466788113117218,0.024166947230696678,-0.13639627397060394,-0.16616792976856232,0.15891806781291962,-0.013661850243806839,0.290249228477478,-0.18444301187992096,0.27482885122299194,-0.1244204193353653,-0.41104480624198914,0.32786959409713745,0.15835635364055634,-0.1708775758743286,-0.23466330766677856,0.17906132340431213,0.07753569632768631,0.17859850823879242,0.3475872874259949,-0.09469538182020187,-0.03252151608467102,-0.31613704562187195,-0.022347360849380493,0.2665494978427887,0.011354596354067326,0.2666304111480713,0.004366528708487749,0.03565312176942825,-0.3649960458278656,-0.05162670463323593,-0.06496794521808624,-0.11090391874313354,0.1192701905965805,0.07297111302614212,0.04582800343632698,0.00042501260759308934,-0.2907523512840271,0.03158877417445183,0.05169444531202316,0.01704340986907482,-0.08898758143186569,0.015463652089238167,0.10790406167507172,0.11826861649751663],[0.03958002105355263,0.1374494880437851,0.16876927018165588,0.11620461940765381,-0.11681011319160461,0.34487563371658325,0.08406375348567963,0.07718122005462646,-0.10010126978158951,0.5452502965927124,-0.16530662775039673,-0.06358063220977783,0.2180575579404831,0.16450364887714386,-0.19600430130958557,0.02752036787569523,-0.15211714804172516,0.040969960391521454,0.2741714119911194,0.15856759250164032,0.08286894857883453,-0.2600386440753937,0.10827846080064774,-0.11148775368928909,-0.15985484421253204,-0.07232703268527985,0.15358410775661469,-0.20960195362567902,-0.11106035858392715,0.15869101881980896,-0.0863843783736229,0.09506872296333313,-0.046361878514289856,-0.1593114286661148,-0.08988295495510101,0.46556413173675537,0.13716185092926025,-0.10793299227952957,-0.2801434099674225,-0.11735197901725769,0.10889479517936707,0.16852813959121704,-0.2927006483078003,-0.11758501827716827,-0.3393021821975708,-0.17191249132156372,0.21300271153450012,0.057574331760406494,0.19004420936107635,0.19059737026691437,0.28016629815101624,0.038343679159879684,0.0016560426447540522,-0.11469283699989319,-0.10971596091985703,-0.029045071452856064,-0.2726552486419678,-0.3439571261405945,-0.0033112927339971066,-0.11661746352910995,-0.014631816186010838,-0.011692749336361885,-0.05650145933032036,-0.07831887155771255],[0.16382268071174622,0.34704333543777466,0.061042219400405884,-0.11366555094718933,-0.1030072495341301,0.09252038598060608,-0.1786966174840927,0.13374948501586914,-0.011491269804537296,-0.007370060309767723,-0.43041956424713135,-0.11792241036891937,0.09023668617010117,0.04446237534284592,-0.0816606655716896,-0.48299941420555115,0.5895705223083496,0.22047853469848633,-0.021918054670095444,-0.19942452013492584,0.09956223517656326,0.20290230214595795,0.13370491564273834,-0.22581396996974945,-0.21252742409706116,0.2784462869167328,-0.09706053882837296,-0.06792248785495758,0.01815568283200264,0.09452689439058304,0.04499582201242447,-0.06283719092607498,0.02029760740697384,-0.0939965769648552,0.10158179700374603,-0.13408617675304413,-0.08086565136909485,-0.03831519931554794,-0.23872485756874084,-0.0539899505674839,-0.1641005426645279,-0.3550122380256653,0.06740085780620575,0.0743720754981041,0.02079547941684723,-0.3115394115447998,0.04042018949985504,-0.020669635385274887,0.19937174022197723,-0.23979520797729492,0.08821585774421692,0.2576791048049927,-0.18940900266170502,-0.03999244421720505,0.1891627460718155,0.0071590072475373745,-0.08917082101106644,-0.3554326295852661,0.29883328080177307,0.03526046499609947,-0.06984104216098785,0.08034920692443848,-0.06159787252545357,0.11308670043945312],[-0.17233261466026306,-0.2225961983203888,-0.10761363804340363,0.09920831769704819,0.23554688692092896,0.18399494886398315,-0.037943240255117416,0.08237546682357788,-0.39797139167785645,-0.23428623378276825,-0.2580238878726959,0.18826836347579956,-0.2559991180896759,-0.019563984125852585,-0.12925641238689423,-0.2073431760072708,-0.052760809659957886,0.2351604402065277,0.35240915417671204,0.007401155773550272,-0.21540623903274536,-0.20600305497646332,0.133540540933609,0.32779550552368164,-0.15275420248508453,-0.27618786692619324,-0.3084941506385803,-0.13187141716480255,-0.2897980809211731,-0.06184454262256622,-0.07890592515468597,-0.013807481154799461,0.3434657156467438,0.024204954504966736,0.2911043167114258,-0.09455101191997528,0.03920546919107437,-0.08056274056434631,-0.31040409207344055,-0.05169318616390228,0.11336550116539001,0.007215913385152817,-0.1332353800535202,0.1428234875202179,0.0812138170003891,0.02103070542216301,-0.2411712259054184,-0.11094902455806732,-0.055594928562641144,-0.04331853613257408,-0.15350142121315002,-0.08708066493272781,0.13179172575473785,0.3346001207828522,0.11788942664861679,0.01834425888955593,-0.305848091840744,-0.08563738316297531,-0.03418727591633797,0.029163934290409088,0.04483141005039215,-0.019244784489274025,-0.03059457242488861,-0.24509386718273163],[-0.22830694913864136,0.13269606232643127,0.002016284503042698,0.0725589394569397,0.01137693040072918,0.018252577632665634,-0.31924811005592346,0.0655956044793129,-0.09651671350002289,-0.03232814744114876,0.14140693843364716,0.03763900324702263,0.15971189737319946,-0.13834837079048157,-0.15724921226501465,0.15441767871379852,0.12337800860404968,0.12610450387001038,-0.3573530316352844,0.07654335349798203,-0.1484946608543396,0.2695377767086029,-0.2138397991657257,0.2876884937286377,0.0064306496642529964,0.19595050811767578,-0.15141338109970093,-0.16325753927230835,0.11158840358257294,0.0043176584877073765,-0.08928602188825607,-0.0720260739326477,-0.3371388018131256,0.13415585458278656,0.19155974686145782,0.1875438541173935,-0.010135950520634651,-0.1932770311832428,-0.2522164583206177,0.2365567535161972,-0.08491607755422592,-0.15011131763458252,-0.03313767910003662,-0.03237447887659073,-0.18880070745944977,-0.1078074499964714,0.10849368572235107,0.2462034821510315,0.16386868059635162,0.4146457016468048,-0.13904790580272675,-0.23829494416713715,0.10756313800811768,0.08903665095567703,0.16593943536281586,0.3472430109977722,-0.029514435678720474,-0.15105314552783966,0.014223054982721806,0.04129981994628906,-0.027285072952508926,-0.3164520561695099,0.06951476633548737,-0.3538484573364258],[-0.04943053796887398,0.2312062531709671,0.1852715015411377,0.17198455333709717,-0.13404694199562073,0.10647518932819366,-0.16943763196468353,0.003230883739888668,0.2301158607006073,-0.0011867614230141044,-0.025367623195052147,-0.11556737869977951,-0.186412051320076,0.10351281613111496,-0.1235462874174118,-0.14461976289749146,-0.06610096246004105,0.023491328582167625,-0.17680123448371887,-0.2692144513130188,0.0452585369348526,0.029158413410186768,0.13192352652549744,0.1929129958152771,-0.019296610727906227,-0.44142773747444153,0.4253792464733124,0.2722400724887848,0.17299269139766693,-0.14257611334323883,0.03377047926187515,0.08244802057743073,-0.02446666732430458,0.26649513840675354,-0.028089508414268494,-0.13067930936813354,0.2802360951900482,-0.18592801690101624,0.12055367976427078,0.41151756048202515,-0.08809599280357361,-0.015993578359484673,-0.37684619426727295,0.04767635837197304,-0.025876708328723907,0.04308093711733818,0.08630036562681198,0.1277778297662735,-0.032695114612579346,0.13004370033740997,-0.2497001737356186,0.046531617641448975,0.064053475856781,0.13650481402873993,-0.055357638746500015,-0.4450642466545105,0.29233023524284363,-0.06955935806035995,0.033536069095134735,0.30245912075042725,-0.04177653789520264,0.06084996834397316,-0.14470551908016205,0.16688194870948792],[0.05481422320008278,-0.06216055154800415,0.051669370383024216,-0.14584679901599884,-0.16138501465320587,0.2305263876914978,-0.0259013120085001,-0.032729022204875946,-0.2563157081604004,-0.1180204376578331,0.32644569873809814,-0.14068010449409485,0.0937943309545517,0.15280897915363312,0.14564000070095062,-0.026691140606999397,0.31200510263442993,0.14719164371490479,0.021186159923672676,0.07513143122196198,0.32589125633239746,0.0310222078114748,-0.007394337560981512,0.0745679959654808,-0.06133890524506569,-0.06436347961425781,0.024319849908351898,0.08723589032888412,0.4266388714313507,0.23274178802967072,0.0038969048764556646,-0.2665209174156189,-0.17949455976486206,-0.43286439776420593,0.19686707854270935,0.03669368103146553,-0.061550140380859375,0.20917081832885742,-0.20066232979297638,0.018431369215250015,0.08508972823619843,0.44876429438591003,-0.08987150341272354,0.31994137167930603,0.03344035521149635,-0.22065381705760956,-0.15403449535369873,-0.07954860478639603,0.01986476220190525,-0.05343024060130119,-0.03806151822209358,-0.07230939716100693,0.18510735034942627,-0.11234281957149506,-0.14515982568264008,-0.18093754351139069,-0.10830532014369965,0.055327218025922775,0.35728225111961365,0.1022983118891716,0.34907266497612,-0.06725867092609406,-0.19756202399730682,-0.21890312433242798],[0.025417303666472435,-0.12560325860977173,0.29827818274497986,-0.13935361802577972,-0.3849979639053345,-0.08758778870105743,-0.1374194473028183,-0.23731108009815216,-0.11942240595817566,-0.06399904936552048,0.04690360277891159,-0.12305286526679993,-0.16527549922466278,0.18649302423000336,-0.36910027265548706,-0.11675857752561569,0.13247622549533844,0.1141209676861763,-0.29862597584724426,-0.18404439091682434,0.22958682477474213,-0.0032969587482511997,-0.04237910360097885,-0.19711516797542572,-0.2605656087398529,0.325447142124176,-0.029884854331612587,-0.24444162845611572,-0.32832208275794983,-0.19665654003620148,-0.016635000705718994,0.0014260491589084268,0.14361098408699036,0.23010008037090302,-0.039396487176418304,0.21292898058891296,-0.11958524584770203,0.09252876788377762,0.03611387312412262,0.12893736362457275,0.12307566404342651,0.18567712604999542,0.17111682891845703,0.005124928429722786,0.1613859087228775,0.025450583547353745,0.186465322971344,-0.12747058272361755,-0.3565191924571991,0.11715532094240189,0.07211510837078094,0.027823474258184433,0.11912592500448227,-0.14346234500408173,0.011935554444789886,-0.3753540813922882,0.034969985485076904,0.06107277795672417,-0.3670836389064789,0.03233757242560387,0.08106843382120132,-0.09058428555727005,-0.030550489202141762,-0.1902002990245819],[0.09480133652687073,-0.24854199588298798,0.13770754635334015,0.10633072257041931,0.05909315124154091,-0.12493261694908142,-0.22904708981513977,0.014999689534306526,-0.15754744410514832,-0.08335769921541214,-0.09324502944946289,-0.00831899605691433,0.12666721642017365,0.21778441965579987,-0.06267485022544861,0.16701647639274597,0.008335811085999012,-0.2887971103191376,-0.23819801211357117,-0.09525985270738602,-0.0026416387408971786,-0.011235865764319897,0.16559739410877228,0.10945552587509155,-0.1835947185754776,0.09919000416994095,0.22207751870155334,-0.18572336435317993,0.07916013151407242,0.574492335319519,-0.028521843254566193,0.11062653362751007,0.11465303599834442,-0.03358858823776245,0.312766432762146,-0.06621775776147842,-0.2728322744369507,0.42379510402679443,-0.20899483561515808,0.08459911495447159,0.2136838585138321,-0.12543997168540955,-0.04008069634437561,-0.17922523617744446,-0.002951323753222823,-0.050777699798345566,-0.057579606771469116,-0.2895396649837494,0.14871707558631897,0.1412571668624878,0.05091455951333046,-0.09072412550449371,0.1720208078622818,0.12226638197898865,-0.2155204564332962,-0.05837719142436981,-0.06908329576253891,-0.1886269897222519,0.299500048160553,-0.19895657896995544,-0.544360339641571,0.21332092583179474,0.027134204283356667,0.06468649208545685],[-0.17181427776813507,-0.13209567964076996,0.269341379404068,0.36268138885498047,-0.014656891115009785,-0.25473299622535706,0.2945541739463806,-0.10355983674526215,-0.22448314726352692,-0.23547305166721344,-0.2108387053012848,-0.016448650509119034,0.019377969205379486,0.34302785992622375,-0.0485420897603035,-0.07775487750768661,0.21922679245471954,0.06399664282798767,-0.08358412981033325,-0.13802267611026764,-0.04699721187353134,0.2767561376094818,0.017580866813659668,0.03755643591284752,0.4172001779079437,0.013957974500954151,-0.20127028226852417,-0.0029502306133508682,0.5152745246887207,-0.17114388942718506,-0.2651555836200714,-0.028104281052947044,-0.11502348631620407,-0.07025112956762314,-0.12513312697410583,0.3753637373447418,0.16853730380535126,0.0086679607629776,0.0659421980381012,-0.17368078231811523,0.03639676794409752,-0.0441344752907753,-0.17666511237621307,-0.026753408834338188,-0.10477520525455475,0.21739482879638672,0.21024657785892487,-0.16856496036052704,-0.18344682455062866,-0.03226563706994057,-0.10645125061273575,-0.009560727514326572,-0.2785237431526184,0.06431994587182999,-0.10409002006053925,-0.04727879911661148,-0.002188893035054207,-0.017329305410385132,-0.2889246940612793,0.23075853288173676,-0.03005644679069519,0.15778763592243195,0.06322852522134781,0.26887384057044983],[0.03794598951935768,-0.1677713245153427,-0.15196360647678375,-0.10484270751476288,-0.006354773882776499,0.10151460766792297,-0.11679436266422272,-0.04829876869916916,0.06354653835296631,0.21998077630996704,-0.3746788203716278,0.07892817258834839,-0.03081926889717579,-0.11066926270723343,0.030139043927192688,0.14094027876853943,-0.15979458391666412,-0.008292485028505325,-0.15538127720355988,-0.21828758716583252,0.2162533849477768,0.4716804027557373,-0.058967798948287964,0.15831197798252106,-0.08619212359189987,-0.20976132154464722,-0.10296217352151871,0.07224902510643005,0.0913068875670433,0.13877220451831818,-0.2321876883506775,-0.09148924797773361,-0.3278558552265167,0.08611524105072021,-0.26220253109931946,0.2315555214881897,-0.06115757301449776,0.24166308343410492,-0.05972731113433838,0.026064490899443626,-0.04593226686120033,0.042818810790777206,0.138660728931427,0.2553645670413971,0.44604262709617615,0.22184538841247559,-0.31628507375717163,0.040052566677331924,0.10821075737476349,0.22394134104251862,0.197588711977005,0.16394345462322235,-0.0850243866443634,-0.1008831337094307,0.14624322950839996,-0.18670935928821564,-0.034461792558431625,-0.2726910412311554,-0.2802228629589081,-0.02432236075401306,0.16407862305641174,-0.03489134460687637,-0.022312454879283905,0.33861929178237915],[-0.156218022108078,0.2096269130706787,-0.02211110107600689,-0.419693261384964,-0.24257855117321014,0.07646722346544266,0.1046588122844696,-0.10356839746236801,-0.06258778274059296,0.014230740256607533,0.07816816866397858,-0.03945710137486458,-0.23114052414894104,0.3262999951839447,-0.21879075467586517,-0.23241768777370453,-0.06331120431423187,0.3408043086528778,-0.018437901511788368,0.1250690221786499,0.120647132396698,0.10894473642110825,0.014731203205883503,-0.023192984983325005,0.12410259991884232,-0.20513521134853363,0.041548073291778564,0.12437991052865982,0.1286216378211975,-0.025592222809791565,0.18060483038425446,0.01665477082133293,-0.21801799535751343,0.18587519228458405,-0.025421282276511192,-0.19365838170051575,0.01370393205434084,0.14961746335029602,0.29560190439224243,-0.09980928152799606,0.020457666367292404,0.0234625656157732,-0.08916515856981277,0.02845398522913456,0.03750278055667877,0.10388627648353577,-0.007525018882006407,-0.39572983980178833,0.23018667101860046,0.4651329517364502,0.22931063175201416,0.22275038063526154,0.12152742594480515,0.20887170732021332,-0.014732464216649532,0.4624173641204834,0.05880553647875786,0.21705912053585052,-0.36360517144203186,0.21764175593852997,-0.18403758108615875,0.04327298328280449,-0.06252605468034744,0.30843567848205566],[0.05119532346725464,-0.1414932757616043,0.10367409139871597,0.12113567441701889,0.07014185190200806,0.04480324685573578,0.038578975945711136,-0.048348601907491684,-0.05613686516880989,-0.08787904679775238,-0.006326741073280573,0.3568691611289978,0.10534082353115082,0.5101433992385864,-0.04442944377660751,-0.10507646948099136,0.13927610218524933,0.10710472613573074,-0.09499845653772354,0.1812278777360916,0.1194973960518837,-0.04013080149888992,-0.020705370232462883,0.04453864321112633,-0.2477581799030304,0.05458657443523407,0.006255359388887882,0.09928175806999207,0.20412039756774902,0.004389303270727396,-0.28375759720802307,0.02068740501999855,-0.1229323148727417,0.11632566899061203,-0.3253868520259857,-0.563401460647583,0.18833564221858978,-0.20847153663635254,-0.0206111092120409,-0.06833654642105103,0.07830549031496048,0.07994388788938522,0.19007541239261627,-0.18782290816307068,0.03827624395489693,0.23024755716323853,-0.023322811350226402,0.29703620076179504,-0.0067712715826928616,0.1907162219285965,0.26113659143447876,0.15746356546878815,0.08134167641401291,0.030706776306033134,0.06506093591451645,-0.21795208752155304,-0.12606632709503174,-0.1679237186908722,0.23421938717365265,-0.32466545701026917,0.07489553838968277,-0.036628615111112595,0.05850052461028099,-0.07603737711906433],[-0.014284186996519566,0.13603965938091278,0.0038360694888979197,-0.00422382727265358,0.21279561519622803,-0.17758147418498993,-0.021173469722270966,-0.19252896308898926,0.18466900289058685,-0.2337268590927124,0.1444370001554489,-0.15109564363956451,0.17310258746147156,0.053760726004838943,0.32886046171188354,-0.1385016143321991,-0.08425269275903702,0.1404518485069275,-0.16640901565551758,-0.14643271267414093,-0.040571052581071854,-0.11583682894706726,0.019559288397431374,0.35439786314964294,0.10180609673261642,-0.05281856656074524,-0.15304580330848694,-0.09202904999256134,-0.21628986299037933,-0.26474529504776,-0.05738472938537598,0.3370837867259979,-0.071990966796875,-0.5097729563713074,-0.055231429636478424,-0.11754436045885086,-0.005921620875597,0.2469293177127838,0.20601914823055267,0.04511932283639908,0.13081291317939758,-0.005670289043337107,-0.02932085283100605,0.08036763966083527,-0.2142859548330307,-0.16547593474388123,0.08954312652349472,0.06083432957530022,0.38808536529541016,0.08165310323238373,0.07443427294492722,0.20428958535194397,0.017171408981084824,0.18153056502342224,0.18323387205600739,-0.27009573578834534,0.16041025519371033,-0.03604985028505325,-0.4662072956562042,-0.22213026881217957,0.04827577620744705,0.03650888055562973,0.007746960502117872,-0.10485372692346573],[-0.1068422794342041,0.07310758531093597,0.1660996675491333,0.04695160686969757,-0.1700219362974167,-0.09034498035907745,0.00209234980866313,0.5617107152938843,-2.5621971872169524e-05,0.09582355618476868,-0.16141238808631897,-0.2587255835533142,-0.14601588249206543,-0.018729759380221367,0.16107428073883057,0.1200491413474083,0.667595386505127,-0.02042987570166588,0.04508375748991966,0.02600690722465515,0.05870397388935089,-0.028030944988131523,-0.07005612552165985,0.01610655151307583,0.02636795863509178,-0.14065133035182953,0.09021728485822678,0.23460040986537933,-0.0036430347245186567,0.08426652103662491,-0.05058716982603073,0.14928540587425232,0.22546279430389404,-0.06168457493185997,0.02364133670926094,0.04416688531637192,-0.2084013819694519,0.1236347034573555,0.11258304119110107,0.21017207205295563,-0.3328806757926941,0.4508303105831146,-0.08677259832620621,-0.04538464918732643,0.2478824257850647,0.23713810741901398,0.16601644456386566,0.08425027877092361,0.028151139616966248,0.274379700422287,0.06317096948623657,0.103524349629879,0.021867936477065086,-0.05554850026965141,0.061522502452135086,0.08348221331834793,-0.3016543984413147,-0.11310432851314545,-0.10037073493003845,-0.24426348507404327,-0.06549108773469925,0.15655304491519928,0.33590564131736755,-0.12812307476997375],[-0.3636547327041626,0.10107716172933578,-0.4323000907897949,-0.17497558891773224,-0.10315966606140137,-0.1544644683599472,-0.26267826557159424,-0.09596425294876099,-0.19916509091854095,-0.013782135210931301,-0.2986447811126709,0.16766797006130219,0.08502677083015442,0.208860382437706,0.23673702776432037,0.16750836372375488,-0.05241280049085617,0.004823367111384869,0.18330101668834686,-0.27199578285217285,-0.1352122575044632,-0.08535082638263702,-0.05351230502128601,-0.09131082147359848,0.1862063854932785,0.2545444965362549,0.19509217143058777,-0.17571625113487244,-0.04951903223991394,0.18350929021835327,0.0019038926111534238,-0.19097404181957245,0.08630761504173279,0.11674102395772934,-0.04911525174975395,0.17391473054885864,0.14561036229133606,0.022299345582723618,0.16500690579414368,0.05164603888988495,-0.052838731557130814,0.16546544432640076,-0.06442153453826904,0.2564840614795685,-0.12807491421699524,0.08478820323944092,0.1194080263376236,0.20591291785240173,0.045560285449028015,0.060711704194545746,0.2654103636741638,0.2370462864637375,-0.18922868371009827,0.3705984354019165,0.01223783753812313,-0.19445116817951202,0.17280414700508118,0.315643846988678,0.16886824369430542,0.07552415132522583,0.022425295785069466,0.08092556148767471,-0.03333437815308571,-0.14596883952617645],[0.13519513607025146,0.13516540825366974,-0.12037079781293869,0.35916683077812195,0.032738082110881805,0.0030676156748086214,-0.3095783591270447,0.18550008535385132,0.07891275733709335,-0.3726273775100708,-0.25720104575157166,0.1110793948173523,0.27819496393203735,-0.13864924013614655,0.02716527320444584,0.07854685932397842,-0.12933969497680664,0.3083999454975128,-0.04874192923307419,0.20638249814510345,0.4161110818386078,-0.21898910403251648,0.2470768839120865,3.7421930755954236e-05,0.14006038010120392,-0.1375211477279663,-0.14538033306598663,0.050679877400398254,0.05865952745079994,-0.11527477949857712,0.03612220287322998,-0.028564998880028725,-0.0613163597881794,0.19514834880828857,-0.0943293496966362,0.027470186352729797,0.057914022356271744,0.25148677825927734,0.23716090619564056,0.1830843836069107,-0.012229960411787033,-0.20239868760108948,-0.057190168648958206,0.38971588015556335,0.07316344231367111,0.08077932149171829,0.412851482629776,-0.14930012822151184,-0.33499062061309814,0.13902828097343445,0.2857651114463806,0.03429384157061577,0.18913604319095612,-0.24532632529735565,-0.10247144848108292,0.10227609425783157,0.030688151717185974,0.08369077742099762,-0.023401809856295586,0.010987512767314911,0.022437598556280136,-0.05218598619103432,-0.04978957399725914,0.11457578837871552],[0.406185120344162,-0.10033445805311203,-0.0542469248175621,-0.03849661722779274,-0.0001954239560291171,-0.15628595650196075,0.15451140701770782,-0.027733713388442993,0.06770064681768417,-0.13807015120983124,-0.09502633661031723,-0.2576197385787964,-0.04167250543832779,0.01840716227889061,-0.009801384061574936,0.00405457615852356,-0.12159544974565506,0.08460196107625961,-0.12937988340854645,-0.2741992473602295,-0.1761147528886795,-0.01351097971200943,0.11648866534233093,0.02705945074558258,0.43144896626472473,-0.21357472240924835,0.026986274868249893,-0.03639034926891327,-0.18997059762477875,-0.20870386064052582,-0.11563662439584732,-0.11600827425718307,0.013722587376832962,0.18662843108177185,0.10165991634130478,0.29605865478515625,0.4754387140274048,-0.02850414253771305,0.1622883379459381,-0.10012104362249374,0.07853472977876663,0.024556515738368034,0.22027719020843506,-0.08280150592327118,-0.01603557914495468,-0.32077544927597046,-0.30133384466171265,-0.03865459933876991,0.061781033873558044,0.30406075716018677,-0.15616528689861298,0.21583323180675507,0.14567886292934418,-0.18148604035377502,0.13180580735206604,0.07103942334651947,-0.24759535491466522,0.19783909618854523,0.40605562925338745,-0.22856564819812775,-0.040784645825624466,0.022863786667585373,-0.027889752760529518,-0.1322154700756073],[0.14197073876857758,-0.15910552442073822,-0.04325951263308525,-0.09613118320703506,0.22862432897090912,-0.006117686629295349,-0.07853884249925613,0.009425545111298561,-0.07170210778713226,0.001769566209986806,0.350588321685791,0.14154937863349915,-0.023462561890482903,0.2806294858455658,-0.14101746678352356,0.057601332664489746,-0.1821235865354538,-0.07318174093961716,0.18258847296237946,-0.15657219290733337,0.18794503808021545,0.15346723794937134,-0.08170942217111588,0.47762492299079895,-0.03612473979592323,0.17910367250442505,-0.014540965668857098,0.2299957126379013,-0.32909542322158813,-0.14628474414348602,0.30307143926620483,0.10838867723941803,-0.131086528301239,0.0656772032380104,0.1199299618601799,0.2073969542980194,0.06975749135017395,0.04319702461361885,0.3791724741458893,-0.11732269078493118,-0.2173180878162384,0.05761806666851044,0.10251939296722412,0.04591471329331398,-0.1831834465265274,-0.13470575213432312,0.21909940242767334,0.010307369753718376,-0.32319799065589905,-0.12478253990411758,-0.0988527312874794,0.12738007307052612,-0.15409620106220245,0.3467313349246979,0.02399275079369545,0.20971837639808655,-0.0942240059375763,-0.31555986404418945,0.3210141062736511,-0.060502346605062485,0.15215876698493958,0.03859807178378105,0.19190700352191925,0.14887870848178864],[-0.47086942195892334,-0.023741330951452255,0.022600572556257248,-0.009709982201457024,0.2443702071905136,0.11870639026165009,0.16066154837608337,-0.2346511036157608,-0.04801636189222336,0.14550632238388062,0.07474058866500854,-0.0306413471698761,0.16242700815200806,-0.1082877367734909,0.30030497908592224,0.0368783213198185,-0.10031193494796753,-0.14410901069641113,-0.20884810388088226,-0.031793273985385895,-0.35325515270233154,-0.04566819965839386,0.33574503660202026,0.10995807498693466,-0.14446678757667542,0.09648790210485458,-0.08979948610067368,0.1939612776041031,-0.16145847737789154,-0.18354833126068115,-0.0689009428024292,0.11962392181158066,-0.1882839947938919,0.0031511953566223383,0.1272040456533432,0.026061760261654854,0.011363659985363483,-0.05745140090584755,0.056588657200336456,-0.060612890869379044,-0.23538994789123535,-0.03813682124018669,-0.06641116738319397,-0.0481877326965332,0.12379474192857742,0.052195098251104355,0.1575455665588379,-0.27618855237960815,-0.28943678736686707,0.09286931157112122,-0.135649636387825,0.7175770998001099,0.22079059481620789,-0.19532009959220886,-0.06022713705897331,-0.08429278433322906,-0.08329106122255325,0.18755342066287994,0.07228758931159973,0.23806604743003845,0.00023028098803479224,-0.27217239141464233,-0.09649293124675751,0.18737582862377167],[0.05640275031328201,0.15326979756355286,-0.27915284037590027,0.09464272111654282,-0.01581559330224991,0.1965324431657791,0.26968008279800415,0.27536582946777344,-0.2766176462173462,0.014817534945905209,0.3679688572883606,-0.12499229609966278,-0.06505604833364487,-0.14416518807411194,-0.13462954759597778,0.14431267976760864,-0.005670060869306326,-0.22496375441551208,-0.08311526477336884,-0.3095657527446747,0.032707735896110535,-0.27343761920928955,0.031006382778286934,0.030149975791573524,0.30838555097579956,-0.06598875671625137,-0.2616378962993622,0.23103921115398407,-0.2619069516658783,-0.2950670123100281,-0.004369243048131466,-0.073712058365345,-0.27425992488861084,-0.067781001329422,-0.14563468098640442,0.060113683342933655,-0.26946350932121277,-0.06720917671918869,-0.14193014800548553,0.002708913292735815,0.40682801604270935,-0.33184972405433655,0.2248101681470871,-0.10397204011678696,0.026167092844843864,0.18013057112693787,0.08468035608530045,0.08654657751321793,-0.018199589103460312,0.03272650018334389,0.22788578271865845,0.11538221687078476,0.10652562230825424,0.3737422823905945,0.029478225857019424,-0.20020492374897003,0.013465780764818192,0.055678196251392365,0.19954583048820496,0.2986099421977997,-0.07379499822854996,0.16358807682991028,-0.013786912895739079,0.004449693486094475],[0.11491129547357559,0.31174784898757935,0.15125849843025208,0.20448850095272064,0.1272413581609726,-0.10280654579401016,0.15665270388126373,-0.21042342483997345,0.12965066730976105,0.24436485767364502,0.022089477628469467,0.21028107404708862,-0.17421814799308777,-0.06949985772371292,0.14270444214344025,0.30732670426368713,-0.3324800133705139,0.52790367603302,-0.03938301280140877,-0.22927552461624146,0.2480945885181427,0.10220659524202347,-0.03800829499959946,0.017302948981523514,0.18833494186401367,0.2434740513563156,0.006307109259068966,0.04057367518544197,-0.033653903752565384,-0.02136559598147869,0.008415289223194122,0.09647586941719055,0.2496214210987091,-0.057892195880413055,0.17446444928646088,-0.15652725100517273,-0.21779923141002655,-0.1761258989572525,-0.27814117074012756,0.08269820362329483,0.07191246002912521,0.01606079936027527,-0.04415638744831085,-0.04616750031709671,0.16858650743961334,0.10975942015647888,-0.007616959046572447,-0.19489926099777222,-0.010599994100630283,0.29203203320503235,-0.2178913652896881,0.2118108570575714,-0.2596755623817444,0.061404649168252945,-0.14764943718910217,0.06095190346240997,0.05840235948562622,0.05919414386153221,0.15139424800872803,0.05032116547226906,0.2587544918060303,0.2691313922405243,0.06254489719867706,-0.18370357155799866],[-0.3000600337982178,-0.07880430668592453,0.14577272534370422,-0.012483167462050915,0.13298821449279785,0.2130163460969925,-0.015012094751000404,-0.021551107987761497,0.4244726300239563,0.08673007786273956,-0.1537499725818634,0.04142795130610466,-0.10398150235414505,0.07998812943696976,-0.001259172917343676,0.2531100809574127,0.04787832871079445,0.18306483328342438,0.08810920268297195,-0.040363386273384094,0.02595769241452217,-0.09207312762737274,-0.07313749194145203,0.1906495988368988,0.28522542119026184,0.04222936928272247,0.0683131143450737,0.0384647510945797,-0.04864847660064697,-0.3193070888519287,0.1579701155424118,-0.02688836120069027,-0.2436286062002182,0.12587103247642517,0.10494939237833023,-0.03295861557126045,0.09973645210266113,0.19343742728233337,-0.28041890263557434,0.05016397684812546,-0.38247916102409363,0.017863493412733078,0.3692781627178192,-0.1049685850739479,-0.35465389490127563,0.003499167738482356,-0.21589557826519012,-0.3922417163848877,-0.022627875208854675,-0.23874817788600922,0.3183940649032593,-0.23199103772640228,0.11335810273885727,0.01727958768606186,0.09653033316135406,-0.3319268226623535,-0.05060626193881035,0.11378946155309677,-0.0063311257399618626,0.136954665184021,-0.09727660566568375,0.07849365472793579,0.10840433090925217,-0.019936641678214073],[-0.09929254651069641,0.19274866580963135,0.13291974365711212,-0.07533182948827744,0.06029236689209938,-0.2114126831293106,0.05092236399650574,0.04549165815114975,-0.24463887512683868,0.06753528118133545,0.04594836011528969,0.4254847764968872,-0.16408264636993408,-0.05765974894165993,-0.03261341527104378,0.09690459817647934,0.1858709752559662,-0.03197744861245155,-0.2446366399526596,-0.12302892655134201,-0.0032807840034365654,-0.08789914101362228,-0.35377514362335205,0.14136053621768951,0.037621524184942245,-0.4307190477848053,0.20059052109718323,-0.01887769252061844,-0.11415348201990128,-0.15232224762439728,-0.06867370009422302,-0.2687845826148987,0.0511043444275856,0.27401891350746155,-0.0951465517282486,-0.015757406130433083,-0.220494344830513,0.22228847444057465,-0.20607279241085052,-0.29134777188301086,-0.0832148864865303,-0.13416099548339844,-0.15992173552513123,0.017906520515680313,-0.13066893815994263,-0.23806416988372803,0.278528094291687,-0.08146382868289948,0.14546816051006317,-0.16938064992427826,-0.04245159029960632,0.0946880504488945,0.011456169188022614,-0.1526424139738083,-0.14926256239414215,-0.028217341750860214,0.026547718793153763,0.10089406371116638,-0.022133341059088707,-0.4278990626335144,0.2299872487783432,-0.07470903545618057,-0.22504550218582153,0.17522060871124268],[0.08580565452575684,-0.14676642417907715,-0.14464101195335388,-0.09569497406482697,-0.1964230239391327,0.1377439796924591,0.18972955644130707,0.12030653655529022,-0.030653154477477074,-0.11801962554454803,-0.1581733226776123,-0.04066109657287598,-0.47814199328422546,0.028287377208471298,0.27452749013900757,-0.08919781446456909,0.05613882094621658,0.037337131798267365,0.052952516824007034,0.06015070155262947,0.28461018204689026,-0.20032934844493866,-0.0017302309861406684,0.09558635950088501,0.019341152161359787,0.3637516498565674,-0.10919221490621567,-0.30494022369384766,0.26393070816993713,-0.019008297473192215,-0.06766488403081894,0.11711850762367249,-0.21332626044750214,0.238242968916893,0.0398072712123394,-0.03700726479291916,-0.09183027595281601,0.27658161520957947,-0.09014113992452621,0.31603971123695374,-0.07004769891500473,-0.1292068511247635,-0.4312579333782196,-0.331354558467865,-0.13787926733493805,-0.20527122914791107,-0.15022499859333038,0.32655856013298035,-0.10184618830680847,0.08828133344650269,0.008971689268946648,0.20341254770755768,0.04201054573059082,-0.19936813414096832,-0.19340837001800537,0.016335751861333847,0.049233585596084595,0.042122192680835724,-0.11288587003946304,-0.0652681440114975,0.1645909547805786,-0.007155831903219223,0.2290227860212326,0.2977193593978882],[-0.2828463017940521,-0.24454712867736816,0.03215458616614342,-0.12533274292945862,-0.02197834476828575,0.09756113588809967,0.024415766820311546,0.011881840415298939,-0.020136816427111626,-0.1405225694179535,-0.276938259601593,-0.3094521760940552,-0.1487557739019394,0.08678264915943146,0.24527618288993835,0.012808647006750107,-0.21942481398582458,0.16640891134738922,-0.0186812411993742,-0.26669806241989136,-0.020563749596476555,-0.22478900849819183,-0.30802491307258606,-0.1860198676586151,0.28009629249572754,-0.16573691368103027,0.0372566394507885,-0.08336151391267776,0.06156422570347786,0.023312415927648544,0.17781443893909454,-0.00998742412775755,-0.10556669533252716,0.048172127455472946,-0.0927654281258583,-0.29210102558135986,-0.07903265953063965,-0.012463671155273914,0.034647028893232346,-0.13122020661830902,0.1818944662809372,0.140005961060524,0.22844071686267853,-0.01809755712747574,0.15017686784267426,-0.047310661524534225,0.3945479989051819,-0.02013702318072319,0.019531037658452988,0.06418975442647934,-0.15197092294692993,-0.02109614387154579,-0.06348906457424164,-0.14089959859848022,-0.12625616788864136,0.04073677211999893,0.15261493623256683,-0.5277641415596008,0.12239822000265121,0.1345880925655365,-0.08675714582204819,-0.4876363277435303,0.12388475984334946,0.004366569686681032],[-0.22880052030086517,-0.0925629585981369,0.14927726984024048,-0.17326794564723969,0.1907944679260254,-0.014432009309530258,-0.051818061619997025,-0.19754251837730408,-0.05026088282465935,0.013567503541707993,-0.04639248549938202,0.12452588975429535,-0.03389064967632294,-0.20120768249034882,-0.04878172278404236,-0.15967586636543274,-0.20811231434345245,-0.13676029443740845,0.07695052772760391,-0.06053697690367699,0.08935437351465225,0.1825827658176422,0.10917890071868896,-0.37637537717819214,0.1317119300365448,0.0597759447991848,-0.18758410215377808,0.19214196503162384,0.33426713943481445,-0.2477007955312729,0.31847962737083435,0.13807880878448486,-0.055732522159814835,0.08496163040399551,0.18956416845321655,-0.04606083035469055,0.06898324936628342,0.16328580677509308,0.09046964347362518,0.06904000788927078,-0.025458263233304024,-0.03485904633998871,-0.06465097516775131,-0.08164450526237488,0.3003280758857727,-0.12280063331127167,0.48589804768562317,0.14894454181194305,0.28531375527381897,0.24451293051242828,0.11579696089029312,-0.24278980493545532,0.0341382697224617,-0.019549662247300148,0.03299786522984505,-0.28346750140190125,-0.4177181124687195,0.11605954170227051,0.01259921956807375,-0.13697098195552826,0.17040470242500305,0.2544476091861725,0.0013336058473214507,0.12705592811107635],[0.017916783690452576,-0.1293509155511856,0.16841229796409607,0.2028956562280655,0.04467836767435074,-0.0102155189961195,-0.084780253469944,0.23543314635753632,-0.12908247113227844,0.031027261167764664,-0.25143420696258545,0.030366813763976097,-0.04795239493250847,0.15668360888957977,0.024006880819797516,0.1473032683134079,-0.3037448227405548,-0.07966920733451843,-0.18604154884815216,-0.2277655303478241,-0.03855391964316368,-0.030899908393621445,-0.0664248988032341,-0.2299976497888565,-0.15447892248630524,-0.06784775108098984,0.03536432608962059,0.3095102608203888,0.07185628265142441,-0.027275923639535904,-0.1501496583223343,0.04071774706244469,0.05399618670344353,-0.06937559694051743,0.37662678956985474,-0.032564204186201096,-0.25438836216926575,-0.3343275189399719,0.34782302379608154,0.11423227936029434,0.10428719967603683,-0.048714593052864075,0.2711866796016693,0.05909453704953194,-0.3451220393180847,-0.3543682396411896,-0.16232827305793762,0.07794426381587982,0.11166898161172867,-0.13950012624263763,0.16121609508991241,0.05522048845887184,0.1605885922908783,0.1460832804441452,-0.006378715857863426,0.10182631015777588,-0.14773088693618774,0.2630867660045624,-0.2340567260980606,0.19852951169013977,0.3646641969680786,-0.14992451667785645,0.12676729261875153,0.15470023453235626],[0.0084830392152071,-0.07971148192882538,0.020150979980826378,-0.15376214683055878,0.3491000831127167,0.03984266147017479,0.0003826807369478047,-0.12135791778564453,-0.07434790581464767,-0.008886326104402542,-0.10374262183904648,0.06246832758188248,0.38864976167678833,-0.0325704850256443,0.1556815505027771,-0.004132998641580343,0.13481250405311584,-0.21619728207588196,0.1296592503786087,-0.11876507103443146,0.11613249778747559,-0.15874385833740234,0.055736102163791656,-0.05578789487481117,-0.0018440044950693846,-0.10172257572412491,0.40774786472320557,-0.11653880029916763,-0.009642806835472584,-0.5876786708831787,0.0531538650393486,-0.17417776584625244,-0.2852837145328522,0.12520702183246613,0.47678858041763306,0.034962497651576996,-0.2838040590286255,-0.22103101015090942,0.12309519201517105,-0.08115889132022858,0.2766903340816498,0.004802144598215818,-0.12360594421625137,-0.1685764193534851,0.046632926911115646,0.16309963166713715,-0.3235553503036499,0.03835265710949898,-0.20720304548740387,-0.04829031229019165,0.105730339884758,0.018584998324513435,-0.08418454229831696,0.058128852397203445,0.1655207872390747,0.27181023359298706,0.13870398700237274,-0.11937740445137024,-0.01082908920943737,-0.11056001484394073,-0.056855395436286926,0.15797530114650726,-0.15550793707370758,-0.3820202350616455],[0.25549209117889404,-0.05265529826283455,0.12818479537963867,-0.020973116159439087,0.2945450246334076,0.023140016943216324,-0.10988520085811615,-0.3486807942390442,-0.28997811675071716,0.2228926122188568,-0.020312661305069923,-0.24708272516727448,-0.24035809934139252,-0.14624552428722382,0.05829114466905594,-0.08809849619865417,0.21477766335010529,-0.12448213994503021,0.08338163793087006,0.32197022438049316,0.0963832214474678,-0.21273666620254517,0.04898553341627121,0.10839282721281052,0.13034003973007202,0.08024267107248306,0.1571749895811081,0.27345338463783264,-0.05223149433732033,0.24735064804553986,-0.6161361336708069,-0.09284868836402893,0.012465185485780239,0.16448479890823364,0.06571397930383682,-0.08511537313461304,0.17168161273002625,0.14927756786346436,-0.029750671237707138,0.2071509212255478,-0.13129012286663055,-0.06796085834503174,0.19429276883602142,-0.07026464492082596,0.15498456358909607,-0.25597643852233887,0.20453038811683655,-0.05515953153371811,0.09445858746767044,-0.03927100822329521,0.2268066108226776,-0.09635034948587418,-0.31806591153144836,0.13179105520248413,-0.10311001539230347,0.13140225410461426,0.09105589240789413,-0.08969815820455551,-0.10301445424556732,0.15308621525764465,0.026046842336654663,-0.05247635766863823,-0.07565068453550339,-0.24347834289073944],[0.06263675540685654,-0.03924187272787094,-0.5180467367172241,0.07653196156024933,-0.1723199188709259,0.07432769984006882,0.0396578349173069,-0.26877057552337646,0.12298629432916641,-0.23624016344547272,0.17167992889881134,0.2353101670742035,0.12186155468225479,0.051567744463682175,-0.09079571813344955,-0.15426549315452576,0.06685222685337067,-0.02303398959338665,-0.00547019811347127,-0.14852502942085266,-0.1494911015033722,0.0528140664100647,0.11693315207958221,-0.07335729897022247,0.18958619236946106,-0.3676322102546692,0.4987463355064392,-0.0020778041798621416,-0.14955569803714752,0.13021862506866455,0.06471460312604904,0.33367273211479187,-0.06589822471141815,-0.11008626222610474,0.19299159944057465,0.0336536206305027,-0.09356637299060822,0.1142016276717186,-0.14068029820919037,0.005320856347680092,-0.09120338410139084,-0.25370699167251587,0.07305912673473358,-0.21541552245616913,0.00856180302798748,0.07133011519908905,0.07898157835006714,-0.03185082972049713,-0.17020151019096375,0.07091894000768661,-0.01310558058321476,-0.01858765073120594,-0.27332988381385803,-0.06750015169382095,0.014254070818424225,-0.03910544514656067,-0.29096511006355286,0.0348333902657032,-0.17922821640968323,0.2022925168275833,0.399507611989975,-0.19170333445072174,0.2921098470687866,-0.08216221630573273],[0.2162093073129654,-0.06937959790229797,0.02815479412674904,0.033003319054841995,0.5287783145904541,0.3160558342933655,0.09361930191516876,-0.008246622048318386,0.3532148003578186,-0.19560466706752777,0.07529512792825699,-0.03733326494693756,0.1654684990644455,0.1937853991985321,-0.030402928590774536,-0.08420039713382721,-0.019818991422653198,-0.31968963146209717,0.09754353761672974,-0.46916094422340393,-0.015761351212859154,0.08363474905490875,-0.1430254429578781,-0.13686972856521606,0.07914659380912781,0.0705353170633316,-0.03708293288946152,0.06024220213294029,-0.2023482769727707,-0.015258384868502617,-0.0404188297688961,0.05836939066648483,-0.13639838993549347,0.21220161020755768,-0.2806375324726105,-0.02713199332356453,-0.0903821811079979,-0.1595570296049118,-0.30206090211868286,-0.029983386397361755,-0.0016169608570635319,0.12987175583839417,-0.3456001281738281,0.33559373021125793,0.10561319440603256,-0.17008240520954132,0.05851943790912628,-0.1512613594532013,-0.008320994675159454,-0.03730803728103638,-0.028327804058790207,0.020492779091000557,0.07615086436271667,0.2409829944372177,-0.12407518923282623,0.20274555683135986,-0.024813178926706314,0.44915691018104553,-0.11101382970809937,-0.015449385158717632,-0.08199324458837509,-0.18836025893688202,0.24027268588542938,-0.15110939741134644],[-0.2998151481151581,-0.07191811501979828,-0.20954091846942902,0.06058633327484131,0.15647649765014648,-0.24525699019432068,0.11221574991941452,0.09936295449733734,0.051324307918548584,0.1923755258321762,0.07279487699270248,0.001512917224317789,-0.16944339871406555,0.03238023817539215,0.03283362835645676,-0.25092706084251404,0.055121049284935,0.0537274107336998,-0.20568028092384338,0.23300659656524658,-0.04799262061715126,0.3308791220188141,-0.15504401922225952,-0.004412675742059946,-0.15982317924499512,-0.32278478145599365,-0.10170460492372513,-0.20874449610710144,-0.024507515132427216,0.01146518625319004,0.12328711897134781,0.14356663823127747,-0.11786603182554245,0.08865795284509659,-0.08237660676240921,0.02282644622027874,0.0864381492137909,-0.08839903026819229,-0.036345578730106354,0.44804027676582336,0.364467591047287,0.11141157150268555,0.07774394005537033,0.09851709008216858,0.018639974296092987,-0.3239295184612274,0.0060796733014285564,-0.028054362162947655,-0.1369277685880661,-0.23797856271266937,0.3221973478794098,0.14758482575416565,-0.21028254926204681,-0.15899178385734558,-0.2876841127872467,0.03601609170436859,-0.1436021775007248,0.043904151767492294,0.18183326721191406,0.037627898156642914,-0.18978187441825867,0.26555702090263367,0.10773883759975433,-0.27406808733940125],[0.03545111417770386,0.2504812777042389,-0.0358743891119957,0.3955906629562378,0.2615303695201874,0.032073937356472015,0.26235300302505493,-0.15830817818641663,-0.17281576991081238,0.06469385325908661,0.13042108714580536,-0.11828817427158356,0.059150341898202896,-0.03879988193511963,-0.2904787063598633,-0.36197859048843384,-0.06780525296926498,0.053700029850006104,0.0005397768109105527,-0.19237257540225983,-0.1419469714164734,-0.22421900928020477,-0.5189128518104553,0.0115429712459445,-0.0017525159055367112,0.10989894717931747,-0.007707295008003712,-0.13035696744918823,0.2170977145433426,0.23089970648288727,0.17527073621749878,-0.053513236343860626,0.06205253675580025,0.13823291659355164,0.23764929175376892,0.01988966204226017,0.042557794600725174,0.21825477480888367,0.22296860814094543,-0.028245359659194946,-0.36828452348709106,0.02448263205587864,0.03619474172592163,0.17220118641853333,0.1478564590215683,0.16956736147403717,-0.18874497711658478,0.2314501702785492,0.06081799790263176,0.0690978392958641,0.2369978278875351,0.09158619493246078,0.2436102330684662,-0.29455214738845825,-0.1088944748044014,-0.12045454233884811,0.07778257876634598,-0.17597897350788116,-0.10553495585918427,0.07611867785453796,-0.024351907894015312,0.12942783534526825,0.0838414803147316,-0.018367750570178032],[-0.06309856474399567,-0.06920332461595535,-0.25266778469085693,0.3358107805252075,0.08327453583478928,-0.0863737016916275,0.29872292280197144,-0.3524737060070038,0.1472046822309494,-0.0021260040812194347,0.00469587417319417,0.23023314774036407,-0.14486263692378998,0.054315775632858276,0.07571946829557419,0.2589835226535797,0.138432577252388,-0.1561056226491928,-0.247557133436203,0.01972612738609314,0.2451019436120987,-0.18924251198768616,0.17516160011291504,-0.07556815445423126,-0.33819541335105896,0.03722428157925606,0.15080249309539795,0.07217695564031601,-0.24000786244869232,-0.10722653567790985,0.10812636464834213,-0.3466682434082031,0.17321309447288513,-0.11926418542861938,0.057667240500450134,0.10415457934141159,0.17855845391750336,0.11545664072036743,-0.17049340903759003,-0.18280567228794098,0.16784043610095978,0.13319726288318634,-0.04145112261176109,-0.009435380809009075,0.04023899883031845,-0.17646825313568115,0.05461509898304939,0.20174360275268555,0.3032973110675812,-0.25685614347457886,-0.0548660084605217,-0.06559079885482788,0.3016018569469452,0.09645922482013702,0.45612794160842896,0.3851401209831238,-0.03106822445988655,-0.1124330461025238,0.15209916234016418,0.3047432601451874,-0.12234587967395782,0.0511319600045681,0.35081109404563904,-0.17131726443767548],[-0.20091918110847473,-0.18746376037597656,0.042536672204732895,0.027633965015411377,-0.16722625494003296,-0.09912247210741043,-0.2871253192424774,0.002901921048760414,0.07720093429088593,0.12286485731601715,0.0008841170929372311,-0.0711960643529892,-0.08028129488229752,-0.012624379247426987,-0.15962061285972595,-0.14449284970760345,-0.15748344361782074,0.019015507772564888,-0.20967817306518555,-0.5186103582382202,0.24506829679012299,-0.15008121728897095,0.17658133804798126,0.08669336140155792,-0.11414911597967148,-0.1672784686088562,-0.3158293068408966,0.07009106129407883,0.002827681368216872,-0.13217079639434814,-0.12875182926654816,0.24190056324005127,-0.03341507539153099,-0.14764748513698578,-0.13689643144607544,-0.05924780294299126,0.036311227828264236,0.1674024611711502,0.1551714539527893,-0.207328200340271,-0.30291977524757385,0.006972954608500004,-0.2141672521829605,-0.18171775341033936,-0.014861088246107101,0.2600451409816742,-0.09509189426898956,0.0802442729473114,0.16749076545238495,-0.12877266108989716,0.19822141528129578,-0.10835689306259155,-0.2666996717453003,-0.2678384780883789,-0.34399932622909546,0.34087952971458435,0.08910693228244781,0.14452321827411652,0.15665462613105774,0.14433784782886505,0.08108656108379364,0.0075572640635073185,-0.12196926772594452,-0.2533559501171112],[0.197950541973114,0.19493035972118378,-0.2673135995864868,-0.10816077888011932,0.07341483235359192,-0.18442554771900177,-0.26542291045188904,-0.280913770198822,0.10180597752332687,-0.02615971863269806,-0.08682138472795486,-0.151035875082016,0.09859555214643478,-0.04197680205106735,-0.021650835871696472,0.2609008550643921,0.14203546941280365,-0.2913520932197571,0.1723250299692154,0.06297802925109863,-0.07267577946186066,-0.29597339034080505,-0.3274747431278229,0.05339972674846649,-0.4550493657588959,0.05660814046859741,-0.1458495408296585,0.29865968227386475,0.1337871104478836,-0.2587832510471344,0.12178891897201538,-0.11572775989770889,0.10937616229057312,0.10241299867630005,0.009483281522989273,-0.019704505801200867,0.10028554499149323,0.08496131747961044,-0.17434823513031006,-0.10225345194339752,0.3387458324432373,-0.10213695466518402,0.07519908249378204,0.06866607069969177,-0.39110881090164185,0.12335290759801865,-0.19475387036800385,-0.10878711193799973,0.09112001210451126,0.04840564727783203,-0.3244963586330414,0.15595804154872894,-0.13626688718795776,0.038218844681978226,-0.2802879214286804,-0.004828433506190777,-0.5020002126693726,-0.09692000597715378,0.0014525544829666615,0.13909335434436798,-0.06104692444205284,-0.016566172242164612,0.18184113502502441,-0.24191045761108398],[-0.21914947032928467,-0.25154909491539,0.2595549523830414,0.054963141679763794,-0.1327672153711319,-0.1569039523601532,0.12903155386447906,0.04882096126675606,0.35766685009002686,-0.0016133630415424705,0.11614002287387848,0.5402883887290955,0.14994855225086212,-0.15198028087615967,-0.15312451124191284,-0.23155704140663147,0.06396091729402542,0.15800945460796356,-0.009085766039788723,0.014542588964104652,-0.08003713935613632,-0.41784465312957764,0.04092041030526161,-0.18836621940135956,0.27461495995521545,0.1491435021162033,0.1127055287361145,0.1769179403781891,-0.07510732114315033,-0.09646552056074142,-0.07860100269317627,0.15393055975437164,-0.202565535902977,0.007892269641160965,-0.08520832657814026,0.14287422597408295,-0.11727476865053177,0.18334068357944489,0.058845821768045425,0.07946951687335968,0.0060531566850841045,-0.011048950254917145,0.2692386209964752,0.32169753313064575,0.03707487881183624,-0.0579763725399971,-0.22676214575767517,0.23139896988868713,0.07202618569135666,0.12367293983697891,-0.2585304379463196,0.22226060926914215,-0.08307823538780212,0.2635122835636139,-0.2813916504383087,0.11853498220443726,-0.10966522991657257,0.038635749369859695,0.015886932611465454,0.1126556247472763,-0.12475842237472534,-0.10691173374652863,-0.13603101670742035,0.052469659596681595],[0.253926157951355,-0.20433007180690765,0.2182512730360031,0.01695735566318035,-0.0727086141705513,0.38558027148246765,0.15554964542388916,0.09784296900033951,-0.06630478799343109,0.06012506037950516,0.006960953585803509,0.2128628045320511,0.0023698213044553995,0.14619268476963043,0.12681053578853607,0.2838689982891083,0.22080592811107635,-0.04324125126004219,0.034082598984241486,-0.05454264208674431,-0.34379708766937256,0.11490797996520996,-0.2727333605289459,-0.25279557704925537,-0.17859089374542236,-0.05177830904722214,-0.19417893886566162,-0.01479561161249876,0.028287069872021675,0.04938700050115585,0.06572629511356354,0.23710910975933075,0.19549992680549622,0.050512682646512985,0.01941785216331482,-0.11334638297557831,0.17823131382465363,0.5113868117332458,0.04652467742562294,0.3089826703071594,0.10877495259046555,-0.09475895762443542,-0.10093618929386139,0.05985664203763008,-0.1947173774242401,0.07718557119369507,0.09089618921279907,-0.019018802791833878,-0.004722168203443289,0.10270652174949646,0.07481303811073303,0.03203834593296051,-0.19793780148029327,-0.18489272892475128,0.3976759612560272,0.1882065087556839,0.1251542717218399,-0.09269392490386963,0.12559105455875397,0.17293192446231842,0.08105722069740295,0.07179921120405197,-0.41017240285873413,-0.19239377975463867],[-0.10904362797737122,0.1943368762731552,0.0365694984793663,0.13510657846927643,0.1205349788069725,0.045080751180648804,0.06648381054401398,-0.10124454647302628,-0.01232816744595766,-0.24571260809898376,0.12375760823488235,0.19877249002456665,-0.17866060137748718,-0.2809310853481293,-0.40778106451034546,0.19349119067192078,-0.15701991319656372,-0.24923548102378845,0.2648411989212036,-0.15367837250232697,0.2767286002635956,0.14000411331653595,0.09153413027524948,-0.21606653928756714,0.13177599012851715,-0.08592445403337479,-0.07343079149723053,-0.09042001515626907,-0.018523136153817177,0.059440359473228455,-0.054676953703165054,-0.2936048209667206,-0.11370803415775299,-0.2325381487607956,0.08123280107975006,-0.11949583888053894,0.06829575449228287,0.028989218175411224,0.22013843059539795,0.2780971825122833,-0.007776384707540274,0.09347722679376602,-0.02799156680703163,-0.2254435122013092,-0.2386256903409958,0.08181562274694443,-0.09585422277450562,-0.1474234163761139,0.04579995200037956,-0.233716681599617,-0.09672600030899048,0.43004289269447327,-0.13148218393325806,0.1326352208852768,0.19240114092826843,-0.044608160853385925,-0.17634831368923187,0.007458933163434267,0.010455803945660591,-0.2177869975566864,-0.2736431956291199,-0.4656958281993866,0.018338913097977638,-0.2816213369369507],[-0.13810965418815613,0.20575232803821564,0.06309480220079422,0.27048757672309875,0.04002625495195389,0.26368817687034607,-0.4895052909851074,0.0837995857000351,-0.23993857204914093,0.10939252376556396,0.231736421585083,0.014249510131776333,0.19672489166259766,-0.05527421832084656,0.2531188428401947,-0.15201295912265778,0.09940434247255325,0.05552614480257034,0.11625594645738602,-0.16423074901103973,0.01294434443116188,-0.05744302645325661,0.08058369159698486,-0.26984935998916626,-0.2225170135498047,-0.09234422445297241,-0.1134045347571373,-0.1368907243013382,0.01881220005452633,0.20292837917804718,-0.07566693425178528,-0.2638382613658905,-0.038080502301454544,0.11191006749868393,-0.17836220562458038,-0.15802903473377228,0.10501062870025635,0.3045943081378937,-0.1637391597032547,-0.06890391558408737,0.11170301586389542,0.389762818813324,0.27650386095046997,-0.36601534485816956,-0.08444250375032425,-0.3741428852081299,-0.15612171590328217,0.09758627414703369,-0.2702740430831909,0.10950644314289093,-0.26336807012557983,-0.10526011139154434,-0.1400192379951477,-0.03893061354756355,0.15524403750896454,0.15026241540908813,-0.03557353466749191,-0.074469193816185,-0.16481833159923553,-0.04682772606611252,-0.11737871170043945,0.4115234911441803,0.12589362263679504,0.16998271644115448],[0.14367061853408813,-0.04347026348114014,0.13827522099018097,-0.18712303042411804,0.23638667166233063,-0.3338456153869629,-0.13356517255306244,0.21985773742198944,-0.01015035342425108,0.21463853120803833,0.30200833082199097,0.0062693217769265175,0.11042235791683197,0.12624922394752502,0.06414962559938431,0.025746092200279236,-0.156378373503685,0.08523565530776978,0.004630650859326124,-0.04131005331873894,0.06679897755384445,-0.028624938800930977,0.324358731508255,-0.051151588559150696,0.2673930525779724,-0.23188884556293488,-0.051133718341588974,-0.29547974467277527,0.4416405260562897,-0.08342093974351883,0.20697744190692902,0.2299336940050125,0.14790798723697662,0.3932129740715027,-0.22005489468574524,0.16032543778419495,-0.005782898515462875,0.07728663086891174,-0.03657006844878197,-0.03393945470452309,-0.14197254180908203,-0.15982627868652344,0.1619698852300644,-0.07642687112092972,0.0851525142788887,0.21094125509262085,0.02699124440550804,-0.031023411080241203,0.15259408950805664,-0.25646159052848816,-0.047134578227996826,0.42311203479766846,0.2719321548938751,0.23613770306110382,0.10919486731290817,-0.041242510080337524,0.08178379386663437,0.04373358562588692,-0.1657242327928543,0.3075421452522278,0.2662992477416992,-0.2515868544578552,0.16636362671852112,-0.18708807229995728],[-0.1692054569721222,0.10209719836711884,-0.05227496102452278,-0.3236561715602875,0.1310507208108902,-0.26358911395072937,0.45852553844451904,0.0404125414788723,-0.15796899795532227,-0.30956321954727173,0.023603292182087898,-0.1903446763753891,0.39342454075813293,0.17207445204257965,-0.1256115585565567,0.132178395986557,-0.4814320504665375,0.12320687621831894,-0.02637563645839691,0.0050774202682077885,-0.04549425467848778,-0.01338818110525608,0.29091498255729675,-0.11702609062194824,-0.0435669906437397,0.000936608063057065,0.005065589677542448,0.5246286392211914,-0.23843899369239807,-0.007784957531839609,-0.055142488330602646,-0.1125413328409195,-0.04570429027080536,0.2688622772693634,-0.06356967985630035,-0.060310423374176025,-0.2048097401857376,0.18151916563510895,-0.25205308198928833,0.05537746846675873,-0.1519317924976349,-0.03245309367775917,-0.11538657546043396,0.04154758155345917,-0.24424149096012115,-0.1103537455201149,-0.17731328308582306,0.2331494241952896,-0.08783720433712006,-0.16869063675403595,-0.12543851137161255,-0.09405014663934708,-0.13680939376354218,-0.053624674677848816,0.2090088427066803,-0.03404562920331955,-0.07701853662729263,-0.07338842004537582,-0.018043000251054764,0.025897303596138954,-0.11158489435911179,0.04463397338986397,0.09373549371957779,-0.33929726481437683],[-0.04028948023915291,-0.14902228116989136,-0.5989008545875549,-0.17460432648658752,0.11703575402498245,-0.2564218044281006,-0.11911920458078384,0.0906854197382927,0.15608027577400208,0.02498793788254261,0.16955029964447021,0.26804494857788086,0.19662196934223175,-0.02561062015593052,-0.24446254968643188,0.11368731409311295,-0.05281740427017212,0.01949664019048214,0.03232308477163315,-0.17241190373897552,0.025878561660647392,-0.3219561278820038,-0.28381872177124023,-0.12401686608791351,0.1635572910308838,0.16219697892665863,-0.12236137688159943,0.27107909321784973,0.09806884080171585,-0.0626358762383461,-0.37532272934913635,0.2305523157119751,-0.013653307221829891,0.01934092678129673,0.04722192510962486,-0.021222349256277084,0.03870473802089691,-0.26853469014167786,0.028016045689582825,-0.055318403989076614,0.030431654304265976,0.16558943688869476,-0.2695431411266327,-0.24339230358600616,0.06591573357582092,-0.324459433555603,-0.0011592610972002149,-0.40779078006744385,-0.0670095682144165,-0.16136595606803894,-0.1017453670501709,0.03460777550935745,0.263390451669693,-0.02978690341114998,0.3977627754211426,-0.0845334455370903,-0.025857217609882355,-0.16938088834285736,-0.00713164359331131,0.11942870169878006,-0.10894732177257538,0.11774684488773346,-0.15326732397079468,-0.08230853825807571],[-0.22504977881908417,0.21941085159778595,-0.008938541635870934,0.21083173155784607,0.17414169013500214,-0.09423761814832687,0.04107251763343811,0.3742232918739319,-0.05690659582614899,-0.2728646695613861,-0.12950265407562256,-0.1654573678970337,-0.12777963280677795,0.327337384223938,0.07784953713417053,-0.022907068952918053,-0.09102591127157211,-0.054977186024188995,-0.061728816479444504,0.2541941702365875,0.32140788435935974,-0.06424611806869507,-0.2555781602859497,-0.2440943419933319,-0.26433953642845154,-0.0016701753484085202,0.09352622181177139,-0.038798246532678604,-0.000943597056902945,-0.07338683307170868,0.1445193886756897,0.2625044286251068,-0.1652219444513321,-0.07445897161960602,-0.07909268885850906,0.332030713558197,0.2509457468986511,0.14840219914913177,-0.030050015076994896,0.006045485381036997,-0.24216942489147186,-0.1475924402475357,0.1313004195690155,-0.2465406209230423,0.4449082612991333,-0.017401406541466713,-0.13117657601833344,-0.17225870490074158,0.12321525067090988,0.2255999892950058,-0.12935498356819153,-0.030117470771074295,-0.24169522523880005,0.15308773517608643,-0.07767903804779053,-0.11347930878400803,0.19975514709949493,0.16013062000274658,-0.0015736276982352138,-0.009736292064189911,0.18205858767032623,-0.16625036299228668,-0.3664516508579254,0.10976796597242355],[0.18836766481399536,0.039480533450841904,-0.4011578857898712,0.016176631674170494,0.4383927583694458,-0.10114893317222595,-0.1810634881258011,-0.14314356446266174,-0.09228925406932831,0.4129672646522522,-0.24580831825733185,-0.034822016954422,-0.10436643660068512,0.37829694151878357,-0.5132445096969604,0.19590993225574493,0.21512477099895477,-0.22139966487884521,-0.05638914182782173,0.21024103462696075,-0.19628295302391052,-0.10161349177360535,0.23680222034454346,-0.21385571360588074,0.13306553661823273,-0.03599204495549202,-0.15152068436145782,-0.05495523288846016,-0.10352365672588348,-0.17547644674777985,0.10947004705667496,-0.10062574595212936,0.05136999115347862,-0.45298629999160767,0.09301277250051498,-0.250859797000885,-0.23952972888946533,0.1442367136478424,-0.26888954639434814,0.09721711277961731,-0.0381004624068737,0.24155555665493011,0.08125398308038712,0.07650630176067352,-0.1955941617488861,-0.15654915571212769,-0.09621495753526688,0.2818746864795685,-0.21797417104244232,0.09116032719612122,-0.2902300953865051,-0.10429468005895615,0.0641726478934288,-0.08902844041585922,0.020674489438533783,0.1211562380194664,0.16347168385982513,-0.023483112454414368,0.13343796133995056,-0.11672809720039368,-0.026699254289269447,-0.029079262167215347,-0.02909529022872448,-0.02173074521124363],[0.12016522884368896,0.12728652358055115,-0.1465749442577362,-0.1632845550775528,0.22162990272045135,0.05014951899647713,0.003652381245046854,-0.014275411143898964,0.33952534198760986,-0.06319627910852432,-0.09112857282161713,0.16181448101997375,-0.2428111881017685,0.2793372869491577,0.040594883263111115,-0.1485089361667633,-0.01800137758255005,-0.015565217472612858,0.14801952242851257,-0.11493004858493805,-0.2771334648132324,-0.20575162768363953,0.1266898512840271,0.029916048049926758,-0.23728007078170776,-0.003827053587883711,-0.1524168998003006,0.15425962209701538,-0.08337049186229706,0.3885762691497803,-0.08721287548542023,-0.3700953423976898,-0.2869640588760376,-0.0913398340344429,0.15280720591545105,0.33364996314048767,-0.16809700429439545,-0.0766969695687294,-0.04362024739384651,0.21949642896652222,0.16353842616081238,0.002851322526112199,0.2758093774318695,-0.2412976175546646,-0.120884008705616,0.2602129876613617,0.2978668212890625,0.016786444932222366,0.07279548794031143,-0.23472747206687927,-0.32525354623794556,-0.07833307981491089,0.27002203464508057,-0.12251037359237671,0.008282171562314034,0.17475630342960358,-0.0036429448518902063,-0.045800045132637024,-0.012128258123993874,-0.19794532656669617,0.12062235176563263,0.3043542206287384,-0.15881524980068207,-0.3431357443332672]],"b":[0.005739276763051748,-0.01867140643298626,0.001935978652909398,0.042350295931100845,0.012345305643975735,0.04288275167346001,-0.02163957618176937,-0.01788327656686306,-0.016490213572978973,0.00792626105248928,0.027492141351103783,0.014092786237597466,0.017661146819591522,-0.009847243316471577,-0.025247495621442795,-0.023678824305534363,0.006776113063097,-0.014471367001533508,0.0051302844658494,0.0001354507403448224,-0.019422613084316254,-0.01677209883928299,-0.014136485755443573,-0.00577077642083168,0.018081000074744225,-0.005669516511261463,0.0039055244997143745,0.005117493215948343,0.0037703756242990494,0.025505296885967255,0.014111788012087345,-0.009310361929237843,-0.020990734919905663,0.016017857939004898,0.0048687090165913105,-0.0082320561632514,-0.005028201267123222,0.0007319744327105582,-0.010609754361212254,0.012625749222934246,-0.04368719086050987,0.0033897568937391043,0.02384844981133938,0.03976405784487724,-0.014372855424880981,0.0013192194746807218,-0.008641928434371948,-0.004475220572203398,0.012727349996566772,-0.012368998490273952,0.00042917384416796267,0.022289924323558807,0.03116670623421669,-0.020147545263171196,0.006964453961700201,-0.01390435267239809,-0.016100358217954636,0.014593156054615974,0.001420028624124825,-0.03229844570159912,0.0008240831084549427,0.019735563546419144,0.006491577252745628,0.0009663187665864825],"act":"tanh"},{"W":[[0.06926915049552917,-0.020701611414551735,-0.05326954275369644,-0.10022042691707611,0.12657012045383453,0.04533684626221657,0.09719013422727585,-0.11318609118461609,-0.014343887567520142,-0.0885721743106842,-0.015610194765031338,0.057502876967191696,0.0437508150935173,0.14708463847637177,0.017205802723765373,0.10188348591327667,-0.003814441617578268,-0.062196701765060425,0.10721287131309509,0.12982521951198578,0.01907368004322052,0.025043483823537827,-0.021694716066122055,0.10181078314781189,0.019922778010368347,0.1276136338710785,-0.030532505363225937,0.02401924692094326,-0.053680870682001114,0.03304130211472511,-0.05432230234146118,0.13151578605175018,-0.0295681431889534,-0.021566711366176605,-0.06663580983877182,-0.07266935706138611,-0.10833359509706497,-0.11464454978704453,-0.04539088159799576,-0.05709593743085861,-0.0016936997417360544,0.05194299295544624,-0.01016756147146225,-0.012517566792666912,-0.044782210141420364,-0.06591814011335373,0.0677163377404213,-0.05749483406543732,-0.09663736820220947,0.026624148711562157,0.01634087599813938,-0.002013483550399542,-0.020832747220993042,-0.004713078495115042,-0.0631839781999588,0.089378222823143,-0.07216720283031464,0.12459076941013336,-0.09922618418931961,-0.07853896915912628,-0.0789041742682457,0.014587567187845707,0.054539453238248825,0.020621465519070625],[-0.04472455009818077,0.00048847496509552,-0.02713850885629654,-0.059796784073114395,-0.02651810646057129,-0.13871784508228302,0.05111468583345413,0.08090917021036148,-0.10586469620466232,0.11025416105985641,-0.032110795378685,0.011829420924186707,-0.037810031324625015,